window.MNIST_MODEL = {"meta":{"dataset":"MNIST","trainSamples":60000,"augmentedSamples":15000,"testSamples":10000,"testAccuracy":0.979,"epochs":24,"architecture":[784,128,64,10],"lossCurve":[0.616749,0.268785,0.191631,0.153798,0.129373,0.110697,0.096072,0.085774,0.074415,0.067881,0.061646,0.05301,0.046878,0.044658,0.039567,0.034876,0.029716,0.028022,0.024794,0.022772,0.019455,0.02012,0.018909,0.016413],"validationCurve":[0.8968,0.929733,0.940267,0.947333,0.954133,0.954933,0.956133,0.960133,0.9592,0.9592,0.961733,0.960933,0.9592,0.958,0.961867,0.959333,0.962933,0.962667,0.963067,0.961467,0.959733,0.9616,0.9636,0.959733],"parameterCount":109386},"layers":[{"input":784,"output":128,"weights":[0.010912000201642513,-0.16061000525951385,-0.08070000261068344,0.050411999225616455,0.19987499713897705,-0.04725399985909462,-0.27471300959587097,0.11883900314569473,-0.006756000220775604,-0.2662929892539978,-0.146479994058609,-0.007974999956786633,0.17246100306510925,0.13813500106334686,0.05594699829816818,-0.22788499295711517,0.06851699948310852,-0.013983000069856644,0.16715799272060394,-0.06846500188112259,0.07531300187110901,-0.2566229999065399,-0.12473700195550919,-0.037459999322891235,-0.03338100016117096,-0.0927560031414032,0.021418999880552292,-0.04467400163412094,0.07539299875497818,0.02118000015616417,0.03458100184798241,-0.22946999967098236,0.1125980019569397,-0.062153998762369156,0.0464479997754097,0.06487900018692017,0.3075230121612549,-0.2147359997034073,-0.05066100135445595,-0.3190639913082123,0.15838399529457092,-0.16583900153636932,-0.396109014749527,0.18858100473880768,-0.11958000063896179,-0.09829200059175491,0.4773840010166168,0.2977280020713806,0.11680199950933456,-0.1864510029554367,0.22022999823093414,0.1218620017170906,0.304951012134552,0.291267991065979,-0.0720050036907196,0.32371199131011963,-0.16789500415325165,0.09872599691152573,0.2177100032567978,-0.08895900100469589,0.0007379999733529985,0.27919700741767883,-0.04707900062203407,-0.1756560057401657,0.2986530065536499,0.08222100138664246,-0.13606500625610352,0.1707870066165924,-0.10862000286579132,-0.03208500146865845,0.12474499642848969,-0.0930119976401329,0.23549799621105194,-0.22114400565624237,0.11648599803447723,0.15916599333286285,-0.20745700597763062,0.3714509904384613,-0.00889699999243021,0.04820999875664711,-0.07846199721097946,0.03986300155520439,-0.06330300122499466,-0.14379100501537323,0.22228999435901642,-0.02611600048840046,-0.0804319977760315,0.2226399928331375,-0.00914399977773428,-0.16105499863624573,-0.07355699688196182,0.2122109979391098,-0.018603000789880753,0.15457400679588318,-0.018657000735402107,0.05068400129675865,-0.13428400456905365,0.07675699889659882,-0.2250789999961853,0.010897000320255756,-0.007961000315845013,-0.15674999356269836,0.14044399559497833,-0.027735000476241112,0.3225780129432678,0.26124200224876404,-0.15408000349998474,-0.049837999045848846,0.08006100356578827,-0.05055699869990349,-0.06990700215101242,-0.37347498536109924,0.35694798827171326,0.38104701042175293,0.0410429984331131,0.1459529995918274,0.25121399760246277,-0.09156200289726257,0.01190400030463934,0.08853500336408615,-0.04937899857759476,0.28293898701667786,-0.08313100039958954,0.009410999715328217,-0.2318740040063858,-0.39055898785591125,0.10993500053882599,-0.25068700313568115,-0.07395800203084946,-0.04562599956989288,-0.11369200050830841,-0.12846499681472778,0.17284299433231354,-0.09267900139093399,0.05531900003552437,-0.07477600127458572,0.4001449942588806,-0.05490799993276596,-0.1807910054922104,0.567264974117279,0.2517220079898834,-0.09628599882125854,0.04842500016093254,-0.28867799043655396,-0.3552570044994354,-0.11255499720573425,-0.024289999157190323,0.18018600344657898,-0.08979800343513489,0.23256100714206696,0.013038000091910362,-0.17974500358104706,0.24200600385665894,-0.14070400595664978,0.0385419987142086,0.15473900735378265,-0.14695699512958527,0.11446399986743927,0.21143800020217896,-0.3570910096168518,0.11834099888801575,0.00865199975669384,0.2659049928188324,-0.2480970025062561,0.17076300084590912,-0.06644599884748459,-0.4894450008869171,0.22992299497127533,-0.10487300157546997,-0.06325899809598923,0.3409759998321533,0.09532900154590607,-0.021897999569773674,-0.32611799240112305,0.2244960069656372,0.02858399972319603,-0.19712300598621368,-0.04123000055551529,0.15092100203037262,0.04354500025510788,-0.2349579930305481,0.19909699261188507,0.10783399641513824,0.02079099975526333,-0.01725899986922741,0.09610199928283691,0.4245249927043915,0.08591199666261673,-0.48242199420928955,0.560500979423523,0.1579349935054779,0.025195999071002007,-0.35683900117874146,-0.12125399708747864,-0.03641999885439873,-0.2804900109767914,-0.490011990070343,-0.06777500361204147,0.28224900364875793,-0.052705999463796616,-0.03609500080347061,-0.08779600262641907,-0.44157201051712036,-0.2530910074710846,-0.0988679975271225,-0.31688201427459717,-0.0024649999104440212,-0.25543299317359924,-0.49379000067710876,0.36761701107025146,0.076835997402668,0.4549599885940552,-0.1467610001564026,0.24079400300979614,-0.1048939973115921,0.1304289996623993,0.17733700573444366,-0.19609199464321136,-0.25161901116371155,-0.07825999706983566,-0.03926499933004379,0.12144800275564194,-0.15203699469566345,-0.1753769963979721,-0.1551540046930313,-0.08156199753284454,0.1009960025548935,0.12705600261688232,-0.0938820019364357,0.15672799944877625,0.38087499141693115,0.043435998260974884,0.021271999925374985,0.22864800691604614,0.049651000648736954,-0.009852999821305275,-0.1514980047941208,-0.6083589792251587,-0.2466599941253662,-0.5282970070838928,0.10474299639463425,0.350506991147995,0.16843700408935547,0.11237899959087372,-0.5412880182266235,-0.07865999639034271,-0.2604280114173889,-0.28011301159858704,-0.12324299663305283,0.2324499934911728,-0.3623790144920349,0.44925999641418457,-0.035989001393318176,-0.1634189933538437,-0.29843199253082275,0.18405400216579437,0.08119899779558182,-0.03842899948358536,0.02913600020110607,-0.01996299996972084,0.08504299819469452,0.23958100378513336,-0.24550500512123108,-0.07010100036859512,0.43508899211883545,-0.1917479932308197,-0.04488300159573555,0.18990099430084229,0.19579200446605682,-0.11932600289583206,-0.27358001470565796,-0.18318399786949158,0.09548699855804443,0.08614599704742432,0.1383260041475296,-0.02401299960911274,0.4350090026855469,-0.1139490008354187,-0.028683999553322792,-0.02110300026834011,-0.09642300009727478,-0.35436001420021057,0.23649999499320984,0.3392539918422699,-0.12871000170707703,0.07088299840688705,-0.020955000072717667,-0.20505699515342712,0.2149049937725067,-0.02144699916243553,-0.0945110023021698,0.03126100078225136,0.43094301223754883,-0.41006699204444885,-0.20201900601387024,-0.16290700435638428,0.19931499660015106,-0.08006700128316879,-0.011183000169694424,-0.0327799990773201,-0.4387660026550293,0.21187099814414978,0.37638500332832336,0.10074400156736374,-0.20704999566078186,-0.11571899801492691,0.3715659976005554,-0.14674299955368042,0.3274500072002411,0.275081992149353,-0.19144299626350403,0.15997999906539917,-0.4556030035018921,0.2672019898891449,0.3135730028152466,0.041721001267433167,-0.08383099734783173,0.011861000210046768,0.11491099745035172,-0.0760049968957901,0.10553400218486786,0.05511799827218056,0.21976499259471893,-0.16098099946975708,0.08546700328588486,0.0481330007314682,0.2802009880542755,-0.047547001391649246,0.046248000115156174,0.09734299778938293,0.3010439872741699,0.41112199425697327,0.16734200716018677,-0.03884200006723404,-0.2659440040588379,-0.08240900188684464,-0.32158398628234863,0.49585598707199097,-0.11945900321006775,0.40952301025390625,-0.1795089989900589,0.21595099568367004,-0.004616999998688698,0.19468699395656586,-0.31560200452804565,-0.1193849965929985,0.13543100655078888,0.007550000213086605,-0.058768000453710556,-0.2396160066127777,-0.10205599665641785,0.09271100163459778,-0.30596300959587097,-0.3114069998264313,0.052946001291275024,0.1967030018568039,-0.3134840130805969,-0.14478600025177002,-0.08299099653959274,-0.27310600876808167,0.3789370059967041,0.30904000997543335,-0.14184199273586273,-0.03451700136065483,0.1515209972858429,-0.4008220136165619,-0.007772999815642834,-0.16653400659561157,-0.05181799829006195,0.22519700229167938,0.05921600013971329,-0.001572999986819923,0.041207000613212585,0.16639800369739532,-0.30699101090431213,0.04263199865818024,0.04138299822807312,0.08143900334835052,0.08420000225305557,0.24352599680423737,-0.20368899405002594,0.3452329933643341,-0.2689859867095947,-0.4516980051994324,-0.06973700225353241,0.07848300039768219,0.17951999604701996,-0.08701399713754654,0.2340019941329956,0.32722198963165283,-0.22988000512123108,0.0014100000262260437,0.26094698905944824,0.4482229948043823,0.11144399642944336,0.09092599898576736,0.19207200407981873,0.10386300086975098,0.014771999791264534,-0.065699003636837,-0.04697800055146217,0.46305200457572937,-0.05699300020933151,-0.03646299988031387,0.28739699721336365,0.07718999683856964,0.131414994597435,-0.05048700049519539,0.21337799727916718,-0.17562800645828247,0.042417000979185104,0.24397100508213043,-0.12882600724697113,0.022877000272274017,0.2753320038318634,-0.3766089975833893,-0.13887999951839447,-0.10468199849128723,-0.2589559853076935,-0.15574300289154053,0.13619300723075867,-0.06944099813699722,-0.11071799695491791,0.2913680076599121,-0.0278329998254776,0.22945000231266022,-0.052386000752449036,0.2132059931755066,0.08270200341939926,-0.3489469885826111,-0.07083699852228165,0.20321999490261078,-0.03378299996256828,-0.16073499619960785,-0.02112000063061714,-0.25373899936676025,0.13874199986457825,0.34167200326919556,-0.19053299725055695,-0.21475300192832947,-0.09297599643468857,0.27784600853919983,0.13832800090312958,-0.058646999299526215,-0.3060469925403595,0.5107859969139099,0.10500700026750565,-0.32864001393318176,-0.06912299990653992,-0.27626100182533264,0.01988299936056137,0.052035000175237656,-0.27184098958969116,-0.013284999877214432,0.13511699438095093,0.0019030000548809767,0.1359660029411316,0.210207998752594,0.14239400625228882,-0.08650899678468704,-0.3773219883441925,-0.03412500023841858,-0.3628549873828888,-0.05289100110530853,-0.4133239984512329,0.3398370146751404,-0.07880300283432007,0.40698298811912537,-0.0809980034828186,-0.021438000723719597,-0.16626399755477905,0.27775099873542786,-0.20986099541187286,-0.08273299783468246,-0.26303499937057495,0.03586899861693382,-0.3063260018825531,0.004393999930471182,-0.10883399844169617,-0.20903900265693665,-0.11264300346374512,0.21648600697517395,0.16054700314998627,0.11678099632263184,-0.2902910113334656,-0.046650998294353485,0.551967978477478,-0.4804239869117737,0.021393999457359314,0.1804019957780838,-0.14824900031089783,0.3261609971523285,-0.28593701124191284,-0.05933799967169762,-0.07574400305747986,-0.26142698526382446,0.46497899293899536,0.33491000533103943,0.08526100218296051,-0.0675870031118393,-0.24323199689388275,-0.004106000065803528,-0.33465999364852905,-0.011614000424742699,0.2055799961090088,0.5159019827842712,-0.1404999941587448,0.06289499998092651,0.04295999929308891,-0.2865450084209442,-0.13099999725818634,-0.023094000294804573,-0.4344390034675598,-0.035927001386880875,0.23823900520801544,-0.48612499237060547,0.23739099502563477,-0.05511799827218056,0.04624899849295616,0.22775599360466003,0.4102959930896759,-0.15609200298786163,0.16605299711227417,-0.10580699890851974,0.23037000000476837,-0.013935999944806099,0.1648710072040558,0.4060310125350952,0.24509300291538239,0.3197470009326935,0.16798299551010132,-0.19271400570869446,0.34125301241874695,-0.34178200364112854,-0.12359099835157394,0.00482999999076128,-0.1465580016374588,0.04076800122857094,0.2390580028295517,-0.3182550072669983,-0.18184000253677368,-0.03537999838590622,0.41966700553894043,-0.07550600171089172,-0.10677900165319443,0.22583900392055511,-0.006008000113070011,0.2743220031261444,0.20813700556755066,-0.3492870032787323,-0.2134220004081726,0.12738800048828125,0.3204300105571747,0.31477001309394836,0.04501599818468094,0.01896899938583374,-0.25608399510383606,-0.3882890045642853,0.47798600792884827,0.29876598715782166,0.2700609862804413,0.006446000188589096,0.04112499952316284,0.07100699841976166,0.32089799642562866,0.30665600299835205,-0.05458199977874756,0.14908400177955627,-0.23814299702644348,0.19282500445842743,-0.28060200810432434,-0.21922999620437622,-0.4965279996395111,0.23731499910354614,0.37945300340652466,-0.18814900517463684,0.14304199814796448,-0.0029249999206513166,0.3056190013885498,-0.06539999693632126,-0.26980799436569214,-0.008585000410676003,0.3770979940891266,0.05511600151658058,-0.17648300528526306,-0.021802999079227448,-0.2704100012779236,-0.272830992937088,-0.14402200281620026,0.17480100691318512,-0.3881149888038635,-0.15242399275302887,-0.145236998796463,0.3480469882488251,-0.011292999610304832,0.01942400075495243,0.07662399858236313,-0.21204599738121033,-0.12406399846076965,0.011140000075101852,-0.12298800051212311,-0.2205130010843277,-0.03547700121998787,-0.2166769951581955,-0.1804009974002838,-0.16776500642299652,0.07159899920225143,-0.08222000300884247,-0.3626759946346283,-0.22236700356006622,0.12111499905586243,-0.059112999588251114,-0.047203000634908676,-0.31139498949050903,0.08880700170993805,0.09485600143671036,0.08869999647140503,0.4312559962272644,-0.11777400225400925,-0.12529399991035461,-0.23905399441719055,0.07631900161504745,0.10558599978685379,-0.19991399347782135,0.18865400552749634,-0.11597000062465668,-0.23544399440288544,-0.3273870050907135,0.22374500334262848,-0.09391800314188004,-0.23858599364757538,-0.35794299840927124,0.05162699893116951,0.05908200144767761,-0.14523500204086304,0.1701039969921112,-0.31485000252723694,0.09352699667215347,0.029621999710798264,-0.47157400846481323,-0.6710010170936584,0.16061000525951385,-0.09263599663972855,0.10215699672698975,0.06630100309848785,0.4119119942188263,0.09865199774503708,-0.3274489939212799,0.40107500553131104,-0.27074000239372253,-0.12796400487422943,0.01512099988758564,0.36255601048469543,0.051548998802900314,-0.04528199881315231,-0.24516500532627106,0.053376998752355576,-0.0453139990568161,-0.16231699287891388,-0.35178300738334656,0.25864601135253906,0.1413930058479309,-0.04230500012636185,-0.10937699675559998,-0.36370399594306946,-0.29772499203681946,-0.04947900027036667,0.0842370018362999,0.0035540000535547733,0.13642500340938568,0.02517700009047985,0.0701650008559227,-0.23429399728775024,-0.04725100100040436,0.09747300297021866,-2.9999999242136255e-05,-0.1320199966430664,-0.007493000011891127,-0.01260400004684925,-0.2493789941072464,0.20550000667572021,0.0679130032658577,0.1755490005016327,0.17790000140666962,0.12320099771022797,-0.032558001577854156,0.26159900426864624,-0.010622000321745872,-0.1519709974527359,-0.29886099696159363,0.031978998333215714,-0.2824069857597351,0.20920300483703613,-0.1827079951763153,-0.2151850014925003,0.08911699801683426,-0.2873310148715973,0.14229300618171692,0.017823999747633934,-0.0828230008482933,-0.25825899839401245,0.21097099781036377,0.1990250051021576,-0.2728720009326935,0.19178800284862518,-0.34705299139022827,0.31047800183296204,-0.08621200174093246,-0.12869399785995483,0.16108399629592896,0.011363999918103218,0.1423950046300888,0.04294100031256676,0.30840200185775757,-0.3918299973011017,0.21957099437713623,-0.008480999618768692,-0.061202000826597214,-0.07586999982595444,-0.34159600734710693,-0.12949000298976898,0.6650739908218384,0.23986199498176575,0.21288500726222992,-0.06130899861454964,-0.3048120141029358,-0.30268800258636475,0.16495199501514435,0.21615000069141388,-0.2941890060901642,-0.08425799757242203,0.14508900046348572,-0.14300799369812012,-0.243599995970726,-0.14722000062465668,-0.17069299519062042,-0.11704300343990326,0.02281299978494644,-0.025536999106407166,-0.2058899998664856,-0.09186200052499771,0.03562299907207489,-0.06944900006055832,0.1846340000629425,-0.15464499592781067,0.07400500029325485,0.06921400129795074,0.055201999843120575,-0.277101993560791,-0.05178900063037872,-0.5302159786224365,-0.018693000078201294,0.03474999964237213,-0.010739999823272228,-0.28347599506378174,-0.2531920075416565,-0.0885469987988472,0.047164998948574066,-0.2962760031223297,-0.38780999183654785,0.40324899554252625,0.2673510015010834,-0.22699600458145142,0.3394489884376526,-0.24433299899101257,0.19490599632263184,-0.3313030004501343,0.0340379998087883,-0.11895199865102768,-0.02370399981737137,0.019869999960064888,-0.07906600087881088,0.01951099932193756,0.248880997300148,-0.024219999089837074,-0.06641700118780136,-0.016986999660730362,0.019328000023961067,0.07584399729967117,0.06509900093078613,0.18364399671554565,-0.02926200069487095,-0.17440399527549744,0.13277100026607513,0.031036000698804855,0.19504199922084808,0.15052799880504608,0.049247000366449356,0.16598500311374664,0.3254300057888031,-0.0857049971818924,0.016790000721812248,-0.13029800355434418,-0.09669400006532669,-0.14302299916744232,0.10259699821472168,-0.002532999962568283,-0.0628810003399849,-0.04349200055003166,-0.04087899997830391,0.0539029985666275,-0.11806300282478333,-0.08224400132894516,0.1998559981584549,-0.08014000207185745,-0.07622600346803665,0.14438000321388245,0.008174000307917595,0.1978980004787445,-0.10373599827289581,-0.10815700143575668,0.02107599936425686,-0.003851999994367361,0.14021900296211243,0.17459100484848022,0.17704200744628906,-0.18056200444698334,-0.2281470000743866,-0.3765070140361786,0.08781400322914124,0.10095900297164917,-0.14603500068187714,-0.06526300311088562,0.14104300737380981,0.06616400182247162,0.01348000019788742,0.031199000775814056,-0.1548289954662323,-0.12233799695968628,0.14068099856376648,0.2342360019683838,-0.1262809932231903,-0.10178399831056595,-0.1190200001001358,0.10578799992799759,-0.14703500270843506,0.02671699970960617,0.08531299978494644,0.11815399676561356,-0.06084499880671501,-0.06324400007724762,-0.024569999426603317,-0.09141699969768524,0.017576999962329865,-0.11785300076007843,-0.13427700102329254,0.01896600052714348,-0.0280969999730587,-0.12928399443626404,0.39901798963546753,-0.14297400414943695,0.20936399698257446,-0.11380600184202194,0.02061700075864792,-0.21613100171089172,0.025107000023126602,-0.0492589995265007,-0.12173999845981598,-0.039299000054597855,-0.17302800714969635,-0.1498820036649704,-0.09336800128221512,-0.12262000143527985,-0.10188200324773788,-0.18231800198554993,-0.06748200207948685,-0.13620500266551971,-0.01634399965405464,0.09506600350141525,0.03352700173854828,0.11019500344991684,-0.04778200015425682,0.012803999707102776,-0.13069100677967072,-0.09019900113344193,0.0005130000063218176,-0.09177599847316742,0.12291800230741501,-0.10570099949836731,-0.0887259989976883,0.019494999200105667,0.17474499344825745,-0.141416996717453,-0.24921199679374695,-0.23774400353431702,-0.027915000915527344,-0.12348999828100204,-0.12119100242853165,-0.09497000277042389,0.0753289982676506,0.06160999834537506,0.12901300191879272,-0.04808700084686279,0.12364000082015991,0.09213200211524963,-0.29597699642181396,-0.219310000538826,0.10868100076913834,-0.3419339954853058,-0.3911080062389374,-0.13748799264431,0.018303999677300453,-0.06742099672555923,-0.2138880044221878,-0.13401399552822113,0.14859099686145782,0.07078299671411514,0.3256489932537079,0.07509300112724304,0.13007000088691711,-0.1378220021724701,-0.1776210069656372,0.21314699947834015,0.18463599681854248,-0.18306200206279755,0.0437610000371933,-0.32907500863075256,0.26597100496292114,0.19010600447654724,-0.010402999818325043,0.11870600283145905,0.07236099988222122,0.12237899750471115,0.011586000211536884,-0.0015020000282675028,0.016464000567793846,-0.3792789876461029,-0.0731939971446991,-0.04367600008845329,0.18321700394153595,0.0027729999274015427,0.12130700051784515,0.20412300527095795,0.07015900313854218,-0.18425099551677704,0.2849369943141937,0.025634000077843666,0.3590579926967621,-0.11873699724674225,-0.06720300018787384,0.1963600069284439,-0.1664160043001175,0.192440003156662,0.0402659997344017,0.041179999709129333,-0.21095600724220276,-0.1150360032916069,-0.19581200182437897,0.057677000761032104,0.14141200482845306,0.030393999069929123,0.22457900643348694,0.14820599555969238,0.045816998928785324,-0.10433200001716614,0.024862000718712807,-0.3611370027065277,-0.3590869903564453,0.09787599742412567,0.13283400237560272,-0.13300399482250214,-0.19671399891376495,-0.10777900367975235,-0.19491100311279297,-0.25811898708343506,-0.02246600016951561,-0.03170600160956383,0.008666000328958035,0.003746999893337488,0.32333600521087646,-0.1238040030002594,-0.044576000422239304,-0.20036199688911438,-0.1937199980020523,0.053700000047683716,-0.2697789967060089,0.04447999969124794,0.25137099623680115,0.07661200314760208,0.01999799907207489,-0.1092429980635643,-0.22011399269104004,-0.30860498547554016,-0.0641620010137558,0.10358399897813797,-0.023389000445604324,-0.33376801013946533,-0.2311590015888214,-0.24446900188922882,0.20203499495983124,0.17228199541568756,-0.07312899827957153,-0.060844000428915024,-0.04541099816560745,-0.3758389949798584,-0.05992399901151657,-0.025303000584244728,-0.11110900342464447,0.14514599740505219,-0.27726998925209045,-0.07030700147151947,0.10830099880695343,0.04399299994111061,0.20590800046920776,-0.08700499683618546,0.021764999255537987,0.08925499767065048,-0.12125299870967865,0.13191500306129456,0.222120001912117,-0.2488580048084259,0.09061100333929062,-0.22867000102996826,0.07375600188970566,0.04923100024461746,-0.2211879938840866,-0.0748789981007576,0.049532998353242874,0.05232299864292145,0.06767699867486954,-0.03509800136089325,0.1945600062608719,0.13743099570274353,0.08969199657440186,-0.0624379999935627,0.1469859927892685,-0.11465699970722198,-0.1910790055990219,-0.1855199933052063,0.17024099826812744,-0.24125400185585022,-0.031077999621629715,-0.01911100000143051,-0.016502000391483307,0.043175000697374344,0.029753999784588814,-0.12005999684333801,0.2416449934244156,-0.2203660011291504,-0.006893000099807978,-0.028761999681591988,0.19002899527549744,-0.030925000086426735,-0.24140200018882751,0.1813019961118698,0.08359599858522415,-0.03160899877548218,-0.030352000147104263,0.009829999879002571,0.05054200068116188,-0.016586000099778175,-0.05731000006198883,0.22000400722026825,-0.020058000460267067,-0.2950490117073059,0.01852400042116642,-0.1891690045595169,0.06292799860239029,-0.14314599335193634,0.12028399854898453,-0.12292300164699554,0.03286899998784065,0.08106499910354614,0.1500770002603531,0.10909000039100647,-0.08179599791765213,-0.20209500193595886,-0.13375499844551086,0.04903599992394447,-0.21784299612045288,0.07286299765110016,0.019977999851107597,0.14054299890995026,-0.14380000531673431,-0.09895399957895279,-0.35882899165153503,-0.03411399945616722,0.09790600091218948,0.08336199820041656,-0.12099099904298782,0.2270829975605011,-0.10283699631690979,0.12385299801826477,-0.15022599697113037,-0.08991499990224838,-0.04546099901199341,0.0533050000667572,-0.07168500125408173,0.13841399550437927,-0.4357540011405945,0.050342001020908356,0.03410999849438667,-0.07605200260877609,-0.04601600021123886,-0.09912200272083282,-0.10763700306415558,0.03304800018668175,-0.2781429886817932,-0.01103499997407198,0.06277699768543243,-0.35062500834465027,0.03235999867320061,0.0678659975528717,-0.08156300336122513,-0.08433900028467178,0.1378369927406311,-0.08871100097894669,0.05994400009512901,-0.03651899844408035,-0.1425500065088272,-0.2540990114212036,0.055932000279426575,0.103473000228405,0.08696600049734116,-0.39096799492836,-0.23356600105762482,-0.3464759886264801,0.14511600136756897,0.07977800071239471,-0.02559399977326393,-0.09414400160312653,0.11344899982213974,-0.10590600222349167,0.11005900055170059,-0.024073999375104904,-0.19279000163078308,0.018053999170660973,0.002113000024110079,-0.09163299947977066,-0.036952000111341476,-0.0015170000260695815,0.0669189989566803,-0.3685950040817261,0.010900000110268593,0.18190599977970123,-0.23219099640846252,0.20171600580215454,0.039694998413324356,-0.18937699496746063,-0.021592000499367714,-0.11685200035572052,-0.004726000130176544,-0.15796099603176117,-0.14192800223827362,0.1380939930677414,0.18562699854373932,0.016155999153852463,0.014786000363528728,-0.14662699401378632,0.26276999711990356,0.18487399816513062,-0.28050801157951355,-0.08559899777173996,0.1491589993238449,-0.25760599970817566,-0.054012998938560486,-0.27588599920272827,0.14568699896335602,-0.01942799985408783,-0.25147199630737305,0.03278699889779091,-0.07137999683618546,0.17150500416755676,0.10603500157594681,0.07398699969053268,0.22992999851703644,-0.11868400126695633,-0.012632000260055065,-0.1790110021829605,0.03200199827551842,0.07498200237751007,0.15325799584388733,-0.052501000463962555,0.0114120002835989,0.07833600044250488,0.05224199965596199,0.05017400160431862,0.05786599963903427,-0.05814699828624725,-0.0643400028347969,0.1789489984512329,-0.037376001477241516,-0.41773301362991333,0.20913299918174744,0.014326999895274639,0.1185159981250763,-0.08017600327730179,0.06310500204563141,-0.11479900032281876,0.11371800303459167,0.034341000020504,0.07018399983644485,0.15912599861621857,-0.01006499957293272,-0.10310400277376175,0.12996700406074524,0.12563000619411469,0.010301999747753143,0.07061100006103516,-0.22693799436092377,0.0833439975976944,-0.1258780062198639,-0.16253900527954102,-0.10467799752950668,-0.00937699992209673,0.20109599828720093,0.08414799720048904,-0.01894400082528591,0.08003299683332443,0.05609799921512604,-0.2206670045852661,-0.21922799944877625,-0.12207700312137604,-0.11400900036096573,-0.04461900144815445,0.07290499657392502,-0.05086100101470947,-0.20512700080871582,-0.04989999905228615,-0.19696000218391418,0.09586399793624878,-0.09916800260543823,-0.03533000126481056,-0.05976700037717819,-0.05192499980330467,-0.14656099677085876,0.03534400090575218,-0.27575600147247314,-0.13761599361896515,0.0028250000905245543,0.06971000134944916,0.0015719999792054296,-0.31729599833488464,-0.0010300000431016088,0.00558099988847971,0.07261800020933151,-0.08087100088596344,-0.23881900310516357,-0.23836900293827057,-0.09385199844837189,0.18668599426746368,0.09739500284194946,-0.22462500631809235,-0.17737700045108795,-0.09084700047969818,0.023166999220848083,-0.08092200011014938,0.021632999181747437,0.131072998046875,0.016326000913977623,0.05418200045824051,0.013182999566197395,-0.02088399976491928,-0.3384760022163391,0.06337600201368332,-0.0347290001809597,-0.09613300114870071,-0.1312520056962967,-0.19764100015163422,-0.028126999735832214,-0.2410849928855896,0.028903000056743622,0.05561500042676926,0.009209999814629555,0.05939599871635437,-0.012155000120401382,-0.21764899790287018,0.14186200499534607,-0.2035280019044876,0.03753799945116043,-0.12019599974155426,-0.2435159981250763,0.21615999937057495,-0.03316599875688553,-0.029041999951004982,-0.15045399963855743,-0.21692200005054474,0.23511600494384766,0.006461000069975853,-0.18806199729442596,0.15077100694179535,0.17791800200939178,-0.31473299860954285,-0.30026400089263916,-0.3101629912853241,-0.04340999945998192,-0.2508949935436249,-0.013058999553322792,-0.21614399552345276,-0.06813900172710419,0.2104949951171875,-0.2153729945421219,0.04867099970579147,0.12521900236606598,-0.19695499539375305,0.18502700328826904,-0.38111698627471924,0.030251000076532364,0.0687279999256134,0.43145298957824707,-0.19154700636863708,-0.03517699986696243,0.032010000199079514,0.1702760010957718,-0.002770999912172556,0.19397099316120148,0.020679999142885208,-0.025867000222206116,0.014650000259280205,-0.009921000339090824,-0.4165099859237671,0.23169100284576416,0.21119600534439087,0.03213300183415413,-0.08305899798870087,0.14862099289894104,-0.06392999738454819,0.11950600147247314,-0.0575219988822937,0.08536099642515182,0.06936900317668915,-0.04165399819612503,-0.03375599905848503,0.0609080009162426,0.06949400156736374,-0.046911001205444336,-0.17614899575710297,-0.13941100239753723,-0.05305499956011772,-0.060554999858140945,0.05510900169610977,-0.08651699870824814,-0.10371299833059311,0.37404200434684753,0.07471299916505814,-0.009627999737858772,0.009471000172197819,0.2633419930934906,-0.10845399647951126,-0.2582780122756958,-0.020865999162197113,-0.19004499912261963,-0.05937600135803223,0.26931101083755493,0.044874999672174454,-0.2800840139389038,-0.15411299467086792,-0.2616400122642517,0.12774799764156342,0.06409700214862823,0.008282000198960304,-0.20467400550842285,-0.043476998805999756,-0.11313900351524353,0.05765800178050995,0.09479200094938278,0.038857001811265945,-0.0208320003002882,-0.11077699810266495,0.23407800495624542,-0.08177000284194946,-0.10437799990177155,0.06794100254774094,-0.1520339995622635,-0.11312299966812134,0.04347100108861923,-0.19220499694347382,0.014174000360071659,0.03784700110554695,0.22506600618362427,-0.2606320083141327,-0.3208630084991455,-0.0028250000905245543,-0.06537400186061859,-0.008383999578654766,0.16015499830245972,0.057656001299619675,-0.029410000890493393,-0.048576999455690384,0.11911500245332718,-0.17400400340557098,-0.2892630100250244,0.1544570028781891,-0.011398999951779842,-0.09963200241327286,-0.3077079951763153,-0.12502500414848328,-0.18974199891090393,-0.07191400229930878,-0.17314599454402924,-0.04198500141501427,0.020987000316381454,0.00937000010162592,0.1223519966006279,-0.09749499708414078,0.3365969955921173,0.03165600076317787,-0.05555799975991249,-0.1003279983997345,0.06042100116610527,0.07041800022125244,-0.03599099814891815,-0.042872000485658646,-0.11146300286054611,-0.09508699923753738,-0.08560699969530106,0.06038599833846092,0.1291850060224533,-0.08882500231266022,0.2587350010871887,-0.19592300057411194,-0.05981900170445442,-0.11413799971342087,0.04811700060963631,-0.18053899705410004,-0.03268500044941902,-0.0749870017170906,-0.08109000325202942,0.10785599797964096,-0.10045299679040909,-0.1535090059041977,0.03589000180363655,-0.3471989929676056,0.20630000531673431,-0.02110300026834011,0.05507799983024597,0.05199600011110306,0.16685500741004944,-0.25749900937080383,-0.024341000244021416,0.050845999270677567,0.019929999485611916,-0.12150599807500839,0.08654800057411194,-0.08040300011634827,-0.14914000034332275,0.01472499966621399,0.10126999765634537,-0.3741210103034973,0.14094200730323792,0.30651500821113586,-0.13469399511814117,-0.010052000172436237,0.1552249938249588,-0.22326500713825226,0.08228100091218948,-0.018334999680519104,-0.09800799936056137,0.19108599424362183,-0.2121330052614212,0.02530200034379959,0.1744839996099472,-0.016780000180006027,-0.05873800069093704,-0.21996399760246277,-0.06803300231695175,-0.164341002702713,0.010009000077843666,-0.26606300473213196,-0.05402100086212158,0.011725000105798244,0.025854000821709633,-0.12945500016212463,0.028855999931693077,0.16964100301265717,0.06043199822306633,-0.001962000038474798,-0.20177899301052094,0.167603999376297,0.03282900154590607,-0.09303800016641617,0.09901999682188034,0.0250840000808239,-0.30204200744628906,0.05984799936413765,-0.14299899339675903,0.07057899981737137,0.04986099898815155,0.10886699706315994,-0.11651600152254105,0.08156999945640564,-0.08051799982786179,-0.03690100088715553,-0.15851199626922607,-0.021376000717282295,-0.003533999901264906,0.05922200158238411,0.1292870044708252,-0.23123599588871002,-0.12633000314235687,0.11996199935674667,-0.08643800020217896,-0.11050599813461304,0.02096099965274334,-0.24120299518108368,0.01638299971818924,0.3183780014514923,0.18828600645065308,-0.11936099827289581,0.020809000357985497,-0.03757299855351448,-0.05852799862623215,-0.05027800053358078,-0.0016169999726116657,-0.04307200014591217,0.03320999816060066,0.03143199905753136,0.10258699953556061,-0.1775290071964264,-0.17864499986171722,0.15256400406360626,-0.01305100042372942,-0.06755699962377548,-0.45003798604011536,-0.16075600683689117,-0.17564800381660461,-0.23332799971103668,0.07871200144290924,-0.07207799702882767,0.09676600247621536,-0.06035299971699715,0.1788100004196167,-0.1519629955291748,0.0932369977235794,0.011335000395774841,-0.009507999755442142,-0.22572599351406097,-0.06391000002622604,0.30799099802970886,0.0077149998396635056,-0.009065999649465084,-0.10112500190734863,-0.10856100171804428,-0.2031800001859665,-0.0723709985613823,-0.22668899595737457,-0.0870169997215271,0.19347800314426422,-0.11716499924659729,-0.07287699729204178,0.061911001801490784,0.09259799867868423,-0.1605840027332306,-0.3274320065975189,0.06607899814844131,-0.03665100038051605,0.07505299896001816,-0.15452000498771667,-0.09623400121927261,0.11337299644947052,-0.13266299664974213,0.29643499851226807,-0.04960399866104126,-0.07592199742794037,0.12939800322055817,-0.14648200571537018,-0.031741999089717865,0.0647369995713234,0.1940380036830902,0.09614700078964233,-0.21825799345970154,0.07870300114154816,-0.061271000653505325,-0.15439899265766144,0.19228500127792358,0.0788239985704422,-0.20375700294971466,-0.06720899790525436,0.15095800161361694,-0.052448999136686325,0.06543900072574615,0.17410500347614288,-0.19883699715137482,0.1746560037136078,-0.020556999370455742,-0.17286500334739685,-0.0036979999858886003,-0.09358000010251999,0.10033900290727615,0.14885899424552917,-0.14150899648666382,-0.1388469934463501,-0.03955399990081787,-0.023427000269293785,-0.019269000738859177,-0.002701000077649951,-0.19557799398899078,-0.02670699916779995,-0.005659999791532755,0.0064409999176859856,-0.012265999801456928,-0.06949000060558319,0.035590000450611115,-0.07999800145626068,-0.04628799855709076,-0.16675999760627747,0.04767699912190437,0.16379499435424805,-0.12405700236558914,0.012911000289022923,-0.1457729935646057,-0.27169498801231384,0.0688830018043518,-0.21616299450397491,-0.151187002658844,-0.0010770000517368317,-0.043101001530885696,0.006310000084340572,0.03335599973797798,-0.08275900036096573,-0.04670400172472,-0.4160490036010742,-0.07001399993896484,-0.02187499962747097,0.10196500271558762,-0.07091300189495087,-0.1117819994688034,-0.1767210066318512,0.22659899294376373,0.14502599835395813,0.03038099966943264,-0.16112999618053436,-0.1955759972333908,0.11222799867391586,0.2082120031118393,0.17260399460792542,-0.1986510008573532,-0.13058200478553772,-0.17211699485778809,0.047683000564575195,0.03006800077855587,-0.07178699970245361,-0.07296399772167206,0.17091600596904755,-0.005218000151216984,-0.00986700039356947,-0.25531598925590515,-0.2631160020828247,0.11917900294065475,0.18860800564289093,-0.08304599672555923,-0.16319699585437775,-0.12559199333190918,-0.07702100276947021,-0.2947689890861511,0.09881699830293655,-0.07670199871063232,-0.032141998410224915,0.0378119982779026,0.11310900002717972,-0.2474679946899414,0.19764100015163422,-0.03720499947667122,0.08066300302743912,-0.24874399602413177,-0.12568099796772003,0.20286400616168976,-0.07386399805545807,-0.08457999676465988,-0.049563001841306686,-0.06196099892258644,-0.2924700081348419,0.09574899822473526,-0.2100590020418167,0.128711998462677,0.19369900226593018,-0.1112390011548996,-0.07442700117826462,-0.022055000066757202,0.16144800186157227,-0.12605999410152435,-0.19634300470352173,-0.04193999990820885,0.04271500185132027,0.06701800227165222,-0.09670399874448776,-0.2143470048904419,0.060033999383449554,-0.22154000401496887,0.1022230014204979,-0.26908600330352783,-0.09189800173044205,0.06080999970436096,0.038127999752759933,-0.06729599833488464,0.09056100249290466,0.1880819946527481,0.06790599972009659,-0.07298800349235535,0.05571199953556061,-0.17002800107002258,0.008011999540030956,0.17162799835205078,0.053307000547647476,-0.16154499351978302,-0.07198599725961685,0.006876000203192234,-0.14695000648498535,0.11903099715709686,0.23795300722122192,-0.08811099827289581,0.07097499817609787,-0.007253000047057867,-0.159743994474411,0.05678600072860718,-0.11566700041294098,0.04279499873518944,0.11410199850797653,-0.14745500683784485,-0.06541000306606293,-0.03716300055384636,-0.13116399943828583,-0.015426999889314175,-0.011466999538242817,-0.17756499350070953,-0.028906000778079033,-0.08187700062990189,-0.02787099964916706,0.10589399933815002,-0.1853650063276291,0.029922999441623688,-0.09745299816131592,-0.09524799883365631,-0.1651729941368103,0.1484519988298416,0.09841299802064896,-0.021928999572992325,0.11451199650764465,-0.05361900106072426,-0.1874990016222,0.030168000608682632,-0.22003799676895142,-0.046241000294685364,0.04173099994659424,-0.24606899917125702,0.03719199821352959,0.08736299723386765,-0.10893099755048752,-0.09127800166606903,-0.48691698908805847,0.06641100347042084,0.10470599681138992,0.09977500140666962,-0.10783600062131882,-0.17052200436592102,-0.27612999081611633,0.033291999250650406,0.09593000262975693,0.005588999949395657,-0.18204499781131744,-0.09272299706935883,0.004433999769389629,0.017534999176859856,0.18959200382232666,0.031516000628471375,-0.06554099917411804,0.10677699744701385,0.053748998790979385,-0.016970999538898468,-0.01514699961990118,0.02333500050008297,0.12601900100708008,-0.2014790028333664,0.07048700004816055,-0.2873089909553528,-0.11365299671888351,0.004505999851971865,-0.03177899867296219,-0.07265599817037582,-0.21053999662399292,-0.15339800715446472,-0.004188999999314547,0.010490999557077885,0.029757000505924225,0.15528899431228638,-0.08186700195074081,0.022840000689029694,0.04574500024318695,-0.20172199606895447,0.2580319941043854,-0.009286999702453613,0.07953199744224548,-0.12905600666999817,-0.0351019985973835,0.15553200244903564,-0.03673199936747551,-0.028232000768184662,-0.059227000921964645,-0.09964799880981445,-0.11465100198984146,0.05895699933171272,-0.047642000019550323,0.031665999442338943,0.027981000021100044,-0.2898640036582947,-0.12910600006580353,0.03311900049448013,-0.03521199896931648,-0.08272500336170197,-0.087567999958992,-0.019766999408602715,0.11433199793100357,0.10034999996423721,-0.03863900154829025,-0.15613000094890594,0.13216400146484375,-0.1505270004272461,-0.06009000167250633,-0.41684600710868835,-0.15302099287509918,-0.13816499710083008,-0.08043599873781204,-0.09554599970579147,-0.11673799902200699,-0.01549800019711256,0.2221129983663559,-0.0004090000002179295,0.04023199900984764,-0.06617099791765213,0.06089400127530098,0.15196500718593597,0.12582600116729736,-0.09843400120735168,0.1157969981431961,-0.046264998614788055,-0.1305360049009323,-0.11411599814891815,0.1764650046825409,0.0023960000835359097,-0.027628999203443527,0.01445200014859438,-0.0034809999633580446,0.0905579999089241,4.5000000682193786e-05,-0.09677299857139587,0.15442399680614471,-0.10995800048112869,-0.017541000619530678,0.13108499348163605,-0.18413099646568298,-0.03957900032401085,-0.06075099855661392,0.06913000345230103,-0.13329599797725677,0.06896500289440155,-0.10818199813365936,-0.009252999909222126,-0.16375599801540375,0.06443899869918823,-0.07379599660634995,-0.30692100524902344,-0.1091260015964508,0.20824599266052246,0.26137301325798035,0.05513099953532219,0.1090250015258789,-0.0005910000181756914,-0.1808910071849823,0.03802099823951721,-0.20432500541210175,0.07595200091600418,-0.03284500166773796,-0.33376699686050415,-0.046337999403476715,0.19113300740718842,-0.020548999309539795,-0.04829400032758713,-0.407382994890213,-0.01281300000846386,0.04194999858736992,-0.04449300095438957,-0.04159199818968773,-0.2347870022058487,-0.2320600003004074,0.04047200083732605,0.11270400136709213,-0.07573500275611877,-0.34147700667381287,-0.0940990000963211,0.04582199826836586,-0.17258399724960327,0.34873899817466736,-0.08463999629020691,-0.19641399383544922,-0.04619399830698967,-0.034290000796318054,-0.027048999443650246,0.0181450005620718,0.06252100318670273,0.11049100011587143,-0.25259900093078613,0.031867001205682755,-0.28775501251220703,-0.13281700015068054,-0.1346459984779358,-0.07380399852991104,-0.01667799986898899,-0.21180200576782227,-0.1865299940109253,-0.009936000220477581,0.053658999502658844,-0.20597299933433533,0.1741739958524704,-0.04028499871492386,0.09022500365972519,0.01870799995958805,0.05367099866271019,0.21668699383735657,0.0829479992389679,-0.17090299725532532,-0.15968500077724457,0.1605679988861084,0.13550500571727753,-0.08632300049066544,-0.013484000228345394,-0.06600800156593323,0.07455100119113922,-0.06187500059604645,0.1660590022802353,-0.3819429874420166,-0.08191899955272675,-0.08530300110578537,-0.2738510072231293,0.0025369999930262566,0.08528599888086319,0.03146800026297569,0.07202199846506119,-0.03484899923205376,0.053784001618623734,0.02438499964773655,0.1435050070285797,0.1504330039024353,-0.25771498680114746,0.19938500225543976,-0.06484200060367584,-0.18209399282932281,-0.32981398701667786,-0.016527999192476273,-0.15620100498199463,-0.21628299355506897,-0.03371499851346016,-0.05774100124835968,0.09299200028181076,0.10966400057077408,0.11333400011062622,-0.07736700028181076,-0.10201399773359299,0.05833800137042999,0.19609799981117249,0.09708700329065323,-0.20926900207996368,-0.007042999844998121,-0.03291499987244606,-0.1327109932899475,0.01710600033402443,-0.0006600000197067857,-0.014072000049054623,-0.03990200161933899,-0.0488319993019104,-0.10509499907493591,-0.09059499949216843,-0.05866200104355812,0.020204000174999237,0.046101998537778854,0.0531810000538826,0.04735599830746651,-0.013497999869287014,-0.08778300136327744,0.018171999603509903,-0.2540690004825592,0.1137470006942749,-0.39238598942756653,0.010843999683856964,-0.007329999934881926,0.008585999719798565,-0.007586999796330929,-0.047586001455783844,-0.14029599726200104,-0.10679300129413605,0.02610599994659424,0.13180099427700043,0.2226089984178543,0.011787000112235546,0.1384110003709793,-0.08204899728298187,-0.13883499801158905,0.014368999749422073,-0.1757809966802597,0.07083400338888168,-0.07331299781799316,-0.23939499258995056,-0.1648769974708557,0.08763699978590012,0.06021599844098091,0.10377199947834015,-0.3677389919757843,0.1794700026512146,-0.08029799908399582,-0.2781180143356323,-0.03896300122141838,-0.43942001461982727,-0.2062080055475235,0.07366400212049484,0.06381300091743469,-0.08417399972677231,-0.24541200697422028,-0.1231829971075058,0.10061299800872803,-0.29798799753189087,0.15418200194835663,-0.22061899304389954,-0.1175839975476265,0.06476999819278717,-0.061260998249053955,0.026189999654889107,0.07306399941444397,-0.09708400070667267,0.15280300378799438,-0.2562989890575409,0.01754399947822094,-0.339695006608963,-0.020855000242590904,-0.05044599995017052,-0.21425700187683105,-0.047749001532793045,-0.09074900299310684,-0.012432999908924103,0.039239998906850815,0.012376000173389912,-0.18759199976921082,0.02592400088906288,0.05994600057601929,0.1421310007572174,0.16546599566936493,-0.010799000039696693,0.0329429991543293,-0.03819400072097778,-0.1100199967622757,-0.15642200410366058,-0.0423320010304451,0.16649900376796722,-0.039312999695539474,0.06148200109601021,-0.12518799304962158,0.03402100130915642,-0.04154299944639206,0.1494240015745163,-0.22495800256729126,0.08790399879217148,-0.10079800337553024,-0.30677101016044617,0.039452001452445984,-0.05837799981236458,0.18843500316143036,0.10162399709224701,0.1605689972639084,0.0045079998672008514,0.13858500123023987,0.04564699903130531,0.24873200058937073,-0.3432300090789795,0.14261099696159363,6.000000212225132e-06,-0.008258000016212463,-0.26404300332069397,0.06573499739170074,-0.25261399149894714,-0.16967399418354034,-0.06400900334119797,-0.07880300283432007,0.11180800199508667,0.08524099737405777,0.04759100079536438,-0.025380000472068787,0.07159700244665146,0.0998309999704361,0.05342400074005127,0.08497299998998642,0.03343699872493744,0.0812389999628067,-0.21225999295711517,-0.2242169976234436,-0.03192399814724922,-0.05249499902129173,-0.04806999862194061,-0.0668879970908165,-0.053348999470472336,0.020749999210238457,-0.09568800032138824,-0.04202499985694885,0.14320500195026398,-0.14083999395370483,0.02231599949300289,0.011064000427722931,-0.09150700271129608,-0.06544200330972672,0.027289999648928642,-0.2004459947347641,-0.02762399986386299,-0.3547700047492981,0.17311300337314606,0.10405900329351425,-0.03229900076985359,0.015883000567555428,0.11638999730348587,-0.18758399784564972,-0.23335400223731995,0.08303000032901764,0.16229400038719177,0.30273300409317017,-0.10007300227880478,-0.012280000373721123,-0.1108430027961731,0.1281909942626953,0.0077390000224113464,-0.26550400257110596,0.05293700098991394,0.083187997341156,-0.36743998527526855,-0.06710600107908249,0.11674900352954865,0.08478599786758423,0.0020600000862032175,-0.32267001271247864,0.17302200198173523,-0.015065000392496586,-0.16416800022125244,-0.09655500203371048,-0.41937899589538574,0.00031900001340545714,0.0274059996008873,-0.017830999568104744,0.05718399956822395,-0.2577829957008362,-0.06462699919939041,0.13986800611019135,-0.2787190079689026,0.13331300020217896,-0.08999399840831757,0.025766000151634216,0.0035170000046491623,-0.02110699936747551,-0.0401340015232563,0.013886000029742718,-0.2269120067358017,0.17030300199985504,-0.20512999594211578,-0.04053900018334389,-0.257097989320755,0.0035929998848587275,-0.143545001745224,-0.12327300012111664,-0.000737000023946166,-0.07012700289487839,-0.02023099921643734,-0.06355399638414383,0.04025899991393089,-0.1351660043001175,-0.05559200048446655,0.02938299998641014,0.25057101249694824,0.026618000119924545,-0.03580800071358681,0.1137399971485138,-0.031543001532554626,0.1488180011510849,-0.0461059994995594,-0.11329799890518188,0.08058000355958939,0.0007259999983943999,0.11052300035953522,-0.07920599728822708,-0.10019200295209885,0.03575899824500084,0.1642879992723465,-0.2943499982357025,0.07140800356864929,0.009843000210821629,-0.22526200115680695,-0.073294997215271,-0.0404679998755455,0.08574900031089783,-0.08645500242710114,0.19280199706554413,-0.022778000682592392,0.2540439963340759,-0.063680000603199,0.30564600229263306,-0.12672600150108337,0.0920180007815361,-0.13703900575637817,0.06842400133609772,-0.17259399592876434,0.06639999896287918,-0.30874601006507874,-0.11002899706363678,-0.0804779976606369,-0.01450200006365776,0.038996998220682144,0.0512159988284111,0.0881429985165596,-0.14122000336647034,0.11549600213766098,-0.07575800269842148,-0.041384998708963394,0.1638060063123703,-0.02526799961924553,0.10762900114059448,-0.18791800737380981,0.04667900130152702,0.11428900063037872,-0.04440699890255928,-0.13572999835014343,0.019627999514341354,0.0730929970741272,0.21707500517368317,-0.1123730018734932,-0.0029299999587237835,0.15233199298381805,-0.27181100845336914,0.1619119942188263,-0.032193999737501144,-0.20854300260543823,-0.16521599888801575,-0.15284599363803864,-0.1709499955177307,-0.1605760008096695,-0.16951799392700195,0.07386600226163864,0.16384999454021454,-0.02889700047671795,0.01169500034302473,0.12220499664545059,-0.04909700155258179,-0.3913100063800812,0.06265400350093842,0.23876699805259705,0.0869240015745163,-0.06496299803256989,-0.0439470000565052,0.03761399909853935,0.014595000073313713,0.12752799689769745,-0.17816899716854095,0.10133899748325348,0.08543100208044052,-0.3038429915904999,-0.043556999415159225,0.07271099835634232,-0.00760400015860796,-0.18115000426769257,-0.15523600578308105,0.12935900688171387,0.009194999933242798,-0.11496499925851822,0.0029619999695569277,-0.24307699501514435,0.11719200015068054,0.10392700135707855,0.03151800110936165,0.15734200179576874,-0.2766270041465759,-0.0008069999748840928,0.11133100092411041,-0.025756999850273132,0.09920699894428253,-0.003882999997586012,0.09392400085926056,-0.12506000697612762,-0.17468500137329102,-0.15181399881839752,-0.014952000230550766,-0.29164600372314453,0.12361600250005722,-0.15310899913311005,0.017141999676823616,-0.14702199399471283,0.027735000476241112,-0.10982999950647354,-0.015491999685764313,-0.04228400066494942,-0.26594099402427673,0.11901500076055527,-0.08723600208759308,0.06081400066614151,-0.11331699788570404,-0.03844600170850754,-0.1049169972538948,0.18893900513648987,-0.09228400141000748,-0.05058399960398674,0.060100000351667404,-0.004825999960303307,0.061358001083135605,-0.10210999846458435,-0.13035699725151062,-0.07910999655723572,0.010862000286579132,0.008666999638080597,0.021260999143123627,0.04841500148177147,-0.00919399969279766,0.1810940057039261,-0.42981499433517456,0.18243299424648285,0.01854800060391426,-0.33932700753211975,-0.0033340000081807375,0.03466099873185158,0.09644400328397751,0.075204998254776,0.3357360064983368,-0.08785799890756607,0.16572099924087524,-0.10506600141525269,-0.09451299905776978,-0.07286600023508072,0.09222300350666046,-0.10122600197792053,0.01718199998140335,0.08280699700117111,0.024343999102711678,-0.19861899316310883,0.02548000030219555,-0.10141299664974213,0.03706200048327446,-0.07403499633073807,-0.05853400006890297,-0.03251099959015846,-0.21330499649047852,0.07632999867200851,-0.10684999823570251,-0.036146000027656555,0.05262500047683716,-0.10718599706888199,0.004135000053793192,-0.17820200324058533,-0.011667000129818916,-0.06291300058364868,-0.09761200100183487,0.02921300008893013,-0.12862500548362732,-0.0034650000743567944,0.22928400337696075,0.06906499713659286,-0.11885900050401688,-0.009585999883711338,-0.07271800190210342,0.16113099455833435,-0.051516998559236526,0.003868000116199255,0.009545999579131603,0.1102909967303276,0.017051000148057938,-0.16161499917507172,0.10405299812555313,0.13826000690460205,0.013973000459372997,-0.08098199963569641,-0.05433399975299835,-0.0640759989619255,-0.1295350044965744,-0.26152798533439636,-0.0030360000673681498,0.11478500068187714,0.10249999910593033,-0.051747001707553864,0.0626479983329773,-0.03599200025200844,0.2043599933385849,0.17897899448871613,-0.16496899724006653,0.1519480049610138,0.19441699981689453,0.16387200355529785,-0.12391199916601181,0.06483600288629532,0.014818999916315079,0.028866000473499298,-0.08337900042533875,-0.034651998430490494,-0.008926000446081161,-0.06358099728822708,-0.07727699726819992,-0.20419999957084656,0.08300600200891495,-0.03214700147509575,0.04336300119757652,0.13804000616073608,-0.20237000286579132,-0.01880900003015995,0.11815900355577469,-0.08234900236129761,-0.057443998754024506,0.02558399923145771,0.06587400287389755,-0.1774590015411377,-0.3418720066547394,-0.0094200000166893,-0.048670001327991486,-0.23524299263954163,0.005626999773085117,-0.24364599585533142,-0.025495000183582306,-0.18872399628162384,0.06565000116825104,-0.21088099479675293,0.135002002120018,0.14303100109100342,-0.03780300170183182,0.14762799441814423,-0.08931799978017807,0.1356399953365326,-0.10531000047922134,-0.09066899865865707,0.06701400130987167,0.07304099947214127,-0.060068998485803604,-0.12842600047588348,0.04496699944138527,0.02113400027155876,0.10104300081729889,0.07117000222206116,-0.16977299749851227,-0.09999299794435501,0.09683399647474289,0.07436499744653702,0.04150500148534775,-0.0167820006608963,0.08880899846553802,0.2717300057411194,-0.11050599813461304,0.3129979968070984,0.01934799924492836,-0.2237430065870285,-0.12716899812221527,0.09709300100803375,0.02832699939608574,0.13221299648284912,0.16622799634933472,-0.20472900569438934,0.22812500596046448,-0.1256449967622757,-0.12826600670814514,0.13600000739097595,0.0671050027012825,-0.16101600229740143,-0.05339999869465828,-0.15818700194358826,-0.0064690001308918,-0.047495000064373016,0.18298499286174774,-0.249439999461174,0.00013099999341648072,-0.14628300070762634,-0.04729299992322922,-0.0372919999063015,-0.18752199411392212,0.11230400204658508,-0.02822599932551384,-0.043960001319646835,0.05751299858093262,0.10967499762773514,0.05827900022268295,-0.074583999812603,-0.0026489999145269394,0.052018001675605774,-0.11578600108623505,0.03182100132107735,-0.028609000146389008,0.007505000103265047,0.2515070140361786,0.21584300696849823,-0.043196000158786774,-0.12055700272321701,-0.03913800045847893,0.07320000231266022,0.05762099847197533,-0.05605800077319145,-0.027479000389575958,0.050586000084877014,0.08931700140237808,-0.14911900460720062,0.22913900017738342,0.0055740000680089,0.022572999820113182,-0.132423996925354,0.005059999879449606,0.02468300051987171,-0.13346299529075623,-0.020029999315738678,-0.04840400069952011,0.07642299681901932,0.05616199970245361,-0.01911799982190132,0.09564399719238281,-0.022172000259160995,0.135126993060112,0.18464000523090363,-0.17810000479221344,0.11759600043296814,0.03540400043129921,-0.02290700003504753,-0.05590499937534332,0.03252200037240982,-0.0592069998383522,0.13959799706935883,-0.00013099999341648072,0.03391199931502342,-0.002171000000089407,-0.1482039988040924,0.030937999486923218,-0.11001099646091461,0.0356299988925457,-0.0228240005671978,0.07623600214719772,-0.02333099953830242,-0.11558499932289124,0.0501209981739521,0.1178869977593422,-0.015073999762535095,-0.05151800066232681,-0.030076999217271805,-0.028150999918580055,-0.06745299696922302,-0.37657201290130615,-0.10980799794197083,0.0015689999563619494,-0.25249698758125305,0.0980679988861084,-0.1402139961719513,0.022786999121308327,-0.089198999106884,0.06982000172138214,-0.08455800265073776,0.17972500622272491,0.1592389941215515,-0.06640499830245972,0.14363600313663483,0.03993299975991249,0.10825800150632858,-0.17385800182819366,-0.0006649999995715916,0.0014979999978095293,-0.03702399879693985,0.015053000301122665,-0.1799129992723465,0.05887699872255325,0.09287700057029724,0.06976500153541565,-0.012838000431656837,-0.0726810023188591,-0.14958399534225464,0.14596299827098846,0.017880000174045563,0.1079929992556572,-0.020865000784397125,0.10433299839496613,0.1800670027732849,-0.10757999867200851,0.27416399121284485,0.06690999865531921,-0.3941360116004944,-0.1429699957370758,0.11389199644327164,0.08062999695539474,0.10905200242996216,0.0851299986243248,-0.1121549978852272,0.3144940137863159,-0.2314780056476593,-0.09893599897623062,0.29923000931739807,0.10674600303173065,-0.10986100137233734,0.040929000824689865,-0.08790700137615204,0.07523900270462036,-0.17360499501228333,0.06344600021839142,-0.32140201330184937,-0.009572000242769718,-0.10007800161838531,0.0022319999989122152,0.007608999963849783,-0.10712599754333496,0.1413629949092865,0.04344499856233597,-0.23241400718688965,-0.0212009996175766,0.15050099790096283,0.11263000220060349,-0.06605300307273865,0.17394199967384338,0.18638600409030914,0.13316500186920166,-0.029346000403165817,-0.06966099888086319,-0.018045000731945038,0.072502002120018,0.2472739964723587,-0.10290300101041794,-0.1524759978055954,-0.11756499856710434,0.10900100320577621,-0.03632400184869766,-0.08509399741888046,-0.048156000673770905,-0.03271999955177307,0.10760699957609177,0.1270969957113266,-0.28462401032447815,-0.04012399911880493,0.03820899873971939,-0.1719920039176941,-0.10338400304317474,0.018610000610351562,-0.05278800055384636,0.18008199334144592,0.012536000460386276,-0.02721799910068512,0.16400399804115295,0.01140500046312809,0.14993900060653687,-0.10917200148105621,0.03488700091838837,0.06496600061655045,0.036660999059677124,-0.02016099914908409,0.11470899730920792,0.1508989930152893,-0.04119100049138069,-0.11128599941730499,0.0018179999897256494,0.1297360062599182,0.13552400469779968,0.058820001780986786,-0.056853000074625015,-0.019385000690817833,-0.08673100173473358,-0.06489899754524231,0.059105001389980316,0.06549499928951263,0.1254819929599762,-0.024215999990701675,-0.1599320024251938,0.06185799837112427,0.07431700080633163,-0.010335000231862068,-0.06212100014090538,0.009967000223696232,-0.005671000108122826,-0.21383999288082123,-0.42152199149131775,-0.09562300145626068,-0.10836900025606155,-0.20859700441360474,0.0497249998152256,-0.2591420114040375,0.004310999996960163,-0.24814000725746155,0.263945996761322,0.028237000107765198,0.13419200479984283,0.12191999703645706,-0.186272993683815,0.020298000425100327,0.05118900164961815,-0.017514999955892563,-0.20078200101852417,-0.09687799960374832,-0.03713100031018257,0.05850299820303917,0.05692100152373314,-0.1269800066947937,-0.021057000383734703,-0.01039000041782856,-0.003926999866962433,-0.1349859982728958,0.0723700001835823,-0.16647300124168396,0.24792499840259552,-0.002684999955818057,0.0806879997253418,-0.009434999898076057,0.051603998988866806,0.0665619969367981,-0.28193700313568115,0.022307999432086945,0.146807000041008,-0.2292180061340332,-0.1336130052804947,-0.16659200191497803,0.07627499848604202,0.2667419910430908,-8.099999831756577e-05,-0.11210300028324127,0.1756500005722046,-0.1083730012178421,0.00241499999538064,0.3456830084323883,0.18844099342823029,-0.08763500303030014,-0.0586169995367527,-0.1997089982032776,0.10724599659442902,-0.058889999985694885,0.020529000088572502,-0.31426599621772766,-0.14548400044441223,-0.018843000754714012,-0.03026299923658371,-0.011516000144183636,-0.14073899388313293,0.09788800030946732,-0.03364599868655205,-0.12239500135183334,-0.06625699996948242,0.13406799733638763,0.00762300007045269,0.0007300000288523734,-0.16621799767017365,0.24925699830055237,-0.007127999793738127,-0.08688700199127197,-0.049660999327898026,-0.1406400054693222,-0.24433599412441254,0.11140500009059906,-0.08799800276756287,-0.1808049976825714,0.18210500478744507,0.01931300014257431,0.09042800217866898,0.010982999578118324,0.02232700027525425,-0.1060279980301857,-0.036896001547575,0.16478100419044495,-0.37851500511169434,-0.057638999074697495,-0.17207400500774384,-0.13727299869060516,-0.13427500426769257,0.023739000782370567,0.02935599908232689,0.19311200082302094,0.06361299753189087,-0.050053998827934265,0.1098880022764206,-0.05445399880409241,0.23490700125694275,-0.3108789920806885,-0.1379839926958084,0.1909710019826889,0.05965900048613548,-0.005905000027269125,0.09943799674510956,-0.4445210099220276,-0.3232960104942322,-0.19126300513744354,-0.12953299283981323,0.09395900368690491,0.09740400314331055,-0.00647500017657876,0.003504999913275242,0.018156999722123146,0.06637699902057648,-0.0494999997317791,0.3102389872074127,-0.11254999786615372,-0.007978999987244606,0.08304300159215927,-0.010898999869823456,0.09948199987411499,-0.044638000428676605,0.05113000050187111,-0.007420999929308891,-0.04723399877548218,-0.031550999730825424,-0.18456900119781494,-0.24591399729251862,0.19237099587917328,-0.031063999980688095,0.003361999988555908,-0.05131300166249275,0.06193900108337402,-0.06868699938058853,-0.1520259976387024,0.4502210021018982,0.07203900068998337,0.15315799415111542,0.05962299928069115,-0.2890940010547638,0.1303340047597885,0.030533000826835632,-0.07791300117969513,-0.12989600002765656,-0.009580000303685665,0.07841800153255463,0.04890500009059906,0.14476099610328674,0.0027620000764727592,0.016363000497221947,-0.08090600371360779,-0.00012799999967683107,0.002131999935954809,0.038279999047517776,-0.1178859993815422,0.11032500118017197,0.056706998497247696,0.07176700234413147,0.04836900159716606,0.14011600613594055,0.0761839970946312,0.06450500339269638,-0.10103700309991837,0.03712400048971176,-0.13082699477672577,0.06522700190544128,0.3762719929218292,-0.031831998378038406,0.17333899438381195,-0.11205700039863586,-0.16539600491523743,0.25094300508499146,-0.06656499952077866,-0.0879260003566742,0.09975399821996689,0.0787699967622757,-0.0004949999856762588,0.033946000039577484,-0.06438300013542175,0.07198400050401688,0.017767999321222305,0.18980099260807037,0.3024600148200989,-0.16903899610042572,-0.005096999928355217,-0.05622800067067146,-0.03904300183057785,-0.02091900072991848,0.007588000036776066,0.07295499742031097,-0.1418370008468628,-0.0004830000107176602,0.20118899643421173,-0.032228998839855194,-0.039430998265743256,-0.3316259980201721,0.29203900694847107,-0.19016799330711365,-0.05840900167822838,-0.0208320003002882,-0.13704000413417816,-0.4501030147075653,0.08292900025844574,-0.19218599796295166,-0.002469999948516488,0.03987399861216545,0.18674400448799133,0.010052000172436237,0.15800300240516663,0.11523299664258957,-0.047843001782894135,0.013504000380635262,-0.20850400626659393,0.007428999990224838,-0.08770500123500824,-0.2348639965057373,-0.03415599837899208,-0.11283499747514725,0.018101999536156654,0.02610900066792965,0.24875299632549286,0.06199900060892105,-0.198730006814003,0.0937659963965416,0.048934999853372574,0.11731400340795517,-0.255374014377594,0.06764200329780579,0.16931499540805817,0.060860998928546906,-0.11619199812412262,0.09670600295066833,0.2785010039806366,-0.19398799538612366,-0.09447400271892548,0.1657940000295639,0.0283610001206398,0.06701800227165222,0.04997500032186508,0.001474000047892332,0.018338000401854515,-0.035259000957012177,-0.23170800507068634,0.20021599531173706,-0.08026199787855148,-0.07558300346136093,0.0024629998952150345,0.07418700307607651,-0.06343500316143036,-0.1367339938879013,0.21399299800395966,-0.1489579975605011,0.20287099480628967,0.029069000855088234,-0.18472400307655334,-0.25505000352859497,-0.2512969970703125,-0.18360300362110138,-0.014337999746203423,0.011765999719500542,0.05791100114583969,-0.04324200004339218,-0.03802499920129776,0.341948002576828,0.06626400351524353,-0.11003900319337845,0.09987600147724152,0.07606100291013718,0.19742700457572937,-0.07752600312232971,-0.001183000043965876,-0.008479000069200993,0.014453999698162079,0.04030099883675575,0.06273899972438812,0.06742499768733978,-0.04921799898147583,-0.1482599973678589,-0.18774700164794922,0.026139000430703163,-0.07064200192689896,-0.2201630026102066,-0.27579399943351746,0.0019389999797567725,-0.023405000567436218,0.02874699980020523,-0.045600999146699905,0.14752599596977234,0.04908199980854988,-0.22072899341583252,-0.010613000020384789,-0.2516990005970001,0.04405200108885765,-0.21491999924182892,-0.14554299414157867,0.08068300038576126,0.03488700091838837,-0.006306999828666449,-0.030977999791502953,0.20155900716781616,0.05458899959921837,0.009816999547183514,-0.003338000038638711,0.08811300247907639,-0.10477499663829803,0.1368670016527176,-0.10131900012493134,0.27490198612213135,0.017129000276327133,0.1404000073671341,0.15780200064182281,0.19772499799728394,-0.12970000505447388,0.18305200338363647,0.06757699698209763,-0.0004600000102072954,0.03604999929666519,0.09791500121355057,-0.13305599987506866,0.015604999847710133,0.08017300069332123,-0.09939400106668472,0.19412800669670105,-0.030706999823451042,0.3777799904346466,0.17485499382019043,0.05063600093126297,-0.15743599832057953,-0.1641869992017746,0.1190669983625412,0.055369000881910324,-0.00735800014808774,-0.061197999864816666,-0.07882300019264221,0.1166049987077713,0.13642799854278564,-0.07319200038909912,0.08255700021982193,0.04607599973678589,0.08388300240039825,-0.20911799371242523,0.1104390025138855,-0.19280999898910522,0.10815499722957611,-0.07762400060892105,-0.10969799757003784,0.06305299699306488,0.04628700017929077,0.08693200349807739,0.08327200263738632,-0.18455900251865387,0.15274499356746674,0.12567999958992004,0.21966400742530823,-0.31763899326324463,-0.002606000052765012,0.06516800075769424,-0.11523199826478958,-0.14432400465011597,0.09740400314331055,0.31940901279449463,0.02116600051522255,-0.024788999930024147,0.10258299857378006,-0.021399000659585,0.09287700057029724,-0.12352800369262695,0.03325200080871582,-0.0036180000752210617,-0.2067040055990219,-0.32573801279067993,-0.050540000200271606,0.019099000841379166,0.27272000908851624,0.05657599866390228,0.01911799982190132,-0.06888200342655182,-0.0959009975194931,0.09891899675130844,-0.16605499386787415,-0.11392399668693542,-0.009713999927043915,-0.1769919991493225,-0.09637399762868881,-0.33891499042510986,-0.14093400537967682,-0.3756990134716034,-0.06093800067901611,-0.4224410057067871,-0.050863999873399734,0.015644000843167305,0.12111800163984299,0.00546600017696619,-0.169405996799469,0.10466500371694565,-0.11651299893856049,-0.061514999717473984,0.022647999227046967,0.10468000173568726,-0.04050999879837036,0.09753599762916565,-0.04389899969100952,0.06432099640369415,-0.20297899842262268,-0.06403400003910065,-0.02867100015282631,-0.1400279998779297,0.07853599637746811,-0.1075109988451004,-0.09358900040388107,-0.4150429964065552,-0.08395799994468689,-0.11448299884796143,0.07784000039100647,0.0614750012755394,-0.047301001846790314,0.19708800315856934,-0.02131900005042553,-0.11291500180959702,-0.1697770059108734,-0.1544950008392334,0.06824299693107605,0.1325940042734146,0.0024190000258386135,-0.07475399971008301,0.018610000610351562,-0.269773006439209,0.11039700359106064,-0.2142000049352646,0.13068799674510956,-0.02547300048172474,0.14801999926567078,-0.06131099909543991,-0.0185759998857975,-0.2700349986553192,0.043455999344587326,0.04295999929308891,0.35504499077796936,-0.06802999973297119,0.13986200094223022,0.015785999596118927,0.11719299852848053,-0.04776500165462494,0.05056900158524513,-0.23344500362873077,0.1342190057039261,-0.006924999877810478,-0.006345999892801046,0.05959299951791763,-0.08094599843025208,-0.008135000243782997,-0.26200899481773376,0.38471099734306335,-0.33722999691963196,0.02307399921119213,0.13328500092029572,-0.02214900031685829,-0.1351889967918396,0.02085299976170063,-0.3039189875125885,-0.24441500008106232,0.028558000922203064,0.024095000699162483,-0.016062000766396523,0.048882998526096344,0.06647499650716782,-0.18920299410820007,-0.25080499053001404,-0.2070080041885376,0.050276000052690506,-0.15283499658107758,-0.033952999860048294,0.02459700033068657,-0.20726099610328674,0.12455400079488754,0.04612100124359131,0.19622500240802765,0.010476999916136265,-0.03810900077223778,0.03849399834871292,-0.1575150042772293,-0.09599199891090393,-0.19760799407958984,0.18063199520111084,-0.40616899728775024,-0.07557699829339981,-0.002859999891370535,-0.006393000017851591,-0.11391399800777435,-0.040171001106500626,-0.0602709986269474,-0.17927299439907074,0.035764001309871674,0.010847000405192375,-0.07320699840784073,0.017638999968767166,0.29038599133491516,-0.007815999910235405,-0.13374200463294983,0.10828699916601181,0.01570899970829487,0.052434999495744705,0.11818099766969681,-0.008456000126898289,0.08986900001764297,-0.05222899839282036,0.2577889859676361,-0.08579599857330322,0.16364599764347076,0.09451299905776978,-0.12728899717330933,0.07438699901103973,0.33962899446487427,-0.1577180027961731,-0.1542769968509674,0.015769999474287033,-0.4492399990558624,-0.08401499688625336,0.11399900168180466,-0.05012600123882294,0.015143999829888344,-0.2137099951505661,0.06691599637269974,-0.028398999944329262,0.08457399904727936,0.04515000060200691,0.1565449982881546,0.02251099981367588,-0.05439300090074539,-0.043765999376773834,0.13917799293994904,0.009982000105082989,-0.0055149998515844345,0.020692000165581703,-0.05358999967575073,0.07715799659490585,0.12294399738311768,-0.18540799617767334,0.14229999482631683,-0.04089200124144554,0.020457999780774117,0.08077199757099152,0.21076199412345886,0.06666199862957001,0.13080599904060364,0.15818700194358826,-0.1584859937429428,0.1199909970164299,-0.15482200682163239,0.01736300066113472,-0.26478999853134155,0.10368199646472931,-0.04159199818968773,0.17189499735832214,-0.07998999953269958,0.20042000710964203,-0.10821600258350372,0.3935360014438629,0.13931000232696533,0.15332700312137604,0.21185700595378876,-0.2504740059375763,0.16413399577140808,0.1483670026063919,0.1348849982023239,0.08716300129890442,0.13609899580478668,0.2327599972486496,-0.05030300095677376,-0.029162000864744186,-0.042229000478982925,0.29511401057243347,0.1544709950685501,-0.20014099776744843,-0.027681000530719757,-0.04149400070309639,0.33983901143074036,-0.17640900611877441,-0.08764400333166122,0.1693120002746582,0.34404700994491577,-0.23626099526882172,0.3257350027561188,-0.0026759998872876167,-0.32071399688720703,0.11980900168418884,0.4453260004520416,0.09333600103855133,0.011899000033736229,-0.08275900036096573,0.26332399249076843,-0.1147020012140274,0.4339039921760559,0.18034300208091736,0.04898900166153908,-0.1864040046930313,0.15178099274635315,-0.07184000313282013,-0.2584860026836395,0.2669300138950348,0.09078799933195114,0.010780000127851963,0.10871899873018265,-0.057923998683691025,0.04506099969148636,-0.06633800268173218,-0.4289959967136383,-0.07445699721574783,0.08822599798440933,0.044165998697280884,0.13760800659656525,-0.09096699953079224,-0.12305700033903122,-0.1109670028090477,-0.2818779945373535,0.136695995926857,-0.02232999913394451,-0.36837199330329895,0.02615099959075451,0.2019450068473816,0.25385499000549316,0.052882999181747437,0.17743399739265442,0.017162999138236046,-0.03560800105333328,-0.039771001785993576,-0.20942999422550201,-0.11815399676561356,-0.14882400631904602,0.12712599337100983,-0.30124300718307495,-0.05637099966406822,0.006982999853789806,-0.12162499874830246,-0.10592100024223328,-0.31578201055526733,0.25011399388313293,0.40259501338005066,0.005384999793022871,-0.15757699310779572,-0.309112012386322,-0.06422100216150284,-0.09208299964666367,0.006169999949634075,-0.30677899718284607,-0.08439099788665771,-0.24814100563526154,0.07439199835062027,-0.11029300093650818,-0.28643301129341125,0.18003900349140167,0.34481099247932434,-0.12316200137138367,-0.009150000289082527,-0.10863400250673294,-0.19509899616241455,0.10039699822664261,-0.11326099932193756,0.27619999647140503,0.09426400065422058,-0.3576729893684387,-0.10255300253629684,-0.07692199945449829,0.305402010679245,-0.09009300172328949,-0.16063900291919708,-0.25536298751831055,0.10190600156784058,0.01304600015282631,0.3060170114040375,0.009213999845087528,0.08162900060415268,0.13325800001621246,0.13078899681568146,-0.19072699546813965,-0.20058900117874146,-0.4595879912376404,-0.25104400515556335,-0.011889999732375145,-0.09431599825620651,-0.04992400109767914,0.02503800019621849,0.034182000905275345,0.13196800649166107,-0.045159000903367996,0.2846429944038391,0.471437007188797,-0.09976699948310852,0.05122699961066246,-0.13966700434684753,-0.033590998500585556,0.5881720185279846,-0.21774700284004211,-0.10029800236225128,-0.15433399379253387,0.17871999740600586,0.1489650011062622,0.4310790002346039,0.320125013589859,0.5543590188026428,0.12451700121164322,0.13638900220394135,-0.3642440140247345,0.013237999752163887,0.1530430018901825,-0.07130099833011627,-0.15837599337100983,0.11457499861717224,0.3963859975337982,-0.1776459962129593,0.26919299364089966,0.12928999960422516,-0.34666499495506287,0.21945999562740326,-0.022422000765800476,0.0696759968996048,-0.11275900155305862,0.05935100093483925,0.04455700144171715,-0.2926410138607025,-0.08620399981737137,-0.21799500286579132,-0.12648500502109528,-0.25749799609184265,0.03141700103878975,0.041884999722242355,-0.05124099925160408,0.2148350030183792,-0.1197969987988472,0.1999029964208603,-0.03334200009703636,0.3174940049648285,-0.016224000602960587,-0.18162499368190765,-0.5403439998626709,0.006403000093996525,0.05731000006198883,-0.08958999812602997,-0.03336000069975853,-0.15790599584579468,-0.19616299867630005,0.09325700253248215,-0.222679004073143,0.06665000319480896,0.15210400521755219,0.01272400002926588,-0.33038198947906494,0.26810500025749207,-0.18084099888801575,0.03491400182247162,-0.3050369918346405,-0.014835000038146973,0.20154500007629395,-0.12772999703884125,-0.40599700808525085,0.23967500030994415,0.2524999976158142,0.1953130066394806,-0.11998599767684937,-0.10938999801874161,0.0031270000617951155,-0.14503400027751923,-0.06443999707698822,-0.018445000052452087,0.01334800012409687,-0.4051229953765869,-0.19980500638484955,-0.034164998680353165,-0.04781600087881088,-0.26465100049972534,0.006246999837458134,-0.06435299664735794,0.038947999477386475,0.16211000084877014,-0.06556899845600128,0.010363000445067883,0.3560760021209717,-0.1411450058221817,-0.03604299947619438,-0.2741290032863617,-0.1164890006184578,0.09473100304603577,-0.08848900347948074,-0.056478001177310944,0.11563699692487717,-0.11711200326681137,0.11292999982833862,0.3948200047016144,0.02725600078701973,0.2548770010471344,-0.14362500607967377,0.09180299937725067,0.016248999163508415,-0.409417986869812,0.17299599945545197,0.4145039916038513,-0.14117500185966492,0.22078700363636017,0.17395800352096558,0.19208599627017975,-0.026512999087572098,-0.08302100002765656,0.03219600021839142,-0.2719709873199463,0.07140199840068817,-0.2996250092983246,0.27030399441719055,0.18400000035762787,-0.31645798683166504,0.10668899863958359,0.36273398995399475,0.12895600497722626,-0.18603700399398804,0.14273500442504883,0.37145599722862244,-0.06349500268697739,-0.06256899982690811,0.20427699387073517,-0.02512199990451336,0.23928099870681763,0.24761399626731873,-0.20456500351428986,0.28612300753593445,-0.3987100124359131,-0.07938099652528763,-0.08071800321340561,-0.05033700168132782,-0.3011380136013031,0.23989300429821014,0.3786129951477051,-0.5717939734458923,0.11126100271940231,0.3559210002422333,-0.3974449932575226,-0.35617101192474365,-0.1109360009431839,-0.06360799819231033,0.25585898756980896,-0.029503999277949333,-0.5354520082473755,-0.03343899920582771,-0.07694400101900101,0.4111419916152954,0.1484909951686859,0.19104400277137756,0.12668099999427795,-0.12621699273586273,-0.3544999957084656,0.41768699884414673,0.09973099827766418,-0.26225000619888306,0.25149500370025635,0.13236300647258759,-0.19818900525569916,0.4431900084018707,0.0585159994661808,-0.1871110051870346,0.00021600000036414713,-0.05960699915885925,0.31748300790786743,0.2972100079059601,-0.09334299713373184,-0.79476398229599,0.3928079903125763,0.011932999826967716,-0.4621640145778656,0.030264999717473984,-0.288998007774353,-0.0013640000252053142,-0.04438599944114685,-0.40202200412750244,-0.03497700020670891,0.6097469925880432,-0.17571699619293213,0.05639699846506119,0.175929993391037,-0.16409599781036377,0.2790110111236572,-0.22178100049495697,-0.0006280000088736415,-0.2427929937839508,-0.6183059811592102,-0.5437859892845154,0.6207770109176636,0.1879809945821762,0.17237700521945953,-0.15405400097370148,-0.0579649992287159,-0.006424999795854092,0.08575300127267838,0.02398799918591976,-0.16279299557209015,-0.4167659878730774,-0.20423999428749084,-0.4514470100402832,-0.3807539939880371,-0.13065099716186523,-0.23336799442768097,-0.4728269875049591,-0.22652700543403625,0.27265501022338867,0.09231799840927124,-0.39587199687957764,0.06354700028896332,-0.05963899940252304,0.06264399737119675,-0.06619899719953537,0.19757699966430664,-0.15758399665355682,-0.13628199696540833,-0.3369700014591217,0.18533900380134583,-0.19593100249767303,-0.5806829929351807,0.597108006477356,0.31414198875427246,0.3743610084056854,-0.1561959981918335,-0.12827299535274506,0.3381099998950958,-0.6062530279159546,-0.12894299626350403,-0.08712100237607956,0.45338499546051025,-0.06082500144839287,0.3719809949398041,-0.11088799685239792,0.20364700257778168,-0.21880300343036652,-0.05444300174713135,-0.19455699622631073,-0.2736850082874298,-0.012408999726176262,0.5154740214347839,0.45539799332618713,0.33350101113319397,0.12966999411582947,0.028627999126911163,0.5510600209236145,-0.48337799310684204,-0.2963399887084961,-0.2284799963235855,0.16098299622535706,0.3733530044555664,0.08369799703359604,0.1370529979467392,-0.056765999644994736,-0.5197299718856812,-0.0030159999150782824,-0.08980400115251541,0.06336099654436111,-0.12623199820518494,0.033514998853206635,-0.44957399368286133,-0.06803599745035172,-0.43532299995422363,-0.013555999845266342,-0.02464500069618225,-0.1018730029463768,0.07162900269031525,0.07672400027513504,-0.14324699342250824,-0.024025000631809235,-0.16846199333667755,-0.02790999971330166,0.15839999914169312,-0.2851960062980652,0.10743299871683121,0.04876499995589256,-0.2803399860858917,0.11449799686670303,-0.1817370057106018,0.12858299911022186,0.34711501002311707,0.07302699983119965,0.11182600259780884,-0.08333999663591385,0.09997200220823288,-0.4838559925556183,0.14255200326442719,0.05735800042748451,0.05335099995136261,0.10396900027990341,-0.09945700317621231,-0.4108960032463074,-0.16554300487041473,-0.4031420052051544,0.4078789949417114,0.24767300486564636,0.008636999875307083,-0.01999500021338463,0.08446100354194641,-0.2838839888572693,-0.2401379942893982,-0.38344401121139526,0.25505000352859497,0.18723000586032867,-0.05826900154352188,0.032016001641750336,0.12460099905729294,0.08869100362062454,-0.13266199827194214,-0.10789799690246582,0.25002598762512207,-0.3308880031108856,-0.32143500447273254,-0.12763400375843048,0.09013500064611435,-0.06936699897050858,-0.08814900368452072,-0.18647299706935883,0.531673014163971,0.025840999558568,0.10874199867248535,0.13029900193214417,0.2820659875869751,0.05525999888777733,-0.20605799555778503,0.34535300731658936,-0.45387300848960876,0.04075299948453903,0.3555389940738678,0.02517399936914444,-0.05000700056552887,0.2560440003871918,0.2168010026216507,-0.07012700289487839,-0.10473299771547318,0.45826900005340576,-0.3420349955558777,0.11585699766874313,0.1499370038509369,0.1270730048418045,-0.27521300315856934,0.2479189932346344,-0.333636999130249,0.32447901368141174,0.17470799386501312,0.044084999710321426,0.025250999256968498,-0.2445860058069229,-0.05146000161767006,0.2237589955329895,0.20555399358272552,-0.07488200068473816,-0.29416000843048096,-0.03565699979662895,0.2758449912071228,-0.21977999806404114,-0.1274529993534088,0.27700600028038025,0.5746380090713501,-0.044578999280929565,0.18976399302482605,-0.035401999950408936,0.05347299948334694,-0.25766700506210327,-0.09083499759435654,-0.17410700023174286,-0.25326499342918396,-0.060336001217365265,0.0959170013666153,0.40815600752830505,-0.006380000151693821,-0.36351001262664795,-0.23538200557231903,0.2708980143070221,-0.14825500547885895,-0.36840999126434326,-0.10229700058698654,0.21413399279117584,-0.14372999966144562,-0.07721100002527237,-0.38374900817871094,0.025829000398516655,0.25599101185798645,-0.0032099999953061342,0.30501601099967957,0.16989000141620636,0.1750580072402954,0.05008700117468834,0.13016100227832794,0.050252001732587814,-0.15198199450969696,-0.029451999813318253,0.03886299952864647,-0.18747299909591675,0.12989799678325653,0.0777209997177124,-0.3380480110645294,-0.08300100266933441,-0.1484059989452362,-0.024932000786066055,-0.12596799433231354,0.15650899708271027,0.04031499847769737,-0.05234000086784363,-0.030517999082803726,0.05254200100898743,0.07635899633169174,0.1700810045003891,0.1421789973974228,-0.129052996635437,-0.21222899854183197,-0.0034080001059919596,0.29824399948120117,-0.02747499942779541,-0.048604000359773636,-0.028040999546647072,0.3469170033931732,0.005086999852210283,0.35335400700569153,0.1448650062084198,0.15992699563503265,-0.0375090017914772,0.06517700105905533,0.12367899715900421,-0.14966699481010437,-0.37233099341392517,-0.10152599960565567,0.053367000073194504,-0.09740900248289108,0.19652700424194336,0.12217000126838684,0.12665699422359467,-0.1459919959306717,-0.2079160064458847,0.16458000242710114,0.019585000351071358,-0.4580039978027344,-0.5478299856185913,0.188059002161026,-0.40303200483322144,-0.15248100459575653,-0.14111599326133728,0.28755199909210205,-0.32363900542259216,-0.2005690038204193,-0.11891800165176392,0.2963320016860962,-0.09237899631261826,0.36950600147247314,-0.13796399533748627,0.21380700170993805,-0.04765800014138222,0.02363399975001812,0.2532249987125397,-0.1729629933834076,-0.233816996216774,0.11500299721956253,0.11818999797105789,0.0941850021481514,-0.00010800000018207356,-0.12443800270557404,-0.2578440010547638,0.0719280019402504,0.20716699957847595,0.08833199739456177,0.042020998895168304,-0.00014899999951012433,-0.30171000957489014,-0.13062000274658203,0.17325900495052338,0.05441800132393837,-0.10818299651145935,-0.19345900416374207,-0.012306000106036663,-0.22509199380874634,0.04271399974822998,-0.24799300730228424,0.1621289998292923,0.14518000185489655,-0.3804210126399994,-0.3450169861316681,0.0049959998577833176,0.36116400361061096,0.02178099937736988,-0.18048100173473358,-0.14167000353336334,0.07729499787092209,-0.2383120059967041,-0.08477699756622314,-0.20857100188732147,0.45222601294517517,0.011826000176370144,0.13503800332546234,0.15554900467395782,-0.13379600644111633,0.23695099353790283,0.1138719990849495,-0.02253499999642372,0.02261199988424778,-0.008177000097930431,0.31755000352859497,0.22678300738334656,-0.34482699632644653,-0.031272999942302704,-0.09395399689674377,0.39879998564720154,0.3727959990501404,0.09209100157022476,0.13185399770736694,-0.0320889987051487,0.278082013130188,0.19996599853038788,0.15651099383831024,0.18478800356388092,-0.21478299796581268,-0.039716001600027084,0.15501999855041504,-0.1859070062637329,0.06061600148677826,-0.2904849946498871,-0.0842989981174469,-0.3533419966697693,0.004548999946564436,-0.1677580028772354,-0.13365399837493896,-0.23192599415779114,0.08796799927949905,-0.3704400062561035,0.12192200124263763,-0.11663100123405457,-0.22269900143146515,0.15112599730491638,-0.26772698760032654,0.22041699290275574,0.3986789882183075,-0.16894599795341492,-0.12523099780082703,-0.02389799989759922,0.12444700300693512,0.24571199715137482,0.29100099205970764,0.08863600343465805,-0.01082600001245737,0.05611699819564819,0.06933999806642532,0.4903540015220642,0.214805006980896,0.11516699939966202,0.2500140070915222,-0.2254049926996231,0.3394550085067749,-0.045079998672008514,-0.3222000002861023,-0.3558160066604614,0.4008379876613617,0.19603599607944489,-0.36673399806022644,-0.053560998290777206,0.18692199885845184,-0.045791998505592346,-0.19609799981117249,-0.14137400686740875,-0.07080800086259842,0.26909300684928894,-0.14893600344657898,-0.1588120013475418,0.18295399844646454,-0.01764499954879284,0.06942000240087509,-0.22692899405956268,-0.2569110095500946,0.07377099990844727,-0.2560020089149475,-0.15980899333953857,0.030894000083208084,0.07171300053596497,0.001896000001579523,-0.022724000737071037,-0.07920700311660767,-0.34540000557899475,0.2411320060491562,0.35190701484680176,-0.25914499163627625,0.18153899908065796,-0.24988900125026703,-0.4085339903831482,0.23725800216197968,-0.1503390073776245,-0.06766600161790848,-0.2676660120487213,0.03283800184726715,-0.12256000190973282,-0.07592400163412094,-0.031175000593066216,-0.060704998672008514,0.19086700677871704,-0.2221589982509613,-0.09898299723863602,0.06857000291347504,-0.1777919977903366,-0.3704890012741089,-0.31682801246643066,0.036093998700380325,-0.2527010142803192,-0.06986899673938751,0.06456399708986282,-0.03760699927806854,0.02237600088119507,-0.06608899682760239,0.1832370012998581,0.051329001784324646,-0.2253669947385788,-0.2915189862251282,0.08176500350236893,0.07069899886846542,-0.002810999983921647,-0.14856800436973572,-0.15469999611377716,0.25881001353263855,0.24364300072193146,-0.43976300954818726,0.34218600392341614,-0.5893440246582031,0.5913090109825134,0.007942999713122845,-0.016541000455617905,0.1892230063676834,-0.22721600532531738,-0.2248079925775528,0.2235569953918457,-0.2566849887371063,0.02134699933230877,-0.07529299706220627,0.11390399932861328,-0.04474300146102905,0.1704069972038269,0.21350200474262238,-0.003932999912649393,0.21536199748516083,-0.0023449999280273914,-0.021144000813364983,0.1633870005607605,0.019222000613808632,-0.1243399977684021,-0.04435399919748306,-0.023150000721216202,-0.11543899774551392,0.008419999852776527,0.020117999985814095,-0.30682799220085144,0.021687999367713928,0.23749400675296783,-0.18997199833393097,0.06702499836683273,-0.08319500088691711,-0.1652110069990158,0.12168200314044952,-0.057764001190662384,-0.3127819895744324,-0.05809500068426132,-0.20023900270462036,0.19657400250434875,-0.04679099842905998,0.012113000266253948,0.08944500237703323,-0.19686299562454224,0.011680999770760536,0.2037220001220703,0.2799859941005707,0.18453200161457062,0.060109999030828476,-0.1250389963388443,0.09338200092315674,0.048916999250650406,0.08469899743795395,0.2551890015602112,0.16630199551582336,-0.17914000153541565,0.04365300014615059,0.5391409993171692,-0.24153000116348267,0.053068000823259354,0.06362999975681305,0.0957920029759407,-0.2593669891357422,0.08128199726343155,0.19351600110530853,0.3088510036468506,0.14475899934768677,0.12978899478912354,0.14169499278068542,0.21473799645900726,-0.18097899854183197,0.28922000527381897,0.14663100242614746,-0.3272539973258972,0.15798400342464447,0.22740299999713898,0.036334000527858734,-0.2063799947500229,-0.040174998342990875,0.07274000346660614,-0.2916029989719391,0.1001570001244545,0.1785530000925064,0.09324900060892105,0.32019099593162537,-0.042357999831438065,0.1788029968738556,-0.08113499730825424,-0.09359200298786163,0.30838701128959656,0.08788800239562988,-0.04925699904561043,-0.15008799731731415,-0.2135629951953888,0.07886700332164764,-0.5850229859352112,-0.2863909900188446,0.13916200399398804,0.11482899636030197,0.11530900001525879,-0.2832239866256714,-0.05460200086236,-0.13641899824142456,-0.09779799729585648,0.0661960020661354,0.02013999968767166,-0.06293799728155136,-0.01219599973410368,-0.12597499787807465,-0.05318799987435341,-0.15740400552749634,0.013535000383853912,-0.18469099700450897,0.3599050045013428,-0.023022999987006187,-0.14638499915599823,-0.09914600104093552,-0.1853480041027069,0.2162420004606247,-0.08447100222110748,0.02805599942803383,0.16501200199127197,-0.08154000341892242,-0.11018700152635574,0.18273599445819855,0.1240210011601448,-0.10311499983072281,-0.10654199868440628,-0.2907409965991974,0.10727699846029282,-0.028447000309824944,-0.1264140009880066,0.18983399868011475,-0.25342699885368347,0.10271099954843521,0.16626599431037903,-0.21635599434375763,0.19180899858474731,-0.1603430062532425,0.1887820065021515,0.2113649994134903,-0.2481279969215393,-0.0722619965672493,0.07935599982738495,-0.004430000204592943,0.06138100102543831,-0.010552000254392624,0.133651003241539,0.29388898611068726,0.1475600004196167,0.08008900284767151,-0.19253000617027283,0.10641399770975113,-0.10847300291061401,0.11997299641370773,-0.0842449963092804,0.027389999479055405,0.036240000277757645,-0.00039900001138448715,-0.16520799696445465,-0.16491200029850006,0.05220700055360794,0.10734999924898148,0.140515998005867,-0.024980999529361725,0.07139799743890762,-0.22753199934959412,0.039983998984098434,0.4919399917125702,0.14693999290466309,0.16311399638652802,0.03161799907684326,-0.0030879999976605177,-0.0358319990336895,0.1484770029783249,0.3151409924030304,-0.17511500418186188,-0.29148799180984497,0.15665900707244873,0.2935119867324829,0.22655299305915833,-0.017033999785780907,-0.26621899008750916,-0.20786799490451813,-0.004137000069022179,0.21911899745464325,-0.06758800148963928,-0.24958600103855133,0.09551700204610825,0.2821060121059418,-0.06883099675178528,-0.030806999653577805,-0.004889000207185745,-0.06804200261831284,0.0695199966430664,-0.0048050000332295895,0.019964000210165977,0.1421249955892563,-0.12036599963903427,0.03308799862861633,0.11280299723148346,-0.3837920129299164,-0.34683799743652344,-0.4356679916381836,-0.048719000071287155,0.08205900341272354,-0.004734000191092491,-0.4521850049495697,0.10643800348043442,-0.04752400144934654,-0.03710399940609932,0.037220001220703125,-0.11084400117397308,-0.011808999814093113,0.24621200561523438,0.008085000328719616,-0.0020910000894218683,-0.14475199580192566,-0.05900900065898895,-0.13732600212097168,0.03254900127649307,-0.24893400073051453,0.1583849936723709,-0.0894870012998581,0.08715400099754333,0.036021001636981964,0.049609001725912094,0.059668999165296555,-0.08412999659776688,0.036122001707553864,-0.09307000041007996,-0.061027999967336655,0.10272300243377686,-0.09788800030946732,0.04563400149345398,-0.12375199794769287,0.18520699441432953,0.030984999611973763,-0.06774599850177765,-0.014821999706327915,0.01875999942421913,-0.038394998759031296,0.0692489966750145,-0.4276590049266815,-0.06265299767255783,0.0016670000040903687,-0.381974995136261,-0.25799301266670227,0.05698300153017044,0.012171999551355839,-0.16403399407863617,-0.11729399859905243,0.11462700366973877,0.1965090036392212,-0.2509390115737915,0.19857999682426453,-0.03750000149011612,0.03962999954819679,-0.031964998692274094,0.20595599710941315,0.019166000187397003,0.15036199986934662,0.13719399273395538,-0.006446000188589096,-0.03582800179719925,-0.02985299937427044,0.07091499865055084,0.07321099936962128,0.09721899777650833,-0.31933900713920593,0.13646200299263,0.14717499911785126,0.10949700325727463,-0.10631799697875977,-0.07195200026035309,-0.4923290014266968,-0.03379900008440018,-0.007002000231295824,0.012625000439584255,0.06852299720048904,0.21812699735164642,0.15358799695968628,-0.026193000376224518,-0.056345999240875244,-0.03416699916124344,0.16250300407409668,-0.001151000033132732,0.05314600095152855,-0.11236800253391266,-0.09333200007677078,0.03482300043106079,0.11117099970579147,0.04854400083422661,-0.22662299871444702,-0.04220300167798996,-0.09657099843025208,0.016805000603199005,-0.2509849965572357,-0.028510000556707382,0.08524300158023834,0.0007200000109151006,0.19815300405025482,-0.2144010066986084,0.0018710000440478325,-0.12291499972343445,-0.06569299846887589,-0.09851299971342087,0.10560200363397598,0.21191300451755524,0.05793200060725212,0.38932400941848755,-0.14508000016212463,0.15308700501918793,0.1392669975757599,0.016207000240683556,0.013729000464081764,-0.17168700695037842,0.13235299289226532,0.0545709989964962,0.04512900114059448,-0.033222999423742294,-0.1276630014181137,-0.254938006401062,-0.008857999928295612,-0.029139000922441483,-0.010072000324726105,-0.22938600182533264,0.029333999380469322,0.11615400016307831,-0.27959299087524414,0.19443699717521667,0.044397998601198196,0.05413699895143509,-0.016251999884843826,0.13583500683307648,-0.08260200172662735,0.015173999592661858,-0.13694800436496735,0.06897199898958206,0.05502200126647949,0.04446899890899658,0.13785000145435333,0.13381600379943848,-0.11916899681091309,0.12991200387477875,0.2774290144443512,-0.18142400681972504,0.04341199994087219,-0.17784400284290314,0.03773700073361397,-0.07821699976921082,-0.2796880006790161,0.09504999965429306,-0.09293600171804428,0.02333899959921837,0.04098999872803688,0.003854000009596348,0.030369000509381294,-0.24240000545978546,-0.13739800453186035,0.04986700043082237,-0.13639800250530243,-0.011944999918341637,0.022345000877976418,-0.10707200318574905,0.09015999734401703,0.003722999943420291,-0.06803199648857117,0.08938399702310562,0.03758300095796585,-0.09837900102138519,0.08980900049209595,-0.10026100277900696,0.1520330011844635,0.05829299986362457,-0.0009050000226125121,-0.08833599835634232,0.06300400197505951,0.011890999972820282,0.15656700730323792,0.1145310029387474,-0.07682099938392639,-0.32523998618125916,-0.04175399988889694,0.05285299941897392,-0.1745550036430359,0.005717999767512083,-0.029637999832630157,0.2941940128803253,0.10293000191450119,-0.008147000335156918,0.03991999849677086,0.11060100048780441,0.03438299894332886,0.012205000035464764,0.003976000007241964,0.15759800374507904,-0.2011760026216507,0.03716599941253662,0.20737099647521973,-0.007108000107109547,-0.21806199848651886,-0.1267710030078888,-0.35645100474357605,0.14016200602054596,0.04984699934720993,-0.08504100143909454,-0.032889001071453094,0.1671369969844818,0.09626100212335587,-0.04648600146174431,-0.11984799802303314,0.051718998700380325,-0.3532080054283142,-0.12541499733924866,-0.04419799894094467,0.16425499320030212,0.06199299916625023,-0.019144000485539436,-0.08437100052833557,-0.03619199991226196,-0.31359198689460754,0.19613300263881683,0.014100000262260437,-0.17222100496292114,-0.032572001218795776,0.034290000796318054,0.209989994764328,-0.15177500247955322,-0.012381999753415585,-0.23034299910068512,-0.1063079982995987,-0.15007099509239197,-0.17676100134849548,-0.030765000730752945,0.17132900655269623,0.2021619975566864,0.040316998958587646,0.012277999892830849,0.07133299857378006,-0.08067800104618073,0.15594600141048431,0.06751199811697006,-0.2991870045661926,-0.18801000714302063,0.10449600219726562,0.17765699326992035,-0.07489000260829926,-0.09023699909448624,-0.16586899757385254,-0.020159000530838966,-0.163222998380661,0.15859200060367584,-0.030202999711036682,0.04558499902486801,-0.12495999783277512,0.28742098808288574,-0.31641799211502075,-0.46908101439476013,-0.35107898712158203,-0.09013800323009491,-0.10796300321817398,-0.029603999108076096,-0.21478499472141266,0.3615320026874542,-0.18229299783706665,0.19899900257587433,-0.08274900168180466,-0.16243700683116913,-0.01474899984896183,-0.016452999785542488,0.01936900056898594,0.015034000389277935,0.05361400172114372,-0.0633469969034195,-0.03599099814891815,0.0826909989118576,-0.01722400076687336,0.02824299968779087,-0.09036199748516083,-0.010936000384390354,-0.2741659879684448,0.08400999754667282,0.11738800257444382,-0.00017699999443721026,0.2448350042104721,-0.2757669985294342,0.007934999652206898,-0.04726399853825569,-0.06283300369977951,0.2122119963169098,-0.11241299659013748,-0.020773999392986298,0.11135599762201309,-0.04596399888396263,0.1444920003414154,0.15985800325870514,-0.16668899357318878,0.12921200692653656,-0.3706800043582916,0.1934950053691864,0.16279800236225128,-0.17018499970436096,-0.002684999955818057,0.13712899386882782,-0.009317000396549702,-0.09564600139856339,-0.05190899968147278,0.13365699350833893,0.037101998925209045,0.2527740001678467,0.10690400004386902,-0.0055970000103116035,-0.11627800017595291,-0.011638999916613102,-0.05887699872255325,0.3234249949455261,-0.07562600076198578,-0.2527799904346466,0.08724600076675415,0.08866900205612183,-0.014719000086188316,0.06115499883890152,-0.05989899858832359,0.21004000306129456,-0.054055001586675644,0.021095000207424164,0.05400700122117996,0.026544999331235886,-0.1329679936170578,0.02562200091779232,-0.20927399396896362,0.15528899431228638,0.00927400030195713,-0.11786100268363953,-0.03526100143790245,0.18045200407505035,0.15523500740528107,-0.26413199305534363,0.014196000061929226,-0.0559220016002655,-0.5259310007095337,-0.1028050035238266,-0.16524000465869904,0.2307949960231781,-0.03845300152897835,0.03172900155186653,-0.1115029975771904,0.14798299968242645,-0.06912600249052048,0.22533799707889557,0.06450200080871582,-0.036368001252412796,-0.02095000073313713,-0.06621000170707703,0.21220700442790985,-0.11225199699401855,0.02896999940276146,-0.10888499766588211,0.026660999283194542,-0.2615149915218353,-0.12829500436782837,0.03721199929714203,0.0056039998307824135,0.1527010053396225,-0.004298999905586243,0.2680250108242035,0.202332004904747,-0.05144499987363815,0.00648199999704957,-0.07988300174474716,-0.2269819974899292,-0.060857001692056656,-0.0496239997446537,0.036382999271154404,-0.14281299710273743,0.05448799952864647,-0.1392669975757599,0.039232999086380005,-0.05468200147151947,0.1405230015516281,0.01682399958372116,-0.14308799803256989,-0.08854900300502777,0.4766809940338135,-0.2638300061225891,-0.339819997549057,-0.2948879897594452,0.03577699884772301,-0.0012740000383928418,0.07331600040197372,-0.1475590020418167,0.2323250025510788,-0.033904001116752625,-0.05161299929022789,-0.10115399956703186,-0.08181200176477432,-0.24952800571918488,-0.07394099980592728,-0.10780300199985504,0.09181900322437286,-0.14189200103282928,-0.11213699728250504,-0.06465400010347366,0.15203100442886353,0.10643400251865387,-0.08310499787330627,-0.07791399955749512,-0.04168200120329857,-0.0937419980764389,0.09567800164222717,0.18392600119113922,-0.15830299258232117,0.10186699777841568,-0.1340930014848709,-0.03203500062227249,-0.021738000214099884,-0.08216200023889542,0.11724399775266647,-0.014158000238239765,0.109313003718853,0.12702399492263794,-0.05243000015616417,0.19167199730873108,0.01917400024831295,-0.21393999457359314,0.15304499864578247,-0.29030999541282654,0.00445799995213747,0.024382000789046288,-0.41398701071739197,0.002041999949142337,0.1613530069589615,0.050689999014139175,-0.036051999777555466,-0.08171399682760239,0.29635798931121826,0.13585999608039856,0.05968400090932846,0.06963200122117996,-0.04771700128912926,0.022081000730395317,-0.09661299735307693,-0.06712500005960464,0.19423000514507294,-0.04207500070333481,-0.3506779968738556,0.1876949965953827,0.12688499689102173,0.0668250024318695,-0.07845299690961838,-0.03611199930310249,0.2634130120277405,-0.04457100108265877,0.04339899867773056,0.11988300085067749,0.07079800218343735,-0.10975400358438492,0.02102700062096119,0.057114001363515854,-0.013821999542415142,-0.11622799932956696,-0.11382000148296356,0.03923400118947029,0.1811320036649704,-0.16372999548912048,0.012191000394523144,0.07052399963140488,-0.0320190005004406,-0.25557199120521545,0.005816000048071146,-0.08309800177812576,0.06415300071239471,-0.0692330002784729,0.007823999971151352,-0.16540099680423737,0.01833599992096424,0.1254960000514984,0.13469000160694122,0.19973300397396088,-0.006907000206410885,-0.15081800520420074,-0.007674000225961208,0.08011099696159363,-0.12376800179481506,0.041234999895095825,0.027425000444054604,0.10032299906015396,-0.029965000227093697,-0.17215199768543243,-0.19544799625873566,0.01849599927663803,0.11322399973869324,-0.09979099780321121,-0.22725500166416168,0.2831380069255829,-0.08518800139427185,-0.33502501249313354,-0.10873699933290482,-0.1464180052280426,-0.07912500202655792,-0.062609001994133,0.1146019995212555,0.06179499998688698,-0.11283499747514725,-0.014499999582767487,0.006422000005841255,-0.11993400007486343,-0.09749899804592133,0.016163000836968422,-0.12151800096035004,-0.05893399938941002,0.2800079882144928,-0.11253199726343155,-0.31100499629974365,-0.3285290002822876,0.08896499872207642,-0.2178100049495697,-0.07453399896621704,-0.37033000588417053,0.29079899191856384,-0.11874199658632278,0.043198999017477036,-0.14764000475406647,-0.09891899675130844,-0.2662990093231201,0.04046500101685524,0.12099900096654892,-0.021796999499201775,-0.16997499763965607,-0.05861999839544296,-0.08861900120973587,-0.04369400069117546,0.0939980000257492,-0.02689800038933754,-0.005801000166684389,-0.10674600303173065,-0.04665200039744377,0.025617999956011772,0.16644300520420074,-0.2084289938211441,0.033535998314619064,-0.02376299910247326,-0.058685000985860825,0.031536001712083817,-0.05438400059938431,0.05235699936747551,-0.10540100187063217,0.031160999089479446,0.15599200129508972,-0.050216998904943466,0.15983399748802185,0.0011020000092685223,-0.27392199635505676,0.05747599899768829,-0.2817550003528595,0.005491999909281731,-0.032659001648426056,-0.2736020088195801,0.13453799486160278,0.09624999761581421,-0.11368600279092789,-0.016586000099778175,-0.20413100719451904,0.27957600355148315,0.12846800684928894,-0.3940269947052002,-0.03248000144958496,0.02607700042426586,-0.11326900124549866,0.11562799662351608,-0.06312400102615356,0.14503200352191925,-0.12864600121974945,-0.13922500610351562,0.05621900036931038,-0.03789500147104263,0.004610000178217888,-0.0917150005698204,-0.059822000563144684,0.25517600774765015,0.049922000616788864,-0.1110130026936531,-0.09522499889135361,-0.03548099845647812,-0.010490000247955322,0.3312790095806122,-0.30452701449394226,6.70000008540228e-05,0.061361998319625854,-0.02877900004386902,0.05222000181674957,0.16242200136184692,-0.04928300157189369,-0.07095099985599518,0.1401520073413849,0.03421900048851967,-0.14319300651550293,-0.12592099606990814,-0.07418099790811539,-0.0106819998472929,-0.12662099301815033,0.04124400019645691,-0.18123100697994232,0.0929040014743805,0.12727299332618713,0.09411399811506271,0.018742000684142113,-0.090208999812603,-0.10776399821043015,-0.008771000429987907,-0.07131200283765793,-0.2451619952917099,-0.012984000146389008,-0.12195099890232086,-0.009832000359892845,-0.09416600316762924,-0.12894000113010406,-0.05065099895000458,-0.03332500159740448,-0.15037299692630768,-0.1577250063419342,-0.2603110074996948,0.11555100232362747,-0.10129199922084808,-0.07514599710702896,-0.17379100620746613,-0.16369999945163727,-0.15100499987602234,-0.0736669972538948,0.0786219984292984,-0.14202900230884552,-0.1547659933567047,0.044819001108407974,-0.14866599440574646,-0.02070399932563305,0.05134499818086624,-0.046300001442432404,-0.14992399513721466,-0.07917799800634384,0.1533139944076538,-0.2129569947719574,-0.14991499483585358,-0.38598498702049255,0.1337279975414276,-0.11735600233078003,0.15594199299812317,-0.36838498711586,0.1528329998254776,-0.010274999774992466,-0.2855919897556305,-0.1133119985461235,-0.12584300339221954,-0.17145299911499023,-0.052101001143455505,0.16103599965572357,-0.08751600235700607,-0.07343100011348724,-0.12336800247430801,-0.06196000054478645,0.059174999594688416,0.11517699807882309,-0.017246000468730927,0.025100000202655792,-0.030581999570131302,0.1074960008263588,0.059004999697208405,0.05446799844503403,-0.2423889935016632,-0.05840900167822838,-0.07662399858236313,0.08812499791383743,0.002742999931797385,-0.13413000106811523,