window.MNIST_MODEL = {"meta":{"dataset":"MNIST","trainSamples":60000,"testSamples":10000,"testAccuracy":0.977,"epochs":19,"architecture":[784,128,64,10],"lossCurve":[0.446089,0.174102,0.125389,0.095663,0.07649,0.061703,0.051035,0.042006,0.035155,0.031534,0.025558,0.020984,0.018488,0.013891,0.012817,0.010762,0.008268,0.007636,0.006199],"validationCurve":[0.937,0.956667,0.962667,0.965833,0.971833,0.972,0.972167,0.971667,0.973,0.9745,0.974667,0.975667,0.974167,0.976833,0.975,0.9765,0.976333,0.975333,0.975333],"parameterCount":109386},"layers":[{"input":784,"output":128,"weights":[-0.0,-0.0,0.0,0.0,-0.0,-0.0,0.0,-0.0,0.0,-0.0,0.0,0.0,0.0,0.0,0.0,0.0,-0.0,0.0,0.0,0.0,-0.0,-0.0,0.0,-0.0,-0.0,0.0,-0.0,-0.0,0.0,0.0,-0.0,0.0,0.0,0.0,0.0,0.0,-0.0,-0.0,0.0,-0.0,0.0,-0.0,-0.0,0.0,-0.0,-0.0,-0.0,-0.0,0.0,0.0,0.0,-0.0,-0.0,0.0,0.0,-0.0,-0.0,-0.0,-0.0,-0.0,0.0,0.0,-0.0,-0.0,0.0,0.0,-0.0,0.0,0.0,0.0,-0.0,-0.0,0.0,-0.0,-0.0,0.0,-0.0,0.0,-0.0,0.0,0.0,0.0,0.0,0.0,-0.0,-0.0,-0.0,-0.0,-0.0,-0.0,0.0,-0.0,-0.0,-0.0,-0.0,-0.0,-0.0,0.0,-0.0,0.0,-0.0,0.0,-0.0,-0.0,0.0,0.0,-0.0,-0.0,0.0,-0.0,0.0,-0.0,-0.0,-0.0,0.0,0.0,0.0,0.0,-0.0,0.0,-0.0,0.0,-0.0,0.0,0.0,0.0,-0.0,0.0,-0.0,-0.0,-0.0,0.0,0.0,0.0,-0.0,-0.0,-0.0,-0.0,-0.0,0.0,0.0,0.0,-0.0,0.0,0.0,-0.0,-0.0,0.0,0.0,0.0,0.0,0.0,-0.0,0.0,0.0,0.0,0.0,-0.0,0.0,-0.0,-0.0,0.0,0.0,0.0,-0.0,0.0,-0.0,0.0,-0.0,0.0,0.0,-0.0,-0.0,0.0,0.0,0.0,0.0,0.0,-0.0,-0.0,0.0,0.0,-0.0,-0.0,-0.0,-0.0,-0.0,-0.0,0.0,0.0,-0.0,0.0,-0.0,0.0,0.0,0.0,-0.0,0.0,-0.0,0.0,0.0,-0.0,-0.0,0.0,-0.0,-0.0,-0.0,-0.0,0.0,-0.0,0.0,0.0,-0.0,0.0,-0.0,0.0,-0.0,-0.0,-0.0,0.0,-0.0,-0.0,-0.0,-0.0,-0.0,0.0,0.0,0.0,-0.0,0.0,0.0,0.0,0.0,0.0,-0.0,-0.0,0.0,-0.0,0.0,0.0,-0.0,0.0,0.0,-0.0,-0.0,-0.0,0.0,0.0,0.0,0.0,0.0,0.0,0.0,-0.0,-0.0,-0.0,-0.0,0.0,-0.0,-0.0,-0.0,0.0,-0.0,-0.0,-0.0,0.0,-0.0,-0.0,0.0,0.0,-0.0,-0.0,-0.0,0.0,0.0,0.0,0.0,-0.0,-0.0,0.0,-0.0,0.0,-0.0,-0.0,0.0,-0.0,-0.0,0.0,-0.0,0.0,-0.0,-0.0,-0.0,0.0,0.0,-0.0,-0.0,-0.0,0.0,-0.0,0.0,0.0,0.0,-0.0,-0.0,0.0,-0.0,-0.0,0.0,0.0,0.0,0.0,-0.0,0.0,0.0,0.0,-0.0,0.0,-0.0,0.0,-0.0,-0.0,-0.0,-0.0,0.0,0.0,-0.0,-0.0,-0.0,0.0,-0.0,-0.0,-0.0,0.0,-0.0,-0.0,0.0,-0.0,-0.0,-0.0,0.0,-0.0,-0.0,0.0,-0.0,-0.0,-0.0,-0.0,-0.0,0.0,0.0,-0.0,-0.0,-0.0,0.0,0.0,-0.0,0.0,-0.0,0.0,-0.0,0.0,-0.0,0.0,-0.0,0.0,0.0,0.0,-0.0,0.0,-0.0,0.0,-0.0,0.0,0.0,-0.0,0.0,-0.0,-0.0,0.0,0.0,-0.0,0.0,-0.0,0.0,0.0,0.0,0.0,-0.0,-0.0,0.0,-0.0,-0.0,-0.0,0.0,-0.0,0.0,0.0,-0.0,-0.0,-0.0,0.0,0.0,-0.0,-0.0,0.0,-0.0,-0.0,0.0,-0.0,-0.0,-0.0,-0.0,0.0,0.0,0.0,0.0,-0.0,0.0,-0.0,0.0,0.0,-0.0,-0.0,0.0,0.0,-0.0,-0.0,0.0,0.0,-0.0,-0.0,-0.0,-0.0,0.0,-0.0,0.0,-0.0,-0.0,0.0,-0.0,0.0,-0.0,-0.0,-0.0,0.0,0.0,-0.0,-0.0,0.0,-0.0,-0.0,-0.0,0.0,0.0,-0.0,-0.0,-0.0,0.0,0.0,0.0,-0.0,-0.0,0.0,0.0,-0.0,0.0,-0.0,0.0,0.0,-0.0,0.0,-0.0,-0.0,0.0,0.0,0.0,-0.0,0.0,-0.0,0.0,0.0,-0.0,0.0,0.0,0.0,-0.0,0.0,-0.0,-0.0,-0.0,0.0,-0.0,0.0,-0.0,-0.0,0.0,0.0,0.0,0.0,-0.0,0.0,-0.0,-0.0,0.0,-0.0,-0.0,-0.0,0.0,-0.0,-0.0,-0.0,-0.0,-0.0,-0.0,-0.0,-0.0,-0.0,0.0,-0.0,0.0,-0.0,0.0,0.0,0.0,-0.0,-0.0,0.0,0.0,0.0,-0.0,-0.0,-0.0,-0.0,-0.0,-0.0,0.0,0.0,0.0,0.0,0.0,-0.0,0.0,-0.0,-0.0,-0.0,0.0,-0.0,-0.0,-0.0,-0.0,0.0,-0.0,-0.0,-0.0,-0.0,0.0,-0.0,-0.0,0.0,-0.0,-0.0,-0.0,-0.0,0.0,0.0,0.0,0.0,0.0,0.0,-0.0,0.0,0.0,0.0,0.0,-0.0,-0.0,-0.0,0.0,-0.0,-0.0,-0.0,-0.0,-0.0,0.0,0.0,0.0,0.0,0.0,-0.0,-0.0,0.0,0.0,0.0,0.0,-0.0,-0.0,-0.0,0.0,-0.0,-0.0,0.0,0.0,-0.0,0.0,-0.0,-0.0,-0.0,0.0,0.0,-0.0,0.0,0.0,0.0,-0.0,-0.0,0.0,0.0,-0.0,-0.0,0.0,-0.0,-0.0,0.0,-0.0,-0.0,-0.0,-0.0,-0.0,0.0,-0.0,0.0,0.0,0.0,0.0,0.0,0.0,0.0,-0.0,-0.0,-0.0,-0.0,-0.0,-0.0,0.0,-0.0,0.0,0.0,0.0,-0.0,-0.0,0.0,-0.0,0.0,0.0,0.0,0.0,0.0,0.0,-0.0,-0.0,0.0,-0.0,0.0,-0.0,-0.0,0.0,-0.0,0.0,0.0,-0.0,0.0,0.0,0.0,-0.0,0.0,0.0,-0.0,0.0,-0.0,-0.0,-0.0,0.0,-0.0,-0.0,-0.0,-0.0,-0.0,-0.0,0.0,-0.0,0.0,-0.0,0.0,0.0,0.0,0.0,0.0,-0.0,0.0,0.0,0.0,0.0,0.0,0.0,0.0,-0.0,-0.0,-0.0,0.0,-0.0,0.0,-0.0,-0.0,0.0,-0.0,0.0,0.0,0.0,0.0,-0.0,0.0,0.0,0.0,-0.0,0.0,-0.0,0.0,-0.0,-0.0,-0.0,-0.0,-0.0,-0.0,-0.0,-0.0,0.0,-0.0,0.0,-0.0,-0.0,0.0,-0.0,0.0,-0.0,0.0,0.0,0.0,0.0,0.0,0.0,-0.0,0.0,-0.0,-0.0,0.0,-0.0,0.0,0.0,0.0,-0.0,0.0,0.0,0.0,-0.0,-0.0,-0.0,-0.0,0.0,-0.0,0.0,0.0,0.0,0.0,0.0,-0.0,0.0,0.0,0.0,0.0,0.0,0.0,0.0,0.0,0.0,0.0,0.0,-0.0,-0.0,-0.0,-0.0,0.0,0.0,-0.0,0.0,-0.0,-0.0,-0.0,-0.0,-0.0,-0.0,-0.0,0.0,-0.0,-0.0,0.0,-0.0,-0.0,-0.0,0.0,0.0,0.0,0.0,-0.0,-0.0,-0.0,0.0,-0.0,0.0,-0.0,0.0,0.0,0.0,-0.0,0.0,-0.0,0.0,0.0,0.0,-0.0,0.0,-0.0,-0.0,0.0,-0.0,-0.0,0.0,0.0,0.0,0.0,-0.0,-0.0,-0.0,0.0,-0.0,-0.0,-0.0,-0.0,0.0,-0.0,0.0,-0.0,-0.0,0.0,-0.0,0.0,-0.0,-0.0,-0.0,0.0,-0.0,-0.0,0.0,0.0,-0.0,0.0,-0.0,0.0,0.0,-0.0,-0.0,0.0,0.0,-0.0,-0.0,-0.0,-0.0,-0.0,-0.0,0.0,-0.0,0.0,-0.0,-0.0,0.0,0.0,-0.0,0.0,-0.0,0.0,-0.0,-0.0,0.0,-0.0,-0.0,-0.0,0.0,0.0,-0.0,-0.0,-0.0,-0.0,0.0,0.0,-0.0,-0.0,-0.0,0.0,-0.0,-0.0,0.0,-0.0,0.0,-0.0,-0.0,0.0,0.0,-0.0,-0.0,-0.0,-0.0,0.0,0.0,0.0,0.0,-0.0,-0.0,0.0,0.0,-0.0,-0.0,0.0,0.0,0.0,-0.0,0.0,0.0,0.0,0.0,0.0,0.0,-0.0,-0.0,-0.0,-0.0,-0.0,-0.0,0.0,-0.0,0.0,0.0,0.0,0.0,0.0,-0.0,-0.0,0.0,-0.0,-0.0,0.0,0.0,-0.0,0.0,-0.0,0.0,-0.0,-0.0,0.0,-0.0,-0.0,-0.0,-0.0,0.0,-0.0,-0.0,-0.0,-0.0,0.0,-0.0,0.0,0.0,-0.0,-0.0,0.0,-0.0,-0.0,0.0,0.0,0.0,-0.0,0.0,0.0,0.0,0.0,-0.0,-0.0,-0.0,-0.0,-0.0,0.0,0.0,0.0,-0.0,0.0,0.0,-0.0,0.0,0.0,0.0,0.0,0.0,0.0,-0.0,-0.0,-0.0,-0.0,0.0,-0.0,-0.0,-0.0,-0.0,0.0,-0.0,0.0,-0.0,-0.0,0.0,0.0,-0.0,0.0,-0.0,-0.0,0.0,0.0,0.0,0.0,0.0,-0.0,0.0,-0.0,0.0,0.0,-0.0,0.0,-0.0,-0.0,0.0,-0.0,-0.0,0.0,-0.0,0.0,-0.0,0.0,-0.0,0.0,-0.0,-0.0,0.0,0.0,-0.0,0.0,-0.0,-0.0,-0.0,0.0,0.0,0.0,-0.0,0.0,0.0,0.0,-0.0,-0.0,0.0,0.0,0.0,0.0,-0.0,-0.0,0.0,-0.0,-0.0,-0.0,-0.0,-0.0,0.0,-0.0,0.0,-0.0,-0.0,-0.0,-0.0,-0.0,0.0,0.0,0.0,0.0,-0.0,0.0,0.0,0.0,-0.0,-0.0,-0.0,0.0,0.0,-0.0,0.0,-0.0,-0.0,0.0,0.0,0.0,0.0,0.0,-0.0,-0.0,-0.0,0.0,-0.0,0.0,0.0,-0.0,-0.0,-0.0,0.0,-0.0,-0.0,-0.0,-0.0,-0.0,0.0,-0.0,0.0,0.0,0.0,-0.0,0.0,0.0,-0.0,0.0,0.0,-0.0,-0.0,-0.0,0.0,-0.0,0.0,-0.0,-0.0,0.0,-0.0,0.0,-0.0,-0.0,-0.0,-0.0,-0.0,-0.0,-0.0,0.0,0.0,0.0,-0.0,-0.0,0.0,-0.0,-0.0,0.0,-0.0,0.0,0.0,-0.0,0.0,0.0,-0.0,0.0,-0.0,0.0,0.0,0.0,0.0,-0.0,-0.0,-0.0,0.0,0.0,0.0,-0.0,0.0,0.0,0.0,0.0,-0.0,-0.0,0.0,0.0,-0.0,0.0,-0.0,-0.0,0.0,-0.0,-0.0,-0.0,0.0,0.0,0.0,-0.0,-0.0,-0.0,-0.0,0.0,0.0,-0.0,0.0,0.0,-0.0,0.0,0.0,-0.0,0.0,-0.0,-0.0,0.0,0.0,0.0,0.0,-0.0,0.0,0.0,-0.0,-0.0,-0.0,-0.0,0.0,-0.0,0.0,0.0,-0.0,-0.0,-0.0,0.0,-0.0,0.0,0.0,-0.0,-0.0,-0.0,0.0,0.0,0.0,0.0,0.0,0.0,-0.0,0.0,0.0,0.0,-0.0,0.0,-0.0,-0.0,-0.0,0.0,0.0,0.0,0.0,0.0,0.0,0.0,0.0,-0.0,-0.0,-0.0,0.0,0.0,-0.0,-0.0,-0.0,-0.0,-0.0,-0.0,-0.0,-0.0,-0.0,0.0,-0.0,0.0,0.0,0.0,-0.0,0.0,0.0,-0.0,-0.0,-0.0,0.0,-0.0,-0.0,-0.0,-0.0,0.0,-0.0,-0.0,-0.0,0.0,0.0,-0.0,0.0,0.0,0.0,-0.0,-0.0,0.0,0.0,0.0,0.0,0.0,0.0,-0.0,-0.0,-0.0,0.0,0.0,0.0,0.0,-0.0,0.0,-0.0,-0.0,0.0,-0.0,0.0,-0.0,0.0,0.0,0.0,-0.0,-0.0,-0.0,-0.0,-0.0,0.0,-0.0,0.0,-0.0,0.0,-0.0,-0.0,0.0,0.0,-0.0,0.0,-0.0,0.0,-0.0,-0.0,0.0,0.0,-0.0,0.0,0.0,0.0,0.0,-0.0,0.0,0.0,0.0,0.0,0.0,-0.0,0.0,0.0,-0.0,0.0,-0.0,0.0,0.0,-0.0,0.0,0.0,-0.0,-0.0,-0.0,-0.0,0.0,0.0,-0.0,0.0,0.0,-0.0,-0.0,0.0,-0.0,0.0,0.0,-0.0,-0.0,-0.0,-0.0,-0.0,0.0,-0.0,-0.0,0.0,0.0,0.0,-0.0,-0.0,0.0,-0.0,0.0,0.0,-0.0,-0.0,0.0,-0.0,-0.0,0.0,-0.0,-0.0,-0.0,0.0,0.0,-0.0,-0.0,0.0,-0.0,-0.0,-0.0,-0.0,-0.0,-0.0,-0.0,-0.0,-0.0,-0.0,0.0,0.0,-0.0,0.0,0.0,-0.0,0.0,0.0,0.0,-0.0,0.0,-0.0,-0.0,-0.0,-0.0,-0.0,-0.0,0.0,0.0,-0.0,-0.0,0.0,-0.0,-0.0,-0.0,-0.0,0.0,0.0,-0.0,-0.0,0.0,-0.0,0.0,-0.0,-0.0,-0.0,-0.0,-0.0,-0.0,0.0,0.0,-0.0,0.0,0.0,-0.0,-0.0,-0.0,0.0,0.0,0.0,0.0,0.0,-0.0,0.0,0.0,-0.0,-0.0,0.0,-0.0,-0.0,0.0,0.0,0.0,-0.0,0.0,-0.0,-0.0,0.0,0.0,-0.0,-0.0,-0.0,-0.0,0.0,-0.0,-0.0,-0.0,-0.0,0.0,0.0,-0.0,0.0,-0.0,0.0,-0.0,-0.0,-0.0,0.0,-0.0,0.0,0.0,-0.0,-0.0,-0.0,0.0,-0.0,0.0,-0.0,-0.015823999419808388,0.0,0.00381799996830523,-0.0,-0.025471000000834465,-0.012651000171899796,-0.014485999941825867,0.04369200021028519,0.02862199954688549,0.051392000168561935,0.0037529999390244484,-0.03073200024664402,-0.0,0.0,-0.003278000047430396,-0.018271999433636665,0.00013299999409355223,-0.0,-0.03985999897122383,-0.008496000431478024,-0.005739999935030937,0.05578799918293953,0.07045099884271622,0.04830700159072876,0.0,0.04500899836421013,0.0,-0.01852099969983101,0.03487800061702728,0.03269900009036064,-0.023607999086380005,0.020549999549984932,-0.0,-0.0,7.000000096013537e-06,0.0,-0.014125999994575977,-0.056067001074552536,-0.009732999838888645,-0.01144499983638525,0.04813399910926819,0.021234000101685524,0.007689999882131815,-0.01846200041472912,-0.0022239999379962683,0.0,-1.9999999949504854e-06,0.0007919999770820141,-0.04428299888968468,0.0,-0.07829599827528,-0.036421999335289,-0.0,0.003272000001743436,-1.9999999949504854e-06,0.0,-0.0,-0.0,0.01603100076317787,-0.03942599892616272,0.0,0.02428399957716465,0.050335999578237534,-0.01961500011384487,-0.0087909996509552,-0.0013780000153928995,-0.01158900000154972,-0.04885900020599365,7.999999979801942e-06,0.0,0.06143999844789505,-0.013047000393271446,0.0054350001737475395,0.0036460000555962324,-0.0,0.0012049999786540866,-0.0022009999956935644,-0.010460999794304371,-0.0032530000898987055,0.03716300055384636,0.04831700026988983,0.04710499942302704,0.0,-0.0039090001955628395,-0.05554800108075142,0.006130000110715628,-0.0359870009124279,0.0,0.03583399951457977,-0.04137999936938286,0.0002460000105202198,-0.04268399998545647,-0.01030299998819828,-0.0,0.028511999174952507,0.0039059999398887157,0.0325389988720417,-0.0,-0.008252999745309353,-0.037029001861810684,0.0007479999912902713,0.0,0.04678399860858917,-0.0,-0.003766000038012862,0.004623999819159508,0.0,-0.015034999698400497,9.999999974752427e-07,-0.06424599885940552,0.03436199948191643,0.031759001314640045,0.001970000099390745,-0.015761999413371086,0.007922999560832977,-0.0,-0.02875399962067604,-0.051718998700380325,-0.0,-0.012209000065922737,0.022583000361919403,-0.014058999717235565,0.0,0.02947000041604042,0.03228899836540222,0.026626000180840492,0.01827700063586235,0.0,-0.017162000760436058,-0.0,0.04981999844312668,0.0,0.013957999646663666,-0.03771200031042099,-0.019551999866962433,0.0518219992518425,0.07810799777507782,0.05521799996495247,-0.014756999909877777,-0.04721499979496002,-3.5000000934815034e-05,0.0001829999964684248,-4.999999873689376e-06,-0.0304579995572567,0.021165000274777412,-0.0,-0.01842699944972992,-0.07598300278186798,0.048521000891923904,0.07671300321817398,0.015459000132977962,0.06173799932003021,0.0,0.05316900089383125,0.0,-0.07846000045537949,0.05896100029349327,0.036056999117136,-0.03182800114154816,0.013198000378906727,-0.0,0.0,0.0010710000060498714,0.0,-0.026802999898791313,-0.05091400071978569,-0.013040999881923199,-0.006010000128298998,0.031516000628471375,0.03987500071525574,0.006037000101059675,0.034651000052690506,0.026038000360131264,0.0,-0.0004250000056345016,-0.0046430001966655254,-0.01266700029373169,7.000000186963007e-05,-0.004089000169187784,-0.04576700180768967,0.0,0.04456700012087822,-0.00023200000578071922,0.0,0.0,0.0,-0.03861600160598755,0.006359000224620104,-0.0,0.03313300013542175,0.07495500147342682,0.03064800053834915,-0.007313000038266182,-0.0025500000920146704,-0.008383000269532204,0.005276000127196312,-0.0002579999854788184,0.0,0.0819929987192154,-0.007259000092744827,0.017215000465512276,0.0007029999978840351,-0.0,0.03374699875712395,-0.005272999871522188,0.026142999529838562,-0.01368200033903122,-0.016713999211788177,0.05548299849033356,0.049573998898267746,-0.0,0.034042999148368835,-0.05928700044751167,0.006479000207036734,-0.05943499878048897,-0.0,-0.018170999363064766,0.05649400129914284,0.02827399969100952,0.04326999932527542,-0.006169999949634075,-0.0,0.03391300141811371,-0.01744299940764904,0.04456600174307823,-0.0,0.022940000519156456,-0.07731799781322479,0.020100999623537064,0.0,-0.011188000440597534,1.4999999621068127e-05,-0.0567299984395504,-0.003510999958962202,0.0,0.04161100089550018,0.00014899999951012433,0.015448999591171741,0.024653000757098198,0.03508000075817108,0.007065999787300825,-0.013590999878942966,0.028700999915599823,-0.0,0.03805999830365181,-0.03299500048160553,-0.0,-0.013268999755382538,0.10496500134468079,-0.010962000116705894,-0.0,-0.0397149994969368,0.04624899849295616,-0.028380999341607094,0.023855000734329224,-0.0,-3.600000127335079e-05,-0.0,-0.0,-0.0,0.0,2.099999983329326e-05,0.0,-0.0,-0.0,0.00011899999663000926,0.0,0.0,-3.5000000934815034e-05,0.00021800000104121864,0.0,0.00011000000085914508,0.0005760000203736126,-0.0,5.8000001445179805e-05,0.0,-2.9999999242136255e-05,7.000000096013537e-06,0.00026500000967644155,0.0,0.0,0.00034100000630132854,0.0,0.00015999999595806003,0.0,-0.0,-9.000000318337698e-06,-6.70000008540228e-05,0.0,-0.0,0.0010920000495389104,0.0,-2.5999999706982635e-05,0.00016500000492669642,0.0,0.0,0.00010800000018207356,-9.999999974752427e-07,-0.0,8.199999865610152e-05,9.999999747378752e-05,0.0,-0.0004239999980200082,0.00021499999274965376,0.0,6.900000153109431e-05,0.0,0.0006600000197067857,0.0,5.400000009103678e-05,-0.00023200000578071922,0.0,0.0,0.0,3.999999989900971e-06,-1.9999999494757503e-05,0.0,-3.300000025774352e-05,-2.099999983329326e-05,1.5999999959603883e-05,0.0,-0.0004419999895617366,-1.5999999959603883e-05,4.199999966658652e-05,-0.0,0.0,5.199999941396527e-05,3.5000000934815034e-05,-0.0,9.999999974752427e-07,-0.0,0.0,-0.0,-2.8000000384054147e-05,5.0999999075429514e-05,5.900000178371556e-05,-0.000610999995842576,0.0,0.0,1.4000000192027073e-05,-0.0,0.0,-0.00020199999562464654,-0.0,-7.999999979801942e-06,0.0,-0.0,-3.400000059627928e-05,0.00014800000644754618,-0.0,-4.099999932805076e-05,4.600000102072954e-05,0.0,-0.0,-0.0,0.0,-0.00021899999410379678,0.0,-0.0,1.4999999621068127e-05,0.0005339999916031957,-0.00019099999917671084,0.0,3.199999991920777e-05,0.00014899999951012433,0.0,-9.999999747378752e-06,0.0,0.0,0.00022699999681208283,0.0002519999979995191,-0.0,0.0,1.8999999156221747e-05,-0.0,-7.200000254670158e-05,-0.0,-1.4999999621068127e-05,0.0,0.0,0.0,0.0,0.0,-0.0,-0.0,0.0,-0.0,0.0,-0.0,0.0,0.0,-0.0,-0.0,0.0,-0.0,0.0,-0.0,-0.0,-0.0,0.0,3.000000106112566e-06,0.0,0.0,0.0,-0.0,0.0,9.999999974752427e-07,0.0,0.0,9.999999974752427e-07,-0.0,9.999999974752427e-07,0.0,-0.0,-0.0,-0.0,0.0,0.0,6.000000212225132e-06,-0.0,-0.0,9.999999974752427e-07,0.0,0.0,0.0,0.0,0.0,0.0,0.0,-0.0,-1.9999999949504854e-06,9.999999974752427e-07,-0.0,9.999999974752427e-07,-0.0,3.000000106112566e-06,-0.0,0.0,-1.9999999949504854e-06,-0.0,0.0,-0.0,0.0,-0.0,-0.0,-0.0,-0.0,0.0,0.0,-1.9999999949504854e-06,-0.0,0.0,0.0,-0.0,0.0,0.0,-0.0,0.0,-0.0,0.0,0.0,-0.0,0.0,0.0,-3.000000106112566e-06,0.0,0.0,0.0,0.0,0.0,-9.999999974752427e-07,0.0,-0.0,-0.0,0.0,-0.0,9.999999974752427e-07,-0.0,-0.0,0.0,0.0,0.0,-0.0,-0.0,-9.999999974752427e-07,-0.0,0.0,0.0,3.000000106112566e-06,-9.999999974752427e-07,0.0,0.0,0.0,-0.0,0.0,-0.0,0.0,9.999999974752427e-07,9.999999974752427e-07,0.0,-0.0,0.0,-0.0,-0.0,-0.0,-0.0,0.0,0.0,-0.0,-0.0,-0.0,0.0,0.0,-0.0,0.0,-0.0,-0.0,0.0,-0.0,-0.0,-0.0,-0.0,0.0,0.0,-0.0,0.0,-0.0,-0.0,0.0,-0.0,-0.0,-0.0,0.0,-0.0,-0.0,-0.0,-0.0,-0.0,-0.0,0.0,-0.0,0.0,-0.0,-0.0,0.0,-0.0,0.0,0.0,-0.0,-0.0,-0.0,-0.0,-0.0,-0.0,0.0,-0.0,-0.0,0.0,0.0,0.0,0.0,0.0,0.0,-0.0,0.0,-0.0,0.0,0.0,-0.0,0.0,0.0,-0.0,0.0,-0.0,-0.0,0.0,0.0,-0.0,-0.0,0.0,-0.0,0.0,-0.0,0.0,0.0,0.0,-0.0,0.0,-0.0,0.0,-0.0,-0.0,0.0,-0.0,-0.0,-0.0,0.0,-0.0,-0.0,0.0,0.0,0.0,-0.0,-0.0,0.0,-0.0,-0.0,-0.0,-0.0,-0.0,-0.0,-0.0,0.0,-0.0,0.0,-0.0,-0.0,-0.0,0.0,-0.0,0.0,-0.0,-0.0,-0.0,0.0,-0.0,0.0,-0.0,0.0,0.0,0.0,0.0,-0.0,0.0,0.0,0.0,0.0,0.0,0.0,0.0,0.0,0.0,-0.0,-0.0,-0.0,-0.0,-0.0,-0.0,-0.0,-0.0,-0.0,0.0,0.0,0.0,0.0,-0.0,-0.0,0.0,0.0,-0.0,0.0,0.0,-0.0,0.0,0.0,-0.0,-0.0,0.0,-0.0,0.0,-0.0,0.0,0.0,-0.0,0.0,-0.0,0.0,-0.0,0.0,-0.0,0.0,-0.0,0.0,-0.0,0.0,-0.0,0.0,-0.0,-0.0,0.0,0.0,0.0,0.0,0.0,-0.0,0.0,0.0,-0.0,0.0,-0.0,0.0,0.0,0.0,0.0,-0.0,0.0,0.0,0.0,-0.0,0.0,0.0,0.0,0.0,-0.0,0.0,-0.0,-0.0,-0.0,-0.0,-0.0,0.0,-0.0,0.0,-0.0,0.0,-0.0,0.0,-0.0,0.0,0.0,-0.0,0.0,-0.0,-0.0,0.0,0.0,-0.0,-0.0,0.0,0.0,0.0,0.0,0.0,0.0,-0.0,-0.0,-0.0,-0.0,0.0,0.0,0.0,0.0,-0.0,0.0,0.0,-0.0,-0.0,0.0,-0.0,-0.0,-0.0,0.0,0.0,0.0,-0.0,-0.0,0.0,-0.0,-0.0,-0.0,-0.0,0.0,0.0,-0.0,-0.0,-0.0,-0.0,0.0,0.0,0.0,0.0,-0.0,-0.0,0.0,-0.0,-0.0,-0.0,-0.0,0.0,-0.0,0.0,0.0,-0.0,-0.0,0.0,-0.0,0.0,0.0,0.0,-0.0,-0.0,0.0,-0.0,-0.0,0.0,0.0,-0.0,-0.0,-0.0,0.0,0.0,-0.0,-0.0,0.0,0.0,-0.0,-0.0,-0.0,0.0,0.0,0.0,0.0,-0.0,-0.0,-0.0,0.0,0.0,0.0,-0.0,0.0,-0.0,0.0,-0.0,-0.0,0.0,0.0,0.0,0.0,0.0,-0.0,0.0,0.0,0.0,-0.0,-0.0,-0.0,0.0,-0.0,0.0,-0.0,0.0,-0.0,-0.0,-0.0,-0.0,0.0,0.0,-0.0,0.0,-0.0,-0.0,0.0,-0.0,0.0,0.0,-0.0,-0.0,0.0,-0.0,-0.0,-0.0,0.0,-0.0,0.0,-0.0,-0.0,-0.0,0.0,0.0,0.0,-0.0,-0.0,0.0,-0.0,-0.0,-0.0,-0.0,0.0,0.0,0.0,0.0,-0.0,-0.0,0.0,0.0,0.0,0.0,0.0,0.0,0.0,0.0,0.0,-0.0,-0.0,0.0,-0.0,0.0,0.0,0.0,-0.0,-0.0,0.0,0.0,-0.0,0.0,-0.0,0.0,0.0,-0.0,0.0,0.0,0.0,-0.0,0.0,-0.0,0.0,-0.0,0.0,-0.0,0.0,-0.0,-0.0,0.0,0.0,0.0,0.0,0.0,0.0,-0.0,0.0,0.0,0.0,0.0,0.0,-0.0,-0.0,-0.0,-0.0,0.0,-0.0,0.0,0.0,-0.0,0.0,-0.0,-0.0,0.0,0.0,0.0,0.0,-0.0,-0.0,-0.0,-0.0,-0.0,0.0,0.0,-0.0,-0.0,0.0,0.0,0.0,-0.0,0.0,-0.0,0.0,-0.0,0.0,-0.0,-0.0,0.0,0.0,0.0,0.0,0.0,0.0,-0.0,0.0,0.0,-0.0,0.0,-0.0,-0.0,0.0,-0.0,0.0,-0.0,0.0,0.0,0.0,-0.0,-0.0,-0.0,-0.0,-0.0,0.0,0.0,-0.0,-0.0,0.0,0.0,-0.0,0.0,0.0,0.0,-0.0,0.0,0.0,0.0,-0.0,0.0,-0.0,0.0,0.0,-0.0,0.0,0.0,0.0,0.0,0.0,0.0,0.0,-0.0,-0.0,0.0,-0.0,0.0,0.0,0.0,-0.0,-0.0,-0.0,-0.0,0.0,-0.0,0.0,0.0,0.0,0.0,0.0,0.0,0.0,-0.0,-0.0,0.0,-0.0,0.0,-0.0,-0.0,0.0,-0.0,0.0,0.0,0.0,0.0,0.0,-0.0,0.0,0.0,-0.0,0.0,-0.0,0.0,0.0,0.0,0.0,0.0,-0.0,-0.0,0.0,0.0,0.0,-0.0,0.0,-0.0,0.0,0.0,-0.0,0.0,-0.0,0.0,-0.0,0.0,0.0,-0.0,-0.0,-0.0,-0.0,-0.0,0.0,-0.0,-0.0,-0.0,0.0,-0.0,0.0,0.0,0.0,-0.0,0.0,0.0,0.0,0.0,-0.0,-0.0,-0.0,-0.0,-0.0,-0.0,0.0,0.0,0.0,-0.0,-0.0,-0.0,-0.0,0.0,-0.0,0.0,-0.0,-0.0,0.0,0.0,0.0,0.0,-0.0,-0.0,-0.0,0.0,-0.0,0.0,0.0,-0.0,-0.0,0.0,-0.0,-0.0,0.0,0.0,0.0,-0.0,0.0,-0.0,0.0,0.0,-0.0,-0.0,0.0,0.0,0.0,0.0,-0.0,-0.0,-0.0,0.0,0.0,-0.0,-0.0,0.0,0.0,-0.0,-0.0,0.0,-0.0,-0.0,0.0,-0.0,0.0,0.0,0.0,0.0,0.0,-0.0,0.0,0.0,0.0,-0.0,-0.0,0.0,0.0,0.0,0.0,0.0,-0.0,-0.0,0.0,0.0,-0.0,0.0,0.0,0.0,0.0,0.0,-0.0,0.0,-0.0,-0.0,0.0,0.0,0.0,-0.0,-0.0,0.0,0.0,0.0,0.0,0.0,-0.0,0.0,-0.0,-0.0,-0.0,0.0,-0.0,-0.0,0.0,0.0,0.0,0.0,0.0,0.0,0.0,0.0,-0.0,0.0,0.0,-0.0,0.0,0.0,-0.0,-0.0,0.0,-0.0,0.0,0.0,0.0,0.0,0.0,0.0,0.0,-0.0,-0.0,-0.0,-0.0,0.0,-0.0,-0.0,0.0,0.0,0.0,0.0,0.0,0.0,0.0,0.0,-0.0,0.0,-0.0,-0.0,-0.0,-0.0,0.0,-0.0,0.0,0.0,-0.0,-0.0,-0.0,-0.0,-0.0,-0.0,-0.0,-0.0,-0.0,0.0,0.0,0.0,-0.0,0.0,-0.0,-0.0,0.0,-0.0,-0.0,-0.0,0.0,0.0,0.0,-0.0,0.0,-0.0,-0.0,-0.0,0.0,-0.0,-0.0,-0.0,0.0,-0.0,0.0,0.0,-0.0,-0.0,-0.0,0.0,0.0,-0.0,-0.0,0.0,0.0,-0.0,-0.0,0.0,-0.0,0.0,-0.0,0.0,0.0,0.0,-0.0,-0.0,0.0,-0.0,0.0,-0.0,-0.0,-0.0,0.0,0.0,-0.0,-0.0,0.0,0.0,0.0,-0.0,-0.0,0.0,0.0,-0.0,0.0,-0.0,-0.0,0.0,-0.0,0.0,-0.0,-0.0,-0.0,-0.0,0.0,0.0,-0.0,-0.0,0.0,-0.0,0.0,-0.0,-0.0,0.0,0.0,0.0,-0.0,-0.0,0.0,0.0,0.0,0.0,0.0,-0.0,0.0,0.0,-0.0,0.0,-0.0,-0.0,-0.0,0.0,-0.0,0.0,0.0,0.0,-0.0,0.0,0.0,-0.0,0.0,0.0,-0.0,-0.0,0.0,0.0,-0.0,-0.0,-0.0,0.0,0.0,-0.0,-0.0,-0.0,0.0,-0.0,-0.0,-0.0,0.0,-0.0,-0.0,-0.0,-0.0,0.0,0.0,0.0,0.0,0.0,-0.0,0.0,0.0,-0.0,-0.0,-0.0,-0.0,-0.0,0.0,-0.0,-0.0,-0.0,0.0,0.0,-0.0,-0.0,0.0,-0.0,-0.0,0.0,0.0,0.0,-0.0,-0.0,0.0,0.0,0.0,0.0,-0.0,0.0,0.0,0.0,-0.0,0.0,0.0,-0.0,-0.0,-0.0,0.0,-0.0,0.0,0.0,0.0,0.0,-0.0,0.0,0.0,-0.0,0.0,-0.0,0.0,0.0,-0.0,-0.0,0.0,0.0,0.0,-0.0,0.0,0.0,0.0,0.0,0.0,0.0,0.0,-0.0,-0.0,0.0,0.0,0.0,-0.0,-0.0,-0.0,-0.0,-0.0,0.0,0.0,0.0,0.0,-0.0,0.0,0.0,0.0,0.0,0.0,-0.0,-0.0,0.0,0.0,-0.0,-0.0,0.0,-0.0,0.0,-0.0,0.0,-0.0,-0.0,0.0,-0.0,0.0,-0.0,0.0,0.0,-0.0,-0.0,-0.0,0.0,0.0,0.0,-0.0,0.0,-0.0,-0.0,0.0,-0.0,-0.0,-0.0,-0.0,-0.0,0.0,-0.0,-0.0,0.0,-0.0,0.0,-0.0,-0.0,0.0,0.0,-0.0,0.0,-0.0,0.0,0.0,0.0,-0.0,-0.0,-0.0,0.0,-0.0,-0.0,0.0,0.0,-0.0,0.0,-0.0,-0.0,0.0,-0.0,0.0,0.0,-0.0,-0.0,-0.0,-0.0,0.0,-0.0,0.0,-0.0,0.0,0.0,0.0,-0.0,0.0,-0.0,0.0,0.0,-0.0,0.0,0.0,-0.0,-0.0,0.0,-0.0,-0.0,0.0,0.0,-0.0,0.0,-0.0,-0.0,0.0,0.0,-0.0,-0.0,0.0,-0.0,-0.0,-0.0,0.0,0.0,-0.0,0.0,0.0,-0.0,-0.0,0.0,-0.0,0.0,0.0,0.0,0.0,0.0,0.0,0.0,-0.0,-0.0,-0.0,-0.0,-0.0,-0.0,-0.0,-0.0,0.0,0.0,-0.0,-0.0,-0.0,-0.0,0.0,0.0,-0.0,0.0,0.0,0.0,-0.0,-0.0,0.0,0.0,-0.0,0.0,0.0,-0.0,-0.0,0.0,-0.0,-0.0,-0.0,0.0,-0.0,0.0,-0.0,-0.0,0.0,0.0,0.0,0.0,0.0,0.0,-0.0,0.0,0.0,0.0,0.0,0.0,-0.0,0.0,-0.0,0.0,-0.0,-0.0,0.0,0.0,-0.0,-0.0,0.0,-0.0,-0.0,0.0,-0.0,-0.0,0.0,0.0,0.0,0.0,-0.0,0.0,-0.0,-0.0,-0.0,0.0,0.0,0.0,-0.0,-0.0,0.0,-0.0,-0.0,0.0,0.0,0.0,-0.0,0.0,0.0,-0.0,0.0,-0.0,0.0,0.0,-0.0,-0.0,-0.0,0.0,0.0,0.0,-0.0,-0.0,0.0,0.0,0.0,-0.0,-0.0,0.0,0.0,-0.0,0.0,0.0,0.0,0.0,-0.0,0.0,0.0,-0.0,-0.0,-0.0,0.0,0.0,0.0,-0.0,0.0,-0.0,0.0,0.0,0.0,0.0,-0.0,0.0,-0.0,-0.0,0.0,-0.0,-0.0,-0.0,-0.0,0.0,-0.0,0.0,-0.0,-0.0,0.0,-0.0,-0.0,-0.0,-0.0,-0.0,0.0,0.0,0.0,-0.0,0.0,0.0,-0.0,0.0,0.0,-0.0,-0.0,-0.0,-0.0,-0.0,0.0,0.0,-0.0,-0.0,-0.0,-0.0,0.0,-0.0,0.0,-0.0,-0.0,0.0,0.0,-0.0,-0.0,-0.0,0.0,-0.0,-0.0,0.0,-0.0,-0.0,0.0,-0.0,0.0,0.0,0.0,0.0,0.0,-0.0,0.0,0.0,0.0,-0.0,-0.0,0.0,-0.0,-0.0,0.0,0.0,-0.0,0.0,-0.0,-0.0,-0.0,-0.0,-0.0,0.0,-0.0,-0.0,-0.0,0.0,-0.0,0.0,-0.0,-0.0,0.0,-0.0,-0.0,0.0,-0.0,0.0,-0.0,-0.0,0.0,-0.0,-0.0,0.0,0.0,0.0,0.0,-0.0,-0.0,-0.0,-0.0,0.0,0.0,-0.0,0.0,-0.0,-0.0,0.0,-0.0,0.0,0.0,-0.0,-0.0,-0.0,0.0,-0.0,-0.0,0.0,-0.0,-0.0,0.0,0.0,-0.0,0.0,0.0,0.0,0.0,0.0,-0.0,0.0,-0.0,0.0,0.0,-0.0,-0.0,-0.0,0.0,0.0,-0.0,-0.0,-0.0,-0.0,0.0,-0.0,-0.0,0.0,-0.0,0.0,0.0,-0.0,-0.0,-0.0,0.0,0.0,0.0,-0.0,0.0,-0.0,0.0,0.0,-0.0,-0.0,-0.0,-0.0,0.0,-0.0,-0.0,-0.0,-0.0,-0.0,0.0,0.0,0.0,0.0,0.0,-0.0,-0.0,-0.0,0.0,-0.0,0.0,0.0,-0.0,-0.0,-0.0,-0.0,-0.0,-0.0,-0.0,-0.0,-0.0,-0.0,0.0,-0.0,-0.0,0.0,-0.0,0.0,-0.0,-0.0,-0.0,0.0,0.0,-0.0,0.0,0.0,-0.0,0.0,0.0,-0.0,0.0,-0.0,-0.0,0.0,0.0,-0.0,0.0,-0.0,-0.0,-0.0,-0.0,-0.0,0.0,-0.0,0.0,0.0,0.0,0.0,-0.0,0.0,0.0,0.0,-0.0,-0.0,0.0,0.0,-0.0,-0.0,-0.0,0.0,0.0,-0.0,0.0,0.0,0.0,-0.0,-0.0,-0.0,0.0,0.0,0.0,0.0,0.0,0.0,0.0,-0.0,-0.0,-0.0,0.0,-0.0,0.0,-0.0,0.0,-0.0,-0.0,0.0,-0.0,0.0,0.0,0.0,0.0,-0.0,-0.0,0.0,0.0,-0.0,-0.0,0.0,-0.0,0.0,0.0,-0.0,-0.0,-0.0,0.0,-0.0,-0.0,0.0,-0.0,0.0,0.0,0.0,0.0,-0.0,-0.0,-0.0,0.0,-0.0,0.0,-0.0,-0.0,0.0,-0.0,0.0,-0.0,0.0,-0.0,-0.0,-0.0,0.0,-0.0,-0.0,-0.0,0.0,0.0,0.0,0.0,-0.0,-0.0,-0.0,0.0,-0.0,0.0,-0.0,0.0,0.0,-0.0,-0.0,-0.0,0.0,-0.0,0.0,-0.0,-0.0,0.0,-0.0,0.0,0.0,-0.0,-0.0,-0.0,-0.0,0.0,0.0,0.0,-0.0,-0.0,-0.0,-0.0,-0.0,-0.0,-0.0,0.0,-0.0,-0.0,0.0,-0.0,0.0,0.0,-0.0,-0.0,0.0,0.0,-0.0,0.0,0.0,0.0,0.0,-0.0,0.0,-0.0,0.0,0.0,-0.0,0.0,0.0,-0.0,0.0,-0.0,0.0,0.0,-0.0,-0.0,0.0,0.0,-0.0,-0.0,0.0,-0.0,0.0,0.0,-0.0,0.0,-0.0,-0.0,-0.0,-0.0,0.0,-0.0,0.0,-0.0,-0.0,0.0,0.0,0.0,0.0,-0.0,-0.0,-0.0,0.0,0.0,-0.0,0.0,0.0,0.0,-0.0,0.0,0.0,-0.0,0.0,-0.0,-0.0,0.0,-0.0,-0.0,0.0,-0.0,0.0,0.0,0.0,0.0,-0.0,-0.0,-0.0,-0.0,0.0,0.0,-0.0,-0.0,0.0,-0.0,-0.0,-0.0,-0.0,-0.0,-0.0,0.0,0.0,-0.0,0.0,0.0,0.0,0.0,0.0,0.0,0.0,0.0,0.0,0.0,0.0,0.0,0.0,-0.0,0.0,-0.0,0.0,0.0,0.0,0.0,0.0,-0.0,-0.0,-0.0,-0.0,-0.0,0.0,-0.0,-0.0,-0.0,0.0,0.0,-0.0,0.0,-0.0,0.0,0.0,-0.0,0.0,0.0,0.0,-0.0,-0.0,0.0,-0.0,0.0,-0.0,0.0,-0.0,-0.0,0.0,-0.0,0.0,0.0,0.0,0.0,0.0,0.0,0.0,0.0,0.0,0.0,0.0,-0.0,-0.0,-0.0,0.0,0.0,-0.0,0.0,-0.0,-0.0,-0.0,-0.0,-0.0,0.0,0.0,-0.0,-0.0,-0.0,0.0,-0.0,0.0,-0.0,0.0,-0.0,0.0,0.0,-0.0,-0.0,-0.0,-0.0,-0.0,0.0,-0.0,-0.0,0.0,-0.0,0.0,-0.0,-0.0,-0.0,-0.0,-0.0,0.0,-0.0,0.0,-0.0,-0.0,-0.0,-0.0,0.0,-0.0,-0.0,0.0,-0.0,0.0,0.0,0.0,-0.0,-0.0,-0.0,-0.0,-0.0,-0.0,-0.0,0.0,-0.0,0.0,0.0,0.0,-0.0,-0.0,-0.0,0.0,0.0,0.0,-0.0,0.0,0.0,0.0,0.0,-0.0,-0.0,0.0,0.0,0.0,0.0,-0.0,0.0,0.0,0.0,0.0,-0.0,-0.0,-0.0,-0.0,-0.0,0.0,-0.0,-0.0,0.0,0.0,-0.0,0.0,0.0,0.0,0.0,-0.0,0.0,-0.0,0.0,-0.0,-0.0,-0.0,-0.0,0.0,-0.0,0.0,0.0,0.0,-0.0,0.0,-0.0,-0.0,-0.0,-0.0,-0.0,0.0,-0.0,0.0,-0.0,-0.0,-0.0,-0.0,-0.0,0.0,-0.0,0.0,0.0,0.0,0.0,-0.0,-0.0,-0.0,0.0,-0.0,0.0,0.0,-0.0,0.0,-0.0,0.0,-0.0,-0.0,0.0,-0.0,0.0,0.0,0.0,-0.0,0.0,0.0,-0.0,0.0,0.0,0.0,0.0,0.0,0.0,0.0,-0.0,-0.0,-0.0,0.0,0.0,-0.0,0.0,-0.0,-0.0,0.0,0.0,0.0,0.0,0.0,0.0,-0.0,-0.0,0.0,-0.0,-0.0,-0.0,-0.0,-0.0,-0.0,0.0,0.0,-0.0,0.0,-0.0,-0.0,0.0,-0.0,-0.0,0.0,0.0,0.0,-0.0,0.0,0.0,-0.0,0.0,-0.0,0.0,-0.0,0.0,-0.0,-0.0,-0.0,0.0,0.0,-0.0,0.0,-0.0,0.0,-0.0,0.0,-0.0,0.0,-0.0,0.0,-0.0,0.0,0.0,-0.0,0.0,-0.0,-0.0,0.0,-0.0,-0.0,-0.0,-0.0,-0.0,-0.0,-0.0,0.0,0.0,-0.0,-0.0,0.0,-0.0,-0.0,0.0,-0.0,0.0,0.0,-0.0,0.0,0.0,-0.0,0.0,0.0,0.0,0.0,0.0,0.0,0.0,0.0,0.0,-0.0,-0.0,0.0,0.0,-0.0,0.0,-0.0,0.0,0.0,0.0,-0.0,0.0,-0.0,-2.300000051036477e-05,-0.0004030000127386302,-0.001120000029914081,-0.0,0.0,-4.600000102072954e-05,0.0,0.0,-0.0,-0.0,0.0043310001492500305,-0.0,0.00152299995534122,0.00012099999730708078,-0.0,0.0,-0.005237999837845564,0.0,0.00025099999038502574,0.0,-0.0,-6.0999998822808266e-05,-0.0010740000288933516,0.009677999652922153,-0.0008699999889358878,-7.000000096013537e-06,0.0,-0.0,0.005929999984800816,-0.0,0.0,0.01396199967712164,-9.999999974752427e-07,0.0,0.0,-0.0,1.700000029813964e-05,-0.0,1.700000029813964e-05,0.0,-0.0,-0.0026660000439733267,0.00019099999917671084,-0.0,-9.200000204145908e-05,-0.0,-0.005371000152081251,0.0,0.0021269998978823423,-0.0,-0.0,-0.0,1.1000000085914508e-05,0.0,-0.0038129999302327633,0.0,-0.0,-0.0015460000140592456,-0.0,-0.0,-5.400000009103678e-05,9.999999974752427e-07,0.0076790000312030315,0.0006820000126026571,1.4999999621068127e-05,-0.0001740000006975606,-0.0,-0.0,0.0,0.0,0.0,-0.010490000247955322,-0.0,-0.0,-0.0017969999462366104,0.004292000085115433,-9.999999747378752e-06,-0.0,-0.0,0.0,-0.0,-0.0,-0.002265000017359853,-0.0,-5.700000110664405e-05,-0.0,3.000000106112566e-06,-0.0,0.0,0.0006939999875612557,0.0,-0.0,0.0026370000559836626,0.0033760000951588154,0.0004299999854993075,0.0037620000075548887,0.0,-9.999999974752427e-07,-0.0,0.0,-0.0,-0.004887999966740608,0.0,-0.0,0.0011080000549554825,0.0,-0.0,0.0,0.0,-0.0,0.0004670000053010881,0.00024900000425986946,-1.9999999949504854e-06,-0.00035799999022856355,-7.000000096013537e-06,0.00014899999951012433,0.0,0.0,0.000901999999769032,0.002853000070899725,-0.0,0.0006079999729990959,0.0001289999927394092,-0.00021499999274965376,-0.00088900001719594,-0.0,0.0063749998807907104,-0.0,0.00133200001437217,0.0038870000280439854,-0.007658999878913164,-0.0,-0.0,-0.007205000147223473,0.0008089999901130795,-0.0,-0.0,0.0,-0.02410300076007843,-0.0,-0.01697699911892414,0.009448999539017677,-0.0,-0.0,0.008639000356197357,3.000000106112566e-06,0.009499000385403633,0.0,-1.9999999949504854e-06,0.014039999805390835,-0.008289000019431114,-0.03136400133371353,0.006572999991476536,0.010878000408411026,3.999999989900971e-06,-0.0,-0.017868999391794205,-0.0,1.4999999621068127e-05,0.017777999863028526,0.0024240000639110804,-0.0,0.0,0.0,-0.0050570000894367695,0.0008079999824985862,-0.0026310000102967024,-0.0,-0.0,-0.00015100000018719584,0.004761999938637018,-0.0,0.009620999917387962,0.0,0.007224999833852053,-0.0,-0.018262000754475594,0.0,0.0,-0.0,-0.0006370000191964209,0.0,-0.024109000340104103,0.0,-0.0,0.018866000697016716,-9.999999974752427e-07,-0.00024900000425986946,-0.00032900000223889947,0.00016199999663513154,0.029160000383853912,0.0058479998260736465,-0.0021470000501722097,0.005164999980479479,-1.9999999949504854e-06,0.0,3.9999998989515007e-05,0.0,0.0,-0.01372699998319149,-0.0,-0.0,-0.0015010000206530094,0.007296999916434288,-0.006837999913841486,3.999999989900971e-06,1.700000029813964e-05,0.0,0.00021300000662449747,-0.0,0.0019039999460801482,0.0,0.005735000129789114,-0.0,-0.0015079999575391412,-7.999999979801942e-06,-0.0,0.018310999497771263,0.0,0.0,0.012978999875485897,-0.038888998329639435,-0.004284000024199486,0.0038499999791383743,0.0003760000108741224,-1.700000029813964e-05,-0.0,-0.0,-0.0,0.04216400161385536,-0.0,0.0,-0.018682999536395073,3.899999865097925e-05,-1.1000000085914508e-05,0.0,0.0,-0.0,-0.00897200033068657,-0.0170889999717474,0.0007350000087171793,0.011109000071883202,-0.0003279999946244061,-0.007108999881893396,-0.0,0.0,0.01640399917960167,0.01772800087928772,-0.0,-0.006523000076413155,0.0063240001909434795,0.0023529999889433384,0.018744999542832375,0.0,0.01828099973499775,0.0,-0.0033209999091923237,0.002389000030234456,0.0,-0.005439000204205513,-0.0,-0.02112800069153309,-0.012551999650895596,0.045823998749256134,-0.06211499869823456,0.0632610023021698,0.06238299980759621,-0.0,0.004656999837607145,-0.01440299954265356,-0.06049500033259392,-0.013492999598383904,-0.03713199868798256,0.011079000309109688,-0.04114000126719475,-0.002452000044286251,-0.10385899990797043,0.001576000009663403,0.02832699939608574,0.03960699960589409,0.024229999631643295,0.0,-0.002053000032901764,0.0,-0.11174499988555908,-0.0026360000483691692,0.0821710005402565,0.04576199874281883,-0.006984999869018793,0.0006409999914467335,0.0038389998953789473,-0.05292399972677231,-0.04833199828863144,-0.05480099841952324,-0.03474599868059158,-0.015569999814033508,0.0,-0.005413000006228685,0.05250599980354309,0.020173000171780586,0.002193999942392111,-0.011978000402450562,-0.044238001108169556,-0.10322999954223633,-0.03423900157213211,-3.000000106112566e-06,3.300000025774352e-05,-0.03251099959015846,9.999999974752427e-07,-0.0,0.04776899889111519,-0.0,-2.099999983329326e-05,0.002788000041618943,-0.0,-0.041297998279333115,-0.03549699857831001,-0.021150000393390656,0.008942999877035618,0.0013490000274032354,-0.014631999656558037,-0.018252000212669373,-0.04660400003194809,-0.07285100221633911,-0.059714000672101974,0.0,-1.2000000424450263e-05,0.06266500055789948,-0.0,0.0005230000242590904,-0.020898999646306038,-0.0,-0.0,-0.0052109998650848866,0.05694599822163582,-0.0032949999440461397,-0.027515999972820282,-0.0020290000829845667,-0.04165500029921532,-0.006730999797582626,-0.020999999716877937,0.0048489999026060104,0.012559999711811543,-0.084818996489048,-0.09326399862766266,0.05157100036740303,-0.02632099948823452,-0.0,-0.040970999747514725,0.001044000033289194,-0.01461699977517128,0.06608500331640244,0.0022169998846948147,0.0,0.0,-0.007507000118494034,-0.00981099996715784,0.03819999843835831,-0.0,-0.058816999197006226,0.020627999678254128,0.010723000392317772,-0.051688000559806824,-0.0,0.0005840000230818987,0.034890998154878616,0.040876999497413635,-0.017464999109506607,0.03266499936580658,0.010218000039458275,0.04504799842834473,-0.03259599953889847,-0.0,0.05813400074839592,0.021723000332713127,0.018789999186992645,-0.0209989994764328,0.0744599997997284,-0.03883900120854378,-0.0005099999834783375,0.012063000351190567,0.0008629999938420951,0.014321000315248966,-0.0351950004696846,-0.03124300017952919,-0.06643799692392349,-0.0,-0.01787400059401989,-0.0,-0.017162999138236046,-0.08746100217103958,0.05620599910616875,-0.038141001015901566,0.07609499990940094,-0.0030610000248998404,0.0021750000305473804,0.057027000933885574,-0.006533999927341938,0.02143000066280365,-0.020685000345110893,-0.014654000289738178,0.0215659998357296,-0.04185999929904938,-0.00024199999461416155,-0.05627499893307686,0.01974399946630001,0.0055229999125003815,-0.024260999634861946,0.04612400010228157,-6.299999949987978e-05,0.08528199791908264,-3.7000001611886546e-05,-0.046838998794555664,-0.004557999782264233,0.05826300010085106,0.03900900110602379,-0.04465499892830849,0.0021039999555796385,0.011486999690532684,-0.01585499942302704,-0.004647000227123499,0.027142999693751335,-0.054767001420259476,-0.0790880024433136,0.0,0.07529900223016739,0.05233500152826309,-0.015607999637722969,0.0778689980506897,0.0020830000285059214,0.02583399973809719,-0.005514000076800585,0.01749500073492527,-0.003029000014066696,0.0005489999894052744,-0.04503700137138367,-0.0009800000116229057,-0.0,0.0007440000190399587,-1.8000000636675395e-05,0.0015490000369027257,0.013073000125586987,-4.999999873689376e-06,-0.044516000896692276,-0.11273500323295593,-0.04554999992251396,-0.015297999605536461,-0.02312600053846836,-0.024983000010252,0.07252000272274017,-0.09708999842405319,-0.021112000569701195,-0.014108000323176384,0.0,0.008977999910712242,-0.0361500009894371,-0.0008069999748840928,0.0006380000268109143,0.00686699990183115,0.005297000054270029,0.0,-0.011578000150620937,0.10102900117635727,0.018185999244451523,-0.0045779999345541,-0.004219000227749348,0.06839600205421448,-0.02655399963259697,-0.051017001271247864,0.01706700026988983,-0.02699499949812889,-0.09956800192594528,-0.10500200092792511,0.06516499817371368,-0.0006960000027902424,9.999999747378752e-06,-0.0720210000872612,0.0021909999195486307,0.01574300043284893,0.005859000142663717,0.010262000374495983,-0.0008709999965503812,-0.00014899999951012433,-0.00015500000154133886,-0.0037330000195652246,-0.008551999926567078,0.0009430000209249556,0.011276000179350376,0.030734000727534294,0.08692900091409683,-0.06676899641752243,-0.003777999896556139,0.0357309989631176,0.062438998371362686,-0.008808000013232231,-0.00829199980944395,0.042750999331474304,0.01760599948465824,0.08192399889230728,0.030236000195145607,6.600000051548705e-05,0.006821000017225742,-0.029805999249219894,0.018950000405311584,-0.044484999030828476,0.1065019965171814,-0.024150000885128975,-0.012078000232577324,0.06089400127530098,0.027293000370264053,0.04855399951338768,-0.06331200152635574,0.09121199697256088,-0.0585779994726181,0.0,-0.0768129974603653,0.0,-0.08821099996566772,-0.06876499950885773,0.04474100098013878,0.015163999982178211,0.09434500336647034,0.005799000151455402,0.04843100160360336,0.0848810002207756,0.01233300007879734,-0.057328000664711,-0.0002680000034160912,0.04186699911952019,0.07163500040769577,-0.05183300003409386,0.005960999988019466,-0.02198600023984909,0.026731999590992928,-0.020872000604867935,0.008129999972879887,0.08107200264930725,0.036816999316215515,-0.017434999346733093,0.03016499988734722,-0.07282000035047531,-0.0014130000490695238,0.06365399807691574,0.09306400269269943,0.02976899966597557,-4.999999873689376e-05,0.05472699925303459,-0.04510600119829178,0.012346000410616398,0.009875000454485416,0.009670999832451344,-0.057489000260829926,0.0,-0.004954000003635883,-0.05241699889302254,0.001800999976694584,0.030426999554038048,0.04826100170612335,-0.024362999945878983,-0.08965799957513809,0.054809000343084335,-0.009569999761879444,-0.02848999947309494,0.0063669998198747635,0.0036879999097436666,-0.0,-0.04026700183749199,-0.007141999900341034,0.06442499905824661,0.025388000532984734,-0.0,0.04011400043964386,-0.019509000703692436,-0.001554999966174364,0.01858600042760372,0.05159800127148628,0.020709000527858734,-0.01961500011384487,-0.030138999223709106,0.019984999671578407,-0.08228299766778946,0.0,-0.009259999729692936,0.05469999834895134,-0.031888000667095184,0.000371000001905486,0.06724400073289871,-0.008162000216543674,0.021345000714063644,-0.017808999866247177,-0.008342999964952469,-0.07201500236988068,-0.008604000322520733,0.06797400116920471,0.01232099998742342,-6.000000212225132e-06,-0.0491890013217926,-0.024413999170064926,-0.014032999984920025,0.034556999802589417,-0.0977260023355484,0.032600000500679016,-0.055987000465393066,0.000686999992467463,-0.07354599982500076,-0.07284300029277802,0.009304000064730644,0.049199000000953674,0.0006639999919570982,-0.002044999971985817,0.01039899978786707,-0.047947000712156296,0.016130000352859497,0.0332770012319088,0.0019660000689327717,-0.029968999326229095,-0.019618000835180283,0.051270000636577606,-0.028425000607967377,-0.05173699930310249,0.0483580008149147,0.07722800225019455,-0.030863000079989433,0.10662399977445602,0.010935000143945217,-0.03688599914312363,0.018876999616622925,0.008112000301480293,-0.023437999188899994,-0.04746999964118004,0.039524998515844345,0.05706699937582016,0.002483000047504902,-0.019541999325156212,-0.08537399768829346,-0.050560999661684036,0.05961500108242035,0.07415299862623215,-0.0007489999989047647,-0.06781599670648575,0.01753300055861473,-0.05088900029659271,-0.008070000447332859,0.005377000197768211,-0.0,-0.05962099879980087,-0.07418099790811539,0.0067969998344779015,-0.03803500160574913,0.00012399999832268804,-0.02245200052857399,-0.06482099741697311,0.011664999648928642,0.02222600020468235,-0.025848999619483948,-0.028342999517917633,0.007278000004589558,0.05660799890756607,0.030577000230550766,0.04814999923110008,-0.09377799928188324,0.0473719984292984,0.018350999802350998,0.10635100305080414,0.026295000687241554,0.04944299906492233,0.05987999960780144,-0.027108000591397285,-0.024653000757098198,0.0014609999489039183,0.07714399695396423,-0.02945300005376339,0.027053000405430794,-0.008024999871850014,-0.018377000465989113,-0.011246999725699425,-0.04884999990463257,0.018719999119639397,-0.03099600039422512,-0.011578000150620937,0.0,0.002759000053629279,-0.01868399977684021,-0.05560600012540817,-0.03245700150728226,-0.042938001453876495,-0.005171999800950289,-0.05487300083041191,-0.011688999831676483,-0.02724899910390377,0.04554799944162369,0.032784998416900635,-0.00547999981790781,0.0,-0.08085200190544128,0.008621999993920326,-0.04391299933195114,-0.01296200044453144,0.0,-0.017844000831246376,-0.08408600091934204,0.007571000140160322,-0.03296000137925148,0.032134998589754105,-0.04367399960756302,-0.050276998430490494,0.023141000419855118,-0.06701800227165222,0.04440100118517876,0.0,-0.056481000036001205,0.0954269990324974,-0.042139001190662384,1.700000029813964e-05,-0.027979999780654907,0.061507001519203186,-0.07335600256919861,-0.0020169999916106462,0.06765999644994736,0.05279700085520744,0.058173999190330505,0.058416999876499176,0.07991699874401093,-0.0,-0.0484750010073185,-0.045278001576662064,-0.02286200039088726,-0.0285279992967844,-0.03428800031542778,-0.0246799997985363,0.019224999472498894,-0.021880999207496643,-0.052067000418901443,-0.014094999991357327,0.031415000557899475,0.05990400165319443,0.01757900044322014,-0.04879499971866608,0.0021510000806301832,-0.030162999406456947,-0.03374600037932396,0.0042489999905228615,-0.011583000421524048,-0.04695599898695946,0.053199999034404755,0.05399100109934807,-0.02698799967765808,-0.06874100118875504,-0.003949999809265137,-0.0016169999726116657,0.05350299924612045,-0.018456999212503433,0.06058400124311447,-0.012040000408887863,0.08581800013780594,-0.0009850000496953726,0.02048799954354763,-0.006176999770104885,0.0005619999719783664,-0.03276599943637848,-0.04382900148630142,0.08013000339269638,0.04219299927353859,0.03973200172185898,0.03722500056028366,0.0509830005466938,-0.07345200330018997,-0.04298499971628189,-0.01781800016760826,-0.013712000101804733,-0.0415630005300045,-0.045607998967170715,-0.0,-0.03613400086760521,-0.04297799989581108,-0.006111000198870897,-0.031199000775814056,0.02575100027024746,0.010355999693274498,0.031268998980522156,0.04966700077056885,0.013364999555051327,-0.015088999643921852,0.015154000371694565,-0.06808300316333771,0.041409000754356384,0.032253000885248184,-0.041972000151872635,-0.08889199793338776,0.053922999650239944,0.008112000301480293,0.06666900217533112,-0.040738001465797424,0.002759000053629279,0.015097999945282936,-0.07367700338363647,-0.04475900158286095,-0.0203699991106987,0.04569900035858154,-0.017138000577688217,-0.0142639996483922,-0.02448200061917305,-0.07397399842739105,0.06692399829626083,-0.07719600200653076,-0.041145000606775284,-0.06347300112247467,-0.12104599922895432,-0.0,0.0184749998152256,0.0710579976439476,-0.06707800179719925,0.07378099858760834,0.019213000312447548,0.043533001095056534,-0.02857399918138981,0.011811000294983387,-0.07155299931764603,0.012509999796748161,-0.007584000006318092,-0.036649998277425766,-0.0,0.009421999566257,-0.03767399862408638,0.07097899913787842,0.06418900191783905,-0.0,0.047947999089956284,-0.09967400133609772,-0.05522900074720383,0.02130899950861931,-0.013656999915838242,0.03209900110960007,0.06271400302648544,-0.01645199954509735,-0.03893499821424484,0.06409300118684769,-0.004108000081032515,-0.013938999734818935,0.01838899962604046,0.04910900071263313,-0.0,0.06206199899315834,0.04781800135970116,-0.035176001489162445,-0.007927999831736088,0.09546899795532227,-0.018672000616788864,0.03894200176000595,0.09433300048112869,0.06082399934530258,1.9999999949504854e-06,0.014221999794244766,0.01688000001013279,-0.019812999293208122,-0.09079399704933167,-0.03541199862957001,0.062157001346349716,-0.013507000170648098,0.0033229999244213104,-0.05087500065565109,0.007178999949246645,-0.05009299889206886,0.07488799840211868,0.009754999540746212,-0.055383000522851944,-0.021314000710844994,0.0756400004029274,-0.028272999450564384,-0.010324999690055847,0.009283999912440777,0.013000000268220901,0.03966600075364113,-0.02280299924314022,-0.019558999687433243,0.04400999844074249,0.0317390002310276,0.0002849999873433262,-0.045010000467300415,0.025932999327778816,-0.024181000888347626,-0.029749000445008278,-0.018449999392032623,-0.04582500085234642,0.06463000178337097,-0.015262999571859837,-0.009455000050365925,0.050599999725818634,0.0014769999543204904,-0.016628999263048172,0.011687000282108784,0.00813599955290556,0.061069000512361526,0.058083001524209976,0.06455700099468231,-0.009217999875545502,0.00684700021520257,-0.024528000503778458,-0.09611999988555908,0.023798000067472458,0.0,-0.08209100365638733,0.03150299936532974,-0.0328189991414547,-0.009692000225186348,0.037932999432086945,0.09785299748182297,-0.03978399932384491,0.09862399846315384,-0.0456169992685318,0.05539799854159355,0.018845999613404274,-0.08345700055360794,0.01741199940443039,-0.05738599970936775,0.029675999656319618,-0.036531001329422,0.014472000300884247,-0.0276040006428957,0.0003600000054575503,-0.046229999512434006,-0.038950998336076736,0.05615900084376335,0.020910000428557396,-0.022847000509500504,-0.007904999889433384,0.13909199833869934,0.09142299741506577,0.0516510009765625,-0.037154000252485275,-0.08847100287675858,-0.056609999388456345,0.05475199967622757,-0.07169300317764282,-0.03400300070643425,-0.1734369993209839,-0.0,0.0814569965004921,-0.044853001832962036,-0.03484499827027321,0.03795500099658966,0.08768299967050552,0.03787900134921074,0.06162400171160698,0.035436000674963,-0.020479999482631683,0.011423000134527683,-0.04424399882555008,0.03687699884176254,0.0,-0.028133999556303024,-0.011669999919831753,-0.007464999798685312,0.047242000699043274,0.007036000024527311,0.010672999545931816,-0.10655900090932846,-0.0942469984292984,-0.0021559998858720064,0.04647200182080269,0.005150999873876572,-0.021243000403046608,0.024473000317811966,-0.05166099965572357,0.04903100058436394,0.054999999701976776,-0.031842999160289764,0.004772999789565802,0.09238000214099884,-0.0,0.03441699966788292,0.010770999826490879,0.03732699900865555,-0.0291569996625185,0.07599300146102905,0.048381999135017395,-0.03135799989104271,-0.004778000060468912,0.10439500212669373,-0.001075000036507845,0.004044000059366226,-0.06435299664735794,0.014724000357091427,-0.008984999731183052,-0.06335599720478058,-0.02213600091636181,0.022789999842643738,-0.055045001208782196,-0.0774490013718605,-0.016395999118685722,0.05113400146365166,-0.01899700053036213,0.038401998579502106,-0.06028499826788902,-0.03316500037908554,-0.017203999683260918,0.024653000757098198,-0.029203999787569046,-0.09001299738883972,-0.03928900137543678,0.06519199907779694,-0.03804299980401993,-0.010089999996125698,-0.1006150022149086,0.038127001374959946,-0.038203999400138855,-0.00903099961578846,-0.012505000457167625,0.009274999611079693,-0.023649999871850014,0.041457001119852066,-0.030981000512838364,0.05647600069642067,0.03903999924659729,0.05245399847626686,0.06782600283622742,-0.023013999685645103,0.06662800163030624,-0.069302998483181,0.018884999677538872,0.02394000068306923,0.06126299872994423,0.024396000429987907,-0.050005000084638596,0.018856000155210495,-0.039386000484228134,-0.12331700325012207,-0.039129000157117844,0.0,-0.04823099821805954,-0.04807500168681145,0.07179900258779526,-0.00967899989336729,0.10059099644422531,0.07645200192928314,0.025950999930500984,-0.004191000014543533,-0.07218199968338013,0.011890999972820282,-0.05496300011873245,-0.025203999131917953,0.009844000451266766,0.018464000895619392,0.037151999771595,-0.05554300174117088,-0.036309998482465744,0.060440000146627426,0.1194240003824234,0.06278599798679352,0.039055999368429184,0.11092899739742279,0.021656999364495277,-0.06933200359344482,-0.010463999584317207,0.09180700033903122,0.034728001803159714,0.04621199890971184,-0.04514399915933609,0.02112399972975254,-0.05330599844455719,-0.025496000424027443,-0.015070999972522259,-0.05303499847650528,-0.16273100674152374,0.00342700001783669,0.033610999584198,0.002068999921903014,-0.035151999443769455,-0.011095000430941582,0.08134999871253967,-0.04718400165438652,-0.057735998183488846,-0.060899000614881516,0.002733000088483095,0.07919300347566605,-0.0706930011510849,-0.07036200165748596,-0.0,-0.058010999113321304,0.011862000450491905,0.02841399982571602,0.030369000509381294,0.0010979999788105488,0.041561998426914215,-0.09849999845027924,-0.023080000653862953,-0.02783999964594841,0.09231399744749069,0.01558000035583973,0.06526599824428558,0.009296000003814697,-0.07157599925994873,0.03739500045776367,-0.015650000423192978,-0.07727500051259995,0.07894500344991684,0.08853299915790558,-0.0447859987616539,-0.021018000319600105,0.08596500009298325,-0.0045449999161064625,-0.09947100281715393,0.08049800246953964,-0.028814999386668205,-0.07175099849700928,0.14818300306797028,0.07936599850654602,0.025777999311685562,0.07086899876594543,-0.07557299733161926,0.05859699845314026,-0.04590199887752533,-0.19791699945926666,0.002305000089108944,0.046362001448869705,-0.0935640037059784,-0.07943200320005417,0.022742999717593193,-0.0036269999109208584,0.09835100173950195,0.010348999872803688,-0.008894000202417374,-0.07041499763727188,-0.042757000774145126,-0.08250600099563599,0.04232199862599373,-0.047401998192071915,-0.053227998316287994,-0.0006520000169984996,-0.08950299769639969,0.012625999748706818,-0.00773700000718236,-0.0006810000049881637,-0.00860000029206276,-0.016947999596595764,0.017945999279618263,0.09568600356578827,0.01699800044298172,0.0900769978761673,-0.041829001158475876,0.07333499938249588,0.009091000072658062,-0.09522800147533417,0.00888499990105629,-0.039723001420497894,0.06682199984788895,-0.06035299971699715,0.06070899963378906,0.09941600263118744,0.08724100142717361,0.023893000558018684,0.00940299965441227,0.027211999520659447,-0.11401499807834625,-0.050266001373529434,-0.003971000202000141,0.0,-0.18514800071716309,-0.03474399819970131,0.18877500295639038,-0.03209000080823898,0.0519770011305809,0.05346199870109558,0.14924700558185577,0.014950999990105629,0.059985000640153885,-0.04255799949169159,-0.09162700176239014,0.02324100024998188,0.06667699664831161,-0.035663001239299774,-0.038364000618457794,-0.005280000157654285,-0.01658800058066845,0.030666999518871307,0.022919999435544014,0.08674699813127518,0.02441300079226494,0.10084500163793564,-0.040437001734972,-0.1878879964351654,-0.020274000242352486,0.2811889946460724,0.07091999799013138,0.12356399744749069,-0.11455299705266953,-0.04341600090265274,0.012567000463604927,-0.002966000000014901,-0.06389100104570389,-0.04015199840068817,-0.25141000747680664,-0.017893999814987183,0.17071300745010376,0.03852900117635727,-0.14292100071907043,0.0011690000537782907,-0.04712300002574921,0.01718599908053875,-0.08505599945783615,-0.04196399822831154,-0.0230919998139143,0.15827399492263794,-0.20311099290847778,-0.03770200163125992,-0.0,-0.025366000831127167,0.004023000132292509,0.008129999972879887,0.15607799589633942,0.012133999727666378,-0.001104000024497509,-0.03506400063633919,-0.01619900017976761,0.03264100104570389,0.055507998913526535,-0.021981000900268555,0.06937599927186966,-0.02806999906897545,-0.1143919974565506,-0.06706800311803818,0.002515000058338046,-0.0759119987487793,0.08099699765443802,-0.0018129999516531825,-0.03542599827051163,0.011624000035226345,0.086046002805233,-0.09921400249004364,-0.04114599898457527,0.034584999084472656,-0.05338500067591667,-0.08816300332546234,0.046734001487493515,0.04882799834012985,-0.02009500004351139,-0.06442099809646606,-0.06936600059270859,0.0759119987487793,-0.05647199973464012,-0.10309600085020065,0.0760670006275177,0.03704499825835228,-0.15193800628185272,0.0014169999631121755,0.05765699967741966,-0.06664399802684784,0.03931200131773949,0.05656300112605095,-0.06114700064063072,-0.22339999675750732,-0.0028379999566823244,-0.10347600281238556,0.10142699629068375,0.03688399866223335,0.0528549998998642,-0.021271999925374985,-0.013422000221908092,0.008554000407457352,-0.06594199687242508,-0.007658999878913164,0.01425699982792139,-0.008603000082075596,0.06229700148105621,0.0713609978556633,0.0014809999847784638,0.07011699676513672,0.07036899775266647,0.044762998819351196,0.03203200176358223,-0.018497999757528305,0.00885900016874075,-0.12862199544906616,0.06359899789094925,-0.09119600057601929,-0.0034459999296814203,0.06840799748897552,0.11568800359964371,-0.036593999713659286,-0.06407199800014496,0.011435000225901604,0.026691000908613205,0.09192000329494476,-0.040226999670267105,-0.021095000207424164,0.04873400181531906,-0.11050400137901306,0.2300570011138916,0.11033400148153305,-0.05938500165939331,-0.08611799776554108,0.13349699974060059,0.045976001769304276,0.1305840015411377,-0.10184600204229355,0.026359999552369118,0.03740600124001503,-0.09918899834156036,0.11368799954652786,-0.11109399795532227,-0.023148000240325928,-0.061225999146699905,0.03949899971485138,-0.005619999952614307,-0.026088999584317207,0.037905000150203705,0.010262000374495983,-0.05010699853301048,-0.010022000409662724,-0.03677399829030037,0.19558900594711304,-0.05578700080513954,0.05932699888944626,-0.10174400359392166,-0.014396999962627888,-0.12971700727939606,-0.05439100041985512,-0.0269399993121624,-0.15724200010299683,-0.20054200291633606,-0.0,-0.050241999328136444,0.08428899943828583,-0.0608999989926815,-0.10831700265407562,-0.08642599731683731,0.0377810001373291,0.022578999400138855,-0.08694999665021896,-0.01743900030851364,0.0349700003862381,-0.12999600172042847,0.022672999650239944,-0.0,0.022508999332785606,0.013212000019848347,0.07477399706840515,-0.022182000800967216,0.07712999731302261,0.052542999386787415,-0.016736000776290894,0.04897499829530716,-0.058841001242399216,-0.019315000623464584,0.04552600160241127,-0.08912400156259537,0.0007450000266544521,0.14581799507141113,-0.0832199975848198,-0.01476799976080656,-0.011202000081539154,0.009091000072658062,0.011901999823749065,-0.006765999831259251,-0.03502200171351433,-0.06310299783945084,0.06268800050020218,0.06466899812221527,0.059477001428604126,-0.09712699800729752,-0.09685900062322617,-0.0509600006043911,0.19591499865055084,0.05725900083780289,0.13066799938678741,0.013977999798953533,-0.048312000930309296,0.03503800183534622,0.029867999255657196,-0.009580999612808228,-0.02009199932217598,-0.006258999928832054,0.07771100103855133,0.053950998932123184,0.035300999879837036,-0.03609900176525116,-0.1423480063676834,0.11082799732685089,0.05498100072145462,0.09862499684095383,-0.07572299987077713,0.10868900269269943,0.03934299945831299,-0.061400000005960464,-0.00506900018081069,-0.08257299661636353,0.057757001370191574,0.1196959987282753,-0.06352400034666061,0.01613900065422058,-0.11252199858427048,-0.062001001089811325,0.03590400144457817,0.07062599807977676,-0.20374999940395355,0.04323099926114082,0.04663499817252159,-0.08980300277471542,0.0357929989695549,0.0028570001013576984,0.10092700272798538,0.11825300008058548,-0.00506999995559454,0.06571099907159805,0.0021929999347776175,-0.07062000036239624,-0.11118099838495255,-0.06678300350904465,0.05126800015568733,-0.09658099710941315,-0.036903999745845795,-0.04069399833679199,-0.057169001549482346,0.04788300022482872,-0.19701500236988068,0.2069540023803711,0.018364999443292618,0.011795000173151493,-0.12315800040960312,0.09064900130033493,0.1073789969086647,0.007873999886214733,-0.05010300129652023,0.03400599956512451,-0.05143599957227707,-0.020284999161958694,0.11878400295972824,-0.03942200168967247,-0.06775200366973877,-0.09464699774980545,0.15057900547981262,-0.057402998208999634,0.021875999867916107,-0.08084999769926071,0.007683999836444855,-0.049508001655340195,0.0013229999458417296,0.011919000186026096,0.09459400177001953,-0.11182600259780884,-0.10259599983692169,0.02428700029850006,0.024826999753713608,-0.0577629990875721,-0.07143300026655197,0.006192000117152929,-0.00034500000765547156,-0.15344800055027008,0.0,0.005535000003874302,-0.03443299978971481,-0.09490299969911575,-0.092740997672081,-0.17925499379634857,-0.0298289991915226,-0.2375580072402954,0.05279700085520744,-0.021335000172257423,-0.010192000307142735,0.01806900091469288,0.006008999887853861,0.0,-0.003025999991223216,0.10274799913167953,0.04624500125646591,0.10984999686479568,0.03449000045657158,-0.10536599904298782,-0.014316000044345856,-0.1381780058145523,0.09964600205421448,-0.07826700061559677,0.11895299702882767,0.06193400174379349,-0.04495200142264366,0.05604900047183037,-0.06788600236177444,0.007885999977588654,0.010382999666035175,-0.03827600181102753,0.07001499831676483,0.01909700036048889,0.035592999309301376,0.031915999948978424,-0.02600800059735775,0.07704199850559235,0.20267100632190704,0.014976000413298607,-0.10796000063419342,-0.1455100029706955,0.10118799656629562,0.02230199985206127,0.16503499448299408,-0.03729800134897232,-0.01092000026255846,-0.07474300265312195,-0.2461239993572235,0.046463001519441605,-0.05142400041222572,-0.08054400235414505,-0.11632700264453888,0.1395310014486313,0.03858200088143349,0.07629399746656418,-0.05136699974536896,0.048882998526096344,0.07894399762153625,-0.022427000105381012,-0.06637199968099594,0.05075100064277649,0.10905999690294266,-0.004476999863982201,-0.014073999598622322,-0.0326399989426136,-0.09439300000667572,0.10416299849748611,0.06391599774360657,-0.025039000436663628,-0.09307499974966049,-0.06521999835968018,0.15548700094223022,-0.04581400007009506,-0.04006100073456764,-0.03983300179243088,0.005628999788314104,0.07522600144147873,0.06823500245809555,0.04101400077342987,-0.01585499942302704,0.2474610060453415,-0.12445700168609619,-0.017325999215245247,0.03437799960374832,-0.09737399965524673,-0.01082600001245737,-0.008538000285625458,-0.01714099943637848,-0.17020900547504425,-0.04602900147438049,-0.1246969997882843,-0.0816269963979721,-0.015907999128103256,-0.13699600100517273,0.1256379932165146,-0.00762300007045269,0.04354200139641762,0.06748899817466736,-0.10081800073385239,0.08963099867105484,-0.03405100107192993,0.015002000145614147,0.026931999251246452,0.000375000003259629,0.14524200558662415,0.05970500037074089,0.11375699937343597,-0.07034099847078323,0.022715000435709953,-0.016840999945998192,0.08395899832248688,0.06311199814081192,0.049143001437187195,0.13212800025939941,0.01564900018274784,-0.05169700086116791,-0.05161000043153763,0.2328609973192215,0.027089999988675117,-0.04778499901294708,0.022944999858736992,0.030047999694943428,0.11978399753570557,-0.07571899890899658,-0.01893799938261509,0.08392100036144257,-0.14579200744628906,-0.0,0.030990999191999435,0.003063000040128827,-0.11836399883031845,0.06710600107908249,-0.07872200012207031,0.0775189995765686,-0.18057599663734436,0.04086799919605255,-0.03690500184893608,0.1675560027360916,-0.028085999190807343,0.04162399843335152,-0.0,0.02234099991619587,0.04255099967122078,-0.07201600074768066,0.15798600018024445,-0.07075600326061249,-0.11498700082302094,-0.0585470013320446,-0.043793000280857086,0.06912600249052048,-0.05640000104904175,0.030515000224113464,0.04666300117969513,0.020428000018000603,0.020572999492287636,-0.07417699694633484,-0.009600999765098095,0.00022600000374950469,-0.02837499976158142,0.13012099266052246,9.999999747378752e-05,0.044741999357938766,-0.004406000021845102,-0.0634400025010109,0.041728999465703964,0.04650399833917618,0.13411200046539307,-0.0379440002143383,-0.08075699955224991,0.01796099916100502,0.007501999847590923,-0.027557000517845154,-0.11039099842309952,-0.03681600093841553,-0.17657999694347382,-0.09705100208520889,-0.007701999973505735,0.018144000321626663,-0.12984199821949005,-0.1588979959487915,0.09070999920368195,-0.042601000517606735,0.0015950000379234552,0.050241000950336456,0.013724000193178654,-0.02974800020456314,-0.02016099914908409,0.1471100002527237,-0.04535900056362152,0.0388839989900589,-0.0737219974398613,0.03635700047016144,0.05312100052833557,-0.160863995552063,-0.017700999975204468,0.14313900470733643,0.04197600111365318,0.04784800112247467,0.045131001621484756,0.001961000030860305,0.025534000247716904,0.15606500208377838,0.11266700178384781,0.1349329948425293,0.07305999845266342,-0.017318999394774437,0.06830699741840363,-0.12643100321292877,0.17163600027561188,0.022836999967694283,-0.004699000157415867,0.06818000227212906,-0.08580700308084488,0.03317100182175636,-0.06298699975013733,0.07356499880552292,-0.043657999485731125,0.051702000200748444,-0.09857899695634842,0.00507500022649765,-0.04623100161552429,-0.0688840001821518,0.1610500067472458,-0.022068999707698822,0.08882399648427963,0.14390499889850616,-0.0057749999687075615,0.006862999871373177,0.04970100149512291,-0.012899000197649002,-0.04665499925613403,-0.01600099913775921,0.07957600057125092,0.04640699923038483,0.014189999550580978,-0.03272999823093414,0.015296000055968761,0.040109001100063324,0.05416300147771835,0.005410000216215849,0.05557800084352493,0.022269999608397484,0.006845999974757433,0.026971999555826187,-0.01499900035560131,0.14276200532913208,0.08270599693059921,0.014365999959409237,0.011215999722480774,0.010677999816834927,0.0859690010547638,-0.07530400156974792,0.040773000568151474,0.07470099627971649,-0.11395899951457977,0.0,0.006244999822229147,-0.0609470009803772,0.002177000045776367,0.045221999287605286,-0.04552999883890152,0.0005430000019259751,0.024584000930190086,0.05270199850201607,-0.049164000898599625,-0.017208000645041466,0.010518000461161137,0.1055769994854927,0.0,-0.09286200255155563,-0.13525700569152832,-0.07649099826812744,0.05620900169014931,0.03574400022625923,-0.052730999886989594,-0.02895200066268444,-0.05398799851536751,0.06633800268173218,0.05989199876785278,-0.012728000059723854,0.008882000111043453,-0.009465999901294708,-0.03869900107383728,-0.04397699981927872,0.0,0.005359000060707331,0.026221999898552895,0.10406599938869476,0.0,0.06841199845075607,0.10699000209569931,-0.01044199988245964,-0.04704099893569946,0.11437799781560898,0.037578001618385315,-0.01664300076663494,-0.15877799689769745,-0.04609199985861778,-0.0630199983716011,0.06225699931383133,-0.12260500341653824,-0.01886500045657158,-0.022554999217391014,-0.07708799839019775,0.03449900075793266,-3.999999989900971e-06,-0.005415999796241522,-0.046188000589609146,0.05911099910736084,-0.013365999795496464,0.12045899778604507,0.020715000107884407,-0.09726700186729431,-0.11764200031757355,0.00495699979364872,0.07946600019931793,-0.007085000164806843,-0.06349600106477737,-0.08832500129938126,0.04021099954843521,0.03886700049042702,0.005016999784857035,-0.06995999813079834,0.10311000049114227,0.019012000411748886,-0.032565999776124954,-0.041315000504255295,0.08046899735927582,0.03959000110626221,0.09406500309705734,0.006000000052154064,0.11972100287675858,0.04017199948430061,-0.01727299951016903,0.031390998512506485,-0.09517800062894821,0.08189299702644348,-0.05466499924659729,0.07235199958086014,0.043196000158786774,0.003558000084012747,0.029844999313354492,0.012988000176846981,0.09453099966049194,-0.1407880038022995,0.0023139999248087406,0.012505000457167625,0.032168999314308167,-0.10621999949216843,-0.01397900003939867,0.11865299940109253,-0.0201990008354187,0.06631699949502945,0.14487600326538086,0.09820300340652466,0.05012800171971321,-0.006111999973654747,-0.028246000409126282,-0.03767000138759613,-0.15938200056552887,-0.002111000008881092,-0.028564000502228737,-0.025359999388456345,-0.1268790066242218,-0.016746999695897102,0.06846699863672256,0.13703499734401703,0.14427199959754944,-0.00038499999209307134,0.11552099883556366,-0.06078699976205826,-0.06035900115966797,7.000000096013537e-06,0.13731999695301056,0.1318569928407669,0.008352000266313553,-0.010626999661326408,-0.05392000079154968,-0.03397800028324127,-0.09239800274372101,-0.03255100175738335,-0.0483269989490509,-0.026770999655127525,-0.0,0.17851799726486206,0.0006120000034570694,-0.03404200077056885,0.02806599996984005,0.036132000386714935,-0.07996000349521637,0.010738000273704529,-0.04875800013542175,-0.06523100286722183,0.022640999406576157,-0.1402049958705902,-0.08866000175476074,0.0,-0.15577100217342377,0.10643599927425385,0.06573700159788132,0.03348400071263313,0.00803299993276596,-0.019557999446988106,-0.03206900134682655,0.011587000451982021,-0.0018060000147670507,0.02477099932730198,0.007513999938964844,-0.06450899690389633,-0.042337000370025635,-0.0017079999670386314,0.0036440000403672457,-0.0,-0.02053000032901764,0.1369750052690506,-0.08475100249052048,-0.0,0.08088800311088562,0.16565999388694763,0.019871000200510025,0.021344000473618507,0.1300780028104782,-0.08895000070333481,0.027073999866843224,0.036003001034259796,0.15186099708080292,-0.03328699991106987,0.00737799983471632,-0.027080999687314034,-0.012682000175118446,0.005427999887615442,-0.09950699657201767,0.0051830001175403595,-0.00020599999697878957,-0.02853900007903576,-0.020894000306725502,-0.17456300556659698,0.004364000167697668,0.006089999806135893,-0.08372899889945984,-0.06229500100016594,-0.020666999742388725,0.003992000129073858,0.01840299926698208,0.15324099361896515,0.0035890000872313976,-0.013278000056743622,-0.07008200138807297,-0.01772399991750717,-0.008648999966681004,0.00020399999630171806,0.04982500150799751,-0.038325998932123184,-0.00839100033044815,0.07475800067186356,0.0552700012922287,-0.04927000030875206,0.03141599893569946,0.03200000151991844,-0.01023900043219328,-0.013388999737799168,-0.09387599676847458,-0.011386999860405922,-0.012703999876976013,0.06804300099611282,-0.029225999489426613,0.04241799935698509,0.14747799932956696,0.10802199691534042,-0.037411998957395554,0.04378899931907654,0.0011070000473409891,-0.10066000372171402,-0.0126740001142025,-0.027814000844955444,0.03403399884700775,-0.049594998359680176,0.06017399951815605,0.1316930055618286,-0.1782280057668686,0.04930799826979637,0.1507059931755066,0.05177899822592735,0.08157200366258621,-0.08983299881219864,0.004629999864846468,-0.06261499971151352,-0.03322799876332283,-3.7999998312443495e-05,-0.016309000551700592,-0.07251500338315964,-0.0483970008790493,0.09421700239181519,0.021578000858426094,0.14280900359153748,0.11318600177764893,-0.034033000469207764,0.05034700036048889,-0.10654100030660629,-0.08050400018692017,0.0008900000248104334,0.06911399960517883,0.10980899631977081,0.059512000530958176,0.0,0.005357999820262194,0.0021750000305473804,-0.03939099982380867,-0.03617599979043007,-0.04463500156998634,-0.029663000255823135,-0.0,0.09801100194454193,0.10868299752473831,0.01242200005799532,0.061177000403404236,-0.016736000776290894,-0.04400299862027168,-0.04557399824261665,-0.0925000011920929,0.012245000340044498,0.06277699768543243,-0.14142000675201416,-0.1167680025100708,0.0,-0.0118429996073246,0.04784400016069412,-0.04761499911546707,0.04655199870467186,-0.045329999178647995,-0.03884800150990486,-0.07543600350618362,-0.02302500046789646,0.046820998191833496,-0.0022750000935047865,-0.05649400129914284,0.008698999881744385,-0.032937001436948776,-0.05309600010514259,0.003068000078201294,0.0,-0.010389000177383423,0.047143999487161636,-0.045504000037908554,0.0,0.040435999631881714,0.1266310065984726,-0.07773000001907349,-0.020760999992489815,0.08544100075960159,-0.016349000856280327,-0.13057400286197662,0.06608500331640244,0.05698399990797043,0.05090399831533432,-0.042167000472545624,-0.053665999323129654,-0.017687000334262848,-0.029990000650286674,-0.04678900167346001,0.012897999957203865,-0.0011630000080913305,-0.11100800335407257,-0.11812900006771088,-0.019432999193668365,0.04823099821805954,0.07429199665784836,0.08595199882984161,-0.06324700266122818,-0.05215499922633171,0.00021699999342672527,0.01406100019812584,0.16877800226211548,-0.009581999853253365,0.016860999166965485,-0.09788399934768677,-0.033938001841306686,-0.040793001651763916,0.022808000445365906,0.08717600256204605,-0.04169100150465965,-0.006262000184506178,0.08737900108098984,-0.009821999818086624,-0.04710499942302704,0.02128800004720688,0.050996001809835434,0.0067079998552799225,-0.13397100567817688,-0.13680200278759003,-0.012047999538481236,-0.05840500071644783,0.16438500583171844,-0.04326099902391434,0.025474000722169876,0.07920599728822708,0.08618400245904922,-0.08285299688577652,0.04150800034403801,0.06249000132083893,-0.14372499287128448,-0.018036000430583954,-0.016937000676989555,0.037595998495817184,0.0162189994007349,0.03316599875688553,0.08062499761581421,-0.12839899957180023,0.05241899937391281,0.009550999850034714,0.017695000395178795,0.07024899870157242,0.01563500054180622,-0.0650859996676445,0.01699800044298172,-0.09109500050544739,-0.005350999999791384,-0.056311000138521194,-0.04172300174832344,-0.08241499960422516,0.021364999935030937,0.038752999156713486,0.13828399777412415,0.01566999964416027,-0.03762400150299072,-0.017746999859809875,-0.013224000111222267,-0.15986700356006622,0.03239599987864494,0.03708299994468689,0.08687499910593033,-0.014553000219166279,0.0,-0.019362999126315117,-0.05280299857258797,-0.0025859999004751444,-0.04004000127315521,-0.10736700147390366,-0.04189499840140343,-0.0,0.1177230030298233,0.07530999928712845,-0.038878001272678375,0.005752999801188707,-0.00939099956303835,0.012740000151097775,-0.025287000462412834,0.0198379997164011,0.042208001017570496,0.08029299974441528,-0.1418060064315796,-0.059344999492168427,0.0,-0.10053099691867828,0.006572999991476536,0.020810000598430634,0.015106000006198883,-0.030787000432610512,-0.006364999804645777,-0.08707799762487411,0.019478999078273773,-0.028694000095129013,-0.022206999361515045,-0.026465000584721565,-0.06520300358533859,-0.03505399823188782,-0.0768899992108345,0.023396000266075134,0.0,-0.0009350000182166696,0.10775399953126907,-0.044158000499010086,-0.0,0.015860000625252724,0.027668999508023262,-0.033817000687122345,-0.01319000031799078,0.08879599720239639,-0.04834099858999252,-0.11842499673366547,0.10486000031232834,0.013027999550104141,0.033897001296281815,0.027595000341534615,-0.09536699950695038,-0.0028099999763071537,0.0028170000296086073,-0.012023000046610832,-0.008697000332176685,-0.0,0.006504000164568424,-0.033445000648498535,-0.029363000765442848,0.05562800168991089,0.12608900666236877,0.11436499655246735,-0.10564400255680084,-0.047885000705718994,0.006554999854415655,0.024958999827504158,0.09182900190353394,-0.03602200001478195,0.031300000846385956,-0.00849399995058775,-0.026249999180436134,0.019040999934077263,-0.03543899953365326,0.03917999938130379,-0.07566700130701065,-0.019733000546693802,0.0838249996304512,0.04354099929332733,0.004765999969094992,0.10762400180101395,-0.019058000296354294,-0.01887200027704239,0.036403998732566833,-0.09144700318574905,0.05140199884772301,0.003346000099554658,0.060687001794576645,0.030047999694943428,-0.048948001116514206,0.014777000062167645,0.11162599921226501,-0.036354001611471176,0.036580998450517654,-0.02612300030887127,-0.07275799661874771,-0.019020000472664833,-0.00016199999663513154,0.029860999435186386,-0.030882999300956726,-0.013074000366032124,-0.008794999681413174,0.026450999081134796,0.07890500128269196,0.09102600067853928,0.11111100018024445,-0.01913299970328808,-0.024500999599695206,-0.013484999537467957,-0.02017500065267086,0.008190000429749489,0.04718099907040596,-0.006529000122100115,-0.061423998326063156,-0.02714099921286106,-0.029270000755786896,0.10695599764585495,0.11105500161647797,0.08425900340080261,-0.00036199999158270657,0.12065199762582779,-0.02687700092792511,-0.07304400205612183,0.01510199997574091,0.04687900096178055,0.12458600103855133,0.027929000556468964,0.0,0.060711998492479324,-0.03203799948096275,-0.0010710000060498714,-0.03960699960589409,-0.09260299801826477,-0.016016999259591103,-0.0,0.06134999915957451,-0.011734999716281891,0.029839999973773956,0.09735000133514404,0.014290000312030315,-0.014113999903202057,-0.015773000195622444,-0.0248429998755455,-0.03778199851512909,0.004722000099718571,-0.12721499800682068,-0.09295099973678589,-0.0,0.02371699921786785,0.05178200080990791,-0.000805000017862767,-0.000598000013269484,-0.02933800034224987,-0.010913999751210213,-0.06843599677085876,-0.013488000258803368,0.02703399956226349,0.07594999670982361,-0.03776000067591667,-0.094541996717453,-0.014771999791264534,-0.05612900108098984,-0.052689000964164734,0.0,-0.000805000017862767,0.1215829998254776,-0.039733998477458954,0.0,0.05011399835348129,0.13596899807453156,0.014271000400185585,-5.900000178371556e-05,-0.012771000154316425,-0.044280000030994415,-0.08727800101041794,0.12430600076913834,0.14242200553417206,-0.0,-0.027706999331712723,-0.07158800214529037,0.016168000176548958,-0.06602499634027481,-0.050742000341415405,0.07174500077962875,0.0,-0.007530999835580587,-0.03343899920582771,-0.05920900031924248,-0.06323499977588654,0.026605000719428062,-0.049431998282670975,0.031007999554276466,-0.0,-0.006587999872863293,-0.018675999715924263,0.1713400036096573,0.02949799969792366,-0.1001489982008934,0.03234099969267845,0.04068500176072121,0.07401800155639648,0.0007019999902695417,0.05671999976038933,-0.034735001623630524,-0.005549000110477209,0.03362699970602989,0.02101599983870983,0.027703000232577324,0.04366600140929222,0.019514000043272972,0.019927000626921654,0.008971000090241432,-0.1285029947757721,0.061567001044750214,-0.05202699825167656,0.11330199986696243,0.008185000158846378,-3.000000106112566e-06,0.04203300178050995,0.10143599659204483,-0.009669000282883644,0.0003129999968223274,0.03272400051355362,-0.029935000464320183,-0.05274299904704094,0.007553999777883291,0.05553499981760979,-0.014286999590694904,-0.0575530007481575,0.030195999890565872,-0.017628999426960945,0.08184400200843811,0.012795000337064266,0.06659600138664246,0.039618998765945435,-0.0006510000093840063,-0.0,-0.014511000365018845,-0.04896700009703636,0.06758599728345871,-0.0031469999812543392,-0.023773999884724617,-0.01972699910402298,-0.007815999910235405,0.01423600036650896,0.02735700085759163,0.07373099774122238,-0.0,0.09713999927043915,-0.0,-0.09306500107049942,-0.0005559999844990671,0.05309100076556206,0.10330100357532501,0.047015998512506485,-0.0,0.006252999883145094,-0.0,0.006089999806135893,-0.08224199712276459,-0.062105000019073486,-5.2999999752501026e-05,-0.0,0.03451000154018402,-0.0022869999520480633,-0.05811399966478348,0.053640998899936676,0.032676998525857925,0.003459000028669834,-0.00036199999158270657,-0.04443899914622307,-0.04424799978733063,0.056258998811244965,-0.09131500124931335,-0.03503800183534622,-0.0,0.004623000044375658,0.009298999793827534,-0.0,0.02217799983918667,0.0024170000106096268,-0.057218000292778015,-0.06478600203990936,-0.009362000040709972,0.09094200283288956,0.042504001408815384,0.023365000262856483,-0.06993000209331512,-0.02163200080394745,-0.0006070000235922635,-0.0015379999531432986,-0.0,-1.700000029813964e-05,0.08281700313091278,-0.0010730000212788582,0.0,0.07223200052976608,0.05920200049877167,0.011792999692261219,-0.03394800052046776,0.04290900006890297,-0.04373599961400032,-0.04274199903011322,0.08473800122737885,0.08422499895095825,-0.0,-0.05567999929189682,-0.052306998521089554,0.0050760000012815,-0.07390499860048294,-0.08178900182247162,0.0841199979186058,-0.0,-0.04059299826622009,-0.02778499945998192,-0.07141300290822983,-0.015678999945521355,0.030084000900387764,-0.035760000348091125,-0.04306900128722191,0.0,-1.4999999621068127e-05,-0.09796600043773651,0.05654500052332878,0.0027660001069307327,-0.06172399967908859,0.0309200007468462,0.03613400086760521,0.007965999655425549,0.0,0.06703799962997437,-0.008479000069200993,-0.0,0.057298000901937485,0.04654499888420105,-0.00072900002123788,0.021158000454306602,-0.00587099976837635,0.0421920008957386,0.03192799910902977,-0.01808900013566017,0.03648199886083603,-0.050999999046325684,0.05212400108575821,-0.024802999570965767,-0.0,0.0017320000333711505,0.13217400014400482,-0.006060999818146229,-0.03182800114154816,0.00824899971485138,-0.009165000170469284,-0.017734000459313393,0.0017419999931007624,0.0023449999280273914,-0.053362999111413956,-0.04396999999880791,0.043035998940467834,-0.012822000309824944,0.059967998415231705,0.02644599974155426,0.00999400019645691,-0.0010260000126436353,0.0,0.0,-0.02433199994266033,-0.024633999913930893,-0.0019199999514967203,-0.015213999897241592,0.010684000328183174,-0.05334499850869179,0.013074000366032124,0.019128000363707542,0.03240299969911575,0.033952001482248306,-0.0,0.05187999829649925,-0.0,-0.052418000996112823,-0.001256000017747283,0.04674899950623512,0.07090900093317032,-0.011686000041663647,-0.0,0.0,0.0,-0.008787999860942364,-0.01954999938607216,-0.006725999992340803,-0.0,-0.0,0.04083099961280823,-0.017704999074339867,-0.06321399658918381,-0.0015529999509453773,0.01903899945318699,-0.0003129999968223274,-0.0,0.026856999844312668,-0.041147999465465546,0.03562700003385544,-0.051013000309467316,0.02134300023317337,-0.0,-0.003957999870181084,-0.0,-0.0,0.023528000339865685,0.003826000029221177,-0.04228699952363968,-0.04896099865436554,-0.01244799979031086,0.02309899963438511,0.012934000231325626,-0.0007229999755509198,0.01732099987566471,-0.010722000151872635,0.0,-0.04106700047850609,-0.0,-0.0,0.03846000134944916,0.0,0.0,0.011068000458180904,0.02851100079715252,0.0024649999104440212,-0.03888599947094917,0.006713000126183033,-0.008569000288844109,-0.010572999715805054,0.009052000008523464,0.06017899885773659,-0.0,-0.03465399891138077,-0.04067299887537956,-0.018425000831484795,-0.02051899954676628,-0.07195799797773361,0.02360299974679947,0.0,-0.017333999276161194,-0.04837999865412712,-0.011621000245213509,-0.014878000132739544,0.02845899946987629,0.01716100051999092,-0.0057310000993311405,-0.0,-0.0002229999954579398,-0.0300890002399683,0.03858000040054321,-0.0,-0.041189998388290405,0.017842000350356102,0.024013999849557877,-0.014158999547362328,0.0,0.050023000687360764,-0.0012509999796748161,-0.0,-0.0016720000421628356,0.03178999945521355,-0.0020550000481307507,0.02080399915575981,0.03510399907827377,0.0005779999773949385,0.017084000632166862,-0.007565000094473362,0.017488999292254448,-0.00032699998700991273,0.0565200001001358,-0.05105400085449219,-0.0,0.011088999919593334,0.01676899939775467,0.0021230001002550125,-0.04200800135731697,0.0,-0.0,0.0,0.0,-0.0,0.0,0.0,0.0,0.0,-0.0,0.0,0.0,-0.0,0.0,0.0,-0.0,0.0,0.0,0.0,0.0,0.0,0.0,-0.0,0.0,-0.0,0.0,0.0,-0.0,0.0,-0.0,-0.0,0.0,0.0,0.0,0.0,-0.0,0.0,0.0,-0.0,0.0,-0.0,-0.0,-0.0,0.0,-0.0,0.0,-0.0,-0.0,-0.0,-0.0,-0.0,0.0,-0.0,0.0,-0.0,-0.0,-0.0,-0.0,0.0,-0.0,-0.0,0.0,0.0,0.0,-0.0,0.0,0.0,0.0,0.0,0.0,0.0,-0.0,0.0,-0.0,-0.0,0.0,-0.0,0.0,-0.0,-0.0,-0.0,-0.0,0.0,-0.0,0.0,0.0,-0.0,0.0,0.0,0.0,0.0,0.0,0.0,-0.0,0.0,-0.0,-0.0,-0.0,0.0,-0.0,0.0,-0.0,-0.0,-0.0,0.0,-0.0,-0.0,0.0,0.0,0.0,0.0,-0.0,-0.0,-0.0,0.0,-0.0,0.0,-0.0,0.0,0.0,0.0,-0.0,0.0,0.0,-0.0,0.0,0.0,-0.0,-0.0,-0.0,-0.0,0.0,0.0,-0.0,-0.0,0.0,-0.0,-0.0,-0.0,0.0,0.0,0.0,-0.0,0.0,0.0,0.0,-0.0,-0.0,0.0,0.0,0.0,-0.0,0.0,0.0,-0.0,-0.0,-0.0,0.0,0.0,0.0,0.0,-0.0,0.0,-0.0,-0.0,-0.0,0.0,0.0,-0.0,-0.0,-0.0,-0.0,0.0,-0.0,-0.0,0.0,-0.0,-0.0,0.0,-0.0,-0.0,-0.0,-0.0,0.0,0.0,-0.0,0.0,-0.0,0.0,-0.0,-0.0,0.0,0.0,0.0,0.0,-0.0,0.0,0.0,0.0,-0.0,0.0,0.0,0.0,0.0,0.0,0.0,0.0,0.0,0.0,0.0,0.0,0.0,0.0,0.0,0.0,0.0,0.0,0.0,-0.0,0.0,0.0,0.0,0.0,-0.0,0.0,-0.0,-0.0,-0.0,-0.0,-0.0,-0.0,-0.0,-0.0,-0.0,-0.0,0.0,-0.0,0.0,0.0,0.0,0.0,0.0,-0.0,-0.0,0.0,-0.0,-0.0,0.0,-0.0,0.0,0.0,0.0,0.0,0.0,-0.0,-0.0,-0.0,-0.0,0.0,-0.0,-0.0,0.0,-0.0,-0.0,-0.0,-0.0,-0.0,-0.0,-0.0,-0.0,-0.0,-0.0,-0.0,-0.0,-0.0,-0.0,0.0,0.0,-0.0,-0.0,-0.0,-0.0,0.0,-0.0,-0.0,-0.0,0.0,-0.0,-0.0,-0.0,-0.0,0.0,-0.0,0.0,-0.0,-0.0,0.0,-0.0,-0.0,0.0,0.0,0.0,-0.0,0.0,0.0,-0.0,0.0,0.0,0.0,0.0,0.0,-0.0,-0.0,-0.0,-0.0,0.0,0.0,-0.0,0.0,0.0,0.0,0.0,-0.0,-0.0,-0.0,0.0,-0.0,0.0,0.0,0.0,0.0,-0.0,-0.0,-0.0,0.0,0.0,0.0,0.0,-0.0,0.0,-0.0,0.0,0.0,0.0,-0.0,0.0,0.0,-0.0,0.0,-0.0,0.0,0.0,0.0,-0.0,0.0,0.0,0.0,0.0,0.0,-0.0,0.0,0.0,-0.0,-0.0,-0.0,-0.0,0.0,0.0,-0.0,-0.0,-0.0,0.0,0.0,-0.0,-0.0,0.0,0.0,0.0,0.0,0.0,-0.0,0.0,0.0,-0.0,0.0,0.0,0.0,-0.0,-0.0,0.0,0.0,0.0,-0.0,0.0,-0.0,0.0,-0.0,-0.0,0.0,0.0,0.0,0.0,0.0,0.0,-0.0,-0.0,0.0,-0.0,0.0,0.0,-0.0,-0.0,-0.0,0.0,-0.0,0.0,0.0,0.0,0.0,0.0,0.0,-0.0,-0.0,0.0,0.0,-0.0,0.0,0.0,-0.0,-0.0,-0.0,-0.0,-0.0,-0.0,-0.0,0.0,0.0,0.0,-0.0,-0.0,0.0,-0.0,0.0,-0.0,-0.0,-0.0,0.0,0.0,-0.0,0.0,-0.0,0.0,-0.0,-0.0,0.0,-0.0,-0.0,0.0,-0.0,0.0,0.0,0.0,0.0,-0.0,0.0,0.0,0.0,-0.0,-0.0,0.0,0.0,0.0,-0.0,-0.0,0.0,-0.0,-0.0,-0.0,-0.0,0.0,-0.0,0.0,-0.0,0.0,-0.0,0.0,-0.0,-0.0,-0.0,-0.0,-0.0,-0.0,0.0,-0.0,-0.0,-0.0,0.0,-0.0,0.0,-0.0,-0.0,-0.0,-0.0,0.0,0.0,-0.0,0.0,-0.0,-0.0,-0.0,0.0,-0.0,-0.0,0.0,0.0,-0.0,-0.0,-0.0,-0.0,-0.0,0.0,-0.0,-0.0,0.0,0.0,-0.0,-0.0,-0.0,0.0,-0.0,0.0,-0.0,-0.0,-0.0,-0.0,0.0,0.0,0.0,-0.0,0.0,0.0,-0.0,-0.0,0.0,-0.0,0.0,0.0,0.0,-0.0,0.0,0.0,-0.0,0.0,0.0,-0.0,0.0,-0.0,-0.0,-0.0,-0.0,-0.0,-0.0,-0.0,0.0,-0.0,0.0,0.0,0.0,0.0,0.0,0.0,0.0,-0.0,-0.0,-0.0,0.0,-0.0,0.0,0.0,-0.0,-0.0,-0.0,-0.0,0.0,-0.0,0.0,0.0,0.0,0.0,-0.0,-0.0,0.0,-0.0,-0.0,0.0,0.0,-0.0,0.0,-0.0,-0.0,0.0,-0.0,-0.0,0.0,-0.0,0.0,-0.0,0.0,0.0,0.0,0.0,-0.0,0.0,-0.0,-0.0,0.0,0.0,-0.0,0.0,-0.0,0.0,-0.0,-0.0,-0.0,-0.0,0.0,-0.0,0.0,-0.0,0.0,0.0,0.0,0.0,0.0,-0.0,0.0,-0.0,0.0,-0.0,-0.0,-0.0,0.0,-0.0,-0.0,0.0,0.0,0.0,-0.0,-0.0,0.0,0.0,0.0,0.0,-0.0,0.0,0.0,-0.0,-0.0,0.0,0.0,-0.0,-0.0,0.0,-0.0,0.0,0.0,0.0,-0.0,0.0,-0.0,-0.0,0.0,0.0,0.0,-0.0,0.0,-0.0,0.0,0.0,0.0,0.0,-0.0,-0.0,0.0,-0.0,0.0,0.0,0.0,-0.0,-0.0,-0.0,-0.0,-0.0,-0.0,0.0,-0.0,-0.0,0.0,-0.0,-0.0,0.0,-0.0,-0.0,-0.0,-0.0,-0.0,0.0,0.0,0.0,-0.0,0.0,0.0,0.0,0.0,0.0,0.0,-0.0,-0.0,0.0,0.0,0.0,0.0,0.0,-0.0,0.0,0.0,0.0,-0.0,0.0,-0.0,-0.0,0.0,0.0,-0.0,-0.0,-0.0,-0.0,0.0,0.0,0.0,-0.0,0.0,-0.0,0.0,0.0,0.0,-0.0,-0.0,0.0,-0.0,-0.0,0.0,0.0,0.0,-0.0,0.0,0.0,-0.0,0.0,-0.0,-0.0,0.0,-0.0,-0.0,-0.0,0.0,0.0,-0.0,-0.0,-0.0,-0.0,-0.0,-0.0,-0.0,0.0,-0.0,-0.0,-0.0,-0.0,0.0,-0.0,0.0,0.0,0.0,-0.0,0.0,0.0,0.0,0.0,-0.0,-0.0,-0.0,-0.0,0.0,0.0,0.0,-0.0,-0.0,0.0,-0.0,-0.0,-0.0,0.0,-0.0,0.0,-0.0,0.0,-0.0,-0.0,0.0,0.0,-0.0,0.0,0.0,-0.0,-0.0,-0.0,-0.0,-0.0,-0.0,-0.0,-0.0,-0.0,0.0,0.0,-0.0,0.0,-0.0,-0.0,0.0,-0.0,0.0,0.0,-0.0,0.0,0.0,0.0,-0.0,0.0,0.0,0.0,0.0,0.0,-0.0,0.0,0.0,0.0,0.0,-0.0,-0.0,-0.0,-0.0,-0.0,-0.0,0.0,0.0,0.0,0.0,-0.0,-0.0,0.0,0.0,0.0,0.0,-0.0,0.0,-0.0,-0.0,-0.0,-0.0,0.0,0.0,0.0,0.0,0.0,0.0,0.0,0.0,0.0,-0.0,0.0,0.0,0.0,0.0,0.0,0.0,0.0,0.0,-0.0,-0.0,0.0,0.0,-0.0,-0.0,-0.0,-0.0,0.0262410007417202,-0.11289600282907486,-0.07552800327539444,-0.0,0.0,-0.010595000348985195,0.036793000996112823,0.0,-0.00021800000104121864,0.14044199883937836,0.07796800136566162,0.00047900000936351717,0.00019500000053085387,-0.04262400045990944,-0.001019999966956675,0.0,-0.08833000063896179,0.1223829984664917,0.0327179990708828,0.1097709983587265,-0.1450359970331192,0.14633600413799286,-0.017691999673843384,0.12528300285339355,0.12646600604057312,-0.0014049999881535769,0.003120000008493662,0.0037380000576376915,-0.11747600138187408,0.0,-5.700000110664405e-05,-0.07810299843549728,-0.11283600330352783,0.008825000375509262,0.1375730037689209,0.0888810008764267,0.12235400080680847,3.7999998312443495e-05,-0.05631700158119202,2.5999999706982635e-05,-0.0,0.01640699990093708,-0.08709699660539627,0.0,-0.06664600223302841,-0.1441420018672943,0.15149599313735962,-0.12666499614715576,0.006622000131756067,-0.02353600040078163,0.0,0.17287899553775787,-0.0,-0.0,-0.024444999173283577,0.0,0.0,-0.0,0.12380100041627884,-0.048893000930547714,-0.10559900104999542,-0.12078099697828293,0.12556099891662598,0.07187200337648392,-0.11925199627876282,0.10422100126743317,-0.12377200275659561,-0.0,-0.08556400239467621,-0.0,0.07942499965429306,-0.07084500044584274,0.12126599997282028,-0.0,-0.018716000020503998,0.13274799287319183,-0.11411400139331818,-0.004366000182926655,0.11764899641275406,-0.04883600026369095,-0.13400299847126007,0.0,-0.14079800248146057,0.0954580008983612,0.0885469987988472,-0.06677599996328354,0.010670999996364117,-0.17690600454807281,-0.15068399906158447,-0.12630799412727356,0.0,-0.14598000049591064,-0.15314200520515442,0.14223100244998932,0.07574299722909927,0.09400700032711029,0.05928799882531166,0.0,-0.0,-0.14940999448299408,0.0,-0.08169300109148026,0.00015500000154133886,-0.0,0.14148999750614166,-0.0,-0.09385800361633301,-0.0011970000341534615,0.10221800208091736,-0.0,-0.0,-0.10967700183391571,0.01570799946784973,-0.0,0.15520800650119781,0.0,0.018629999831318855,0.05369799956679344,-0.10142400115728378,0.03306199982762337,0.00020199999562464654,0.0004729999927803874,-0.11352699995040894,-0.00022499999613501132,0.10941600054502487,0.023384999483823776,-0.01170200016349554,0.0,0.05339000001549721,-0.09470299631357193,-0.032836999744176865,-0.00015100000018719584,-0.0,-0.0005290000117383897,0.03745799884200096,0.0007699999841861427,-0.00027200000477023423,0.13331499695777893,0.04694699868559837,0.0023819999769330025,0.00016599999798927456,-0.04290200024843216,-0.0003100000030826777,-3.099999958067201e-05,-0.0778300017118454,0.1446020007133484,0.010755999945104122,0.07117199897766113,-0.08816000074148178,0.1310950070619583,-0.01280600018799305,0.12000299990177155,0.06907899677753448,-0.00030300000798888505,0.0018400000408291817,0.00033000000985339284,-0.10444500297307968,0.00011500000255182385,0.0008120000129565597,-0.02943900041282177,-0.07463099807500839,0.0019259999971836805,0.0878089964389801,0.0838169977068901,0.08028999716043472,-0.00024399999529123306,-0.028742000460624695,-0.0028150000143796206,-0.0,0.029410000890493393,-0.04834499955177307,9.699999645818025e-05,-0.00481799989938736,-0.10855100303888321,0.06036800146102905,-0.09513399749994278,0.002749999985098839,-0.009076000191271305,0.0005549999768845737,0.1253879964351654,-0.00024300000222865492,-0.0,-0.014662000350654125,0.003476999932900071,-0.0,-0.0014959999825805426,0.10643400251865387,-0.0348379984498024,-0.10749399662017822,-0.10126499831676483,0.12313400208950043,0.031103000044822693,-0.07149100303649902,0.06104600057005882,-0.1673000007867813,-0.0019249999895691872,-0.12178000062704086,-0.0,0.04482400044798851,-0.03524100035429001,0.07207699865102768,-0.0,-0.024795999750494957,0.14159999787807465,-0.1240449994802475,-0.00024199999461416155,0.12364400178194046,-0.030605999752879143,-0.0867680013179779,0.0006249999860301614,-0.0950239971280098,0.07684899866580963,0.07730799913406372,-0.03355000168085098,-0.0012519999872893095,-0.15499700605869293,-0.14521199464797974,-0.06082100048661232,0.0,-0.10491900146007538,-0.1217230036854744,0.0893239974975586,0.037730999290943146,0.05008799955248833,0.02914699912071228,-7.599999662488699e-05,-0.0012069999938830733,-0.10276900231838226,8.099999831756577e-05,-0.11722499877214432,0.0013409999664872885,-0.004083000123500824,0.14839999377727509,0.00020199999562464654,-0.04552000015974045,-0.000737000023946166,0.07293099910020828,7.400000322377309e-05,-0.0008060000254772604,-0.12250199913978577,0.013263000175356865,-0.0004769999941345304,0.16718800365924835,-0.0004250000056345016,0.00970499962568283,0.038019999861717224,-0.06903000175952911,0.007029999978840351,-0.0004939999780617654,-0.0005910000181756914,-0.05791199952363968,0.00010199999815085903,0.057013001292943954,-0.001041000010445714,0.012462000362575054,-0.0,-0.0009180000051856041,-0.00792699959129095,-0.006761999800801277,-0.0026469998992979527,-0.0,-0.0025770000647753477,-0.005104999989271164,0.0004140000091865659,-0.009762999601662159,0.0012420000275596976,0.04959699884057045,0.0006399999838322401,-0.00038400001358240843,-0.007424000184983015,0.0013050000416114926,0.013206999748945236,-0.004304999951273203,0.0007249999907799065,0.018224000930786133,-0.00024900000425986946,0.0014900000533089042,-0.01729300059378147,-0.014863000251352787,0.0034020000603049994,-0.006167999934405088,0.002474999986588955,-0.008403999730944633,-0.006550999823957682,0.0025649999734014273,2.4000000848900527e-05,0.0016479999758303165,0.04810899868607521,-8.399999933317304e-05,-9.999999974752427e-07,-1.9999999949504854e-06,0.00120900000911206,0.0026420000940561295,0.0016469999682158232,0.003719999920576811,-0.0012359999818727374,0.0,-0.014547999948263168,-0.004033000208437443,-2.9999999242136255e-05,0.019217999652028084,-0.005324999801814556,-0.004596000071614981,-0.008806000463664532,-0.0005380000220611691,-3.300000025774352e-05,0.00018000000272877514,-0.01633100025355816,-0.009255999699234962,-0.0,-0.03215400129556656,0.0004579999949783087,-0.000666000007186085,0.022645000368356705,-0.0,-0.005319999996572733,-0.00496200006455183,-0.00022200000239536166,0.02175699919462204,-0.008662999607622623,0.003406000090762973,0.014015999622642994,-0.0003279999946244061,-0.0022239999379962683,0.0017519999528303742,-0.0,0.005932000000029802,-0.03622300177812576,-0.0004659999976865947,-1.9999999949504854e-06,0.01028900034725666,0.012622999958693981,-0.004269000142812729,-4.3000000005122274e-05,0.0007570000016130507,0.0014009999576956034,-0.000653000024612993,-0.003955000080168247,-0.02384299971163273,-9.999999974752427e-07,0.001196000026538968,-0.0002579999854788184,-0.0004070000140927732,0.009525000117719173,-0.0017679999582469463,0.004050000105053186,-0.0006689999718219042,0.0,-0.0007450000266544521,-0.032023001462221146,-0.0040699997916817665,0.028761999681591988,0.0001849999971454963,0.03257400169968605,-0.0016639999812468886,-0.0006130000110715628,-0.0003000000142492354,0.00430600019171834,-0.0006169999833218753,-0.006618000101298094,-0.0006590000120922923,0.0014359999913722277,-0.0035389999393373728,-0.0011820000363513827,0.001601999974809587,-0.00020900000527035445,-0.012937000021338463,0.0042329998686909676,-0.0002530000056140125,0.001973999897018075,0.00481799989938736,-0.0019519999623298645,0.006839000154286623,-0.0005159999709576368,0.007236999925225973,0.01090299990028143,-0.00017600000137463212,-0.00991399958729744,0.003005000064149499,0.0047160000540316105,0.008987000212073326,4.999999873689376e-06,-0.014551999978721142,-9.999999974752427e-07,0.014262000098824501,-0.04543000087141991,-0.03227899968624115,-0.028087999671697617,0.0,-0.01431300025433302,0.026936000213027,0.025512000545859337,-0.024973999708890915,0.017878999933600426,0.051336001604795456,0.0003490000090096146,0.09629499912261963,-0.06779000163078308,0.05116499960422516,-0.06897000223398209,-0.008030000142753124,-0.000805000017862767,0.033695999532938004,0.00392899988219142,-0.009974000044167042,0.048190999776124954,-0.021476000547409058,-0.019213000312447548,0.08692000061273575,-0.019199000671505928,0.010243999771773815,-0.011831000447273254,-0.04441700130701065,-0.0030980000738054514,0.06085899844765663,-0.021515000611543655,-0.019051000475883484,0.0005099999834783375,0.060812998563051224,0.021124999970197678,-0.058292001485824585,0.03742700070142746,-0.014937999658286572,-0.08280199766159058,-0.0,0.12042000144720078,0.027881000190973282,0.007133000064641237,-0.0002730000123847276,-0.029721999540925026,0.013705999590456486,-0.10378000140190125,0.005669999867677689,0.0007859999896027148,0.006178999785333872,-0.055128999054431915,0.04261000081896782,0.0,0.010606000199913979,-0.004095999989658594,-0.0197720006108284,0.009955000132322311,0.007915000431239605,-0.024233000352978706,-0.07602900266647339,-0.022267000749707222,0.07017499953508377,-0.026233000680804253,0.01182399969547987,0.02579299919307232,-0.0463859997689724,0.030784999951720238,0.023485999554395676,-0.000590000010561198,0.008659999817609787,0.0021059999708086252,-0.007689000107347965,0.00029399999766610563,0.06771700084209442,0.011260000057518482,-0.009053999558091164,-0.006800999864935875,0.06885399669408798,0.03055799938738346,-0.01275699958205223,0.03742599859833717,0.010796000249683857,0.019233999773859978,-0.04479299858212471,0.01054800022393465,0.013864999637007713,-0.06464599817991257,-0.08340399712324142,0.024886000901460648,0.031268998980522156,-0.00940799992531538,-0.019874999299645424,0.031585998833179474,-0.01143800001591444,0.059498000890016556,-0.001382000045850873,-0.06251899898052216,-0.0023010000586509705,-0.05999099835753441,-0.03048199974000454,0.081106998026371,-0.018465999513864517,0.051100000739097595,0.04130300134420395,0.00989499967545271,-0.08924700319766998,-0.017868999391794205,0.01524799969047308,-0.024865999817848206,0.013333999551832676,-0.016587000340223312,0.06904099881649017,0.0020179999992251396,0.042371999472379684,-0.023871000856161118,0.0469990000128746,0.015456999652087688,0.005291000008583069,0.019162999466061592,-0.016485000029206276,0.006657000165432692,-0.036733001470565796,-0.016398999840021133,0.040488000959157944,-0.001259000040590763,0.04945699870586395,-0.022630000486969948,0.0934550017118454,-0.1543309986591339,-0.0300890002399683,-0.054646000266075134,0.0,-0.04935299977660179,-0.04296699911355972,0.10577599704265594,-0.006792999804019928,0.13321499526500702,0.11042799800634384,-0.04152800142765045,0.08252699673175812,-0.03067000024020672,-0.04904999956488609,-0.03479199856519699,-0.05784299969673157,0.015046999789774418,-0.06867700070142746,-0.06103000044822693,-0.044617000967264175,0.03656800091266632,0.11511100083589554,0.11498799920082092,-0.006033000070601702,0.03424200043082237,0.1438950002193451,-0.019728999584913254,-0.0660799965262413,-0.018182000145316124,0.1109199970960617,0.13892899453639984,-0.0758650004863739,-0.017253000289201736,0.016920000314712524,0.01560600008815527,0.03458699956536293,0.026551999151706696,-0.03502900153398514,-0.13779500126838684,0.0,0.1001259982585907,-0.025839999318122864,-0.04039200022816658,0.09714800119400024,0.04497100040316582,-0.01593800075352192,-0.12225200235843658,0.07749100029468536,0.0014779999619349837,0.05505000054836273,-0.10173100233078003,0.044110000133514404,0.0,-0.07201799750328064,-0.0183470007032156,-0.013550999574363232,0.06344500184059143,-0.008440000005066395,0.022040000185370445,-0.11116600036621094,-0.09502500295639038,-0.027296999469399452,0.07714799791574478,0.0260429996997118,-0.019488999620079994,0.017635000869631767,-0.03969600051641464,0.05921199917793274,-7.899999764049426e-05,-0.004048999864608049,-0.007356000132858753,-0.028881000354886055,0.0030429998878389597,0.03821000084280968,-0.01143999956548214,-0.061395999044179916,-0.006969999987632036,0.09891699999570847,-0.03038799948990345,0.03664200007915497,-0.006831000093370676,-0.003576999995857477,0.029927000403404236,-0.06406299769878387,-0.08894599974155426,-0.013535000383853912,-0.052237000316381454,-0.14857999980449677,0.10144499689340591,0.027865000069141388,-0.04493200033903122,-0.014680000022053719,-0.027943000197410583,-0.014980999752879143,0.1098020002245903,0.08163899928331375,-0.0762690007686615,-0.02458599954843521,-0.027418000623583794,-0.06778299808502197,0.017937999218702316,-0.02767699956893921,-0.0014720000326633453,-0.012777999974787235,-0.008190000429749489,0.004650000017136335,0.009782999753952026,0.02125299908220768,-0.01192499976605177,-0.006202000193297863,0.0308810006827116,0.013442999683320522,0.04112999886274338,0.04434899985790253,-0.028661999851465225,-0.054614998400211334,-0.024786999449133873,-0.09887199848890305,0.08673600107431412,-0.05753900110721588,-0.007826999761164188,-0.08757799863815308,0.04870099946856499,0.04858599975705147,-0.0022990000434219837,0.04732700064778328,-0.068961001932621,0.011858000420033932,-0.12458500266075134,-0.083917997777462,-0.09094200283288956,0.0001849999971454963,-0.12022899836301804,-0.009093999862670898,0.18318800628185272,-0.08375799655914307,0.10393299907445908,0.1653759926557541,-0.07056699693202972,0.096220001578331,-0.11082900315523148,-0.11415600031614304,-0.11938600242137909,-0.05063199996948242,0.04772200062870979,-0.1358949989080429,0.008492999710142612,-0.14828599989414215,0.04989200085401535,0.022739000618457794,0.0988520011305809,0.049449000507593155,-0.04799100011587143,0.08227299898862839,0.01093200035393238,-0.028672000393271446,-0.01399299968034029,0.02144400030374527,0.17189499735832214,-0.038628000766038895,-0.005993000231683254,0.04094799980521202,-0.024261999875307083,-0.04104800149798393,-0.04993800073862076,-0.03852599859237671,-0.028553999960422516,0.0,0.08368100225925446,-0.05463999882340431,-0.042771998792886734,0.11940500140190125,0.0863720029592514,0.0017049999441951513,-0.1744610071182251,0.041985999792814255,-0.015579000115394592,0.024089999496936798,-0.10636299848556519,-0.004681000020354986,-0.0,-0.08998800069093704,-0.06307300180196762,0.06637299805879593,0.0927710011601448,0.022770000621676445,0.07458099722862244,-0.15408700704574585,-0.010654999874532223,0.01728699915111065,0.12404900044202805,-0.01604500040411949,0.09237100183963776,0.0331140011548996,-0.029704000800848007,-0.029191000387072563,-0.0043739997781813145,-0.010138999670743942,0.008333000354468822,-0.02948099933564663,-0.007782999891787767,0.06635300070047379,0.007211000192910433,-0.06014399975538254,-0.058538999408483505,0.0645890012383461,-0.08176100254058838,-0.025960000231862068,0.07797600328922272,0.02993600070476532,0.014595000073313713,-0.08779100328683853,-0.06856600195169449,-0.07992800325155258,-0.16597700119018555,-0.1977829933166504,0.1378989964723587,0.03455299884080887,-0.025297999382019043,-0.0478690005838871,0.01998800039291382,-0.03883099928498268,0.008340000174939632,0.016821999102830887,-0.06346499919891357,-0.003558000084012747,0.026079999282956123,-0.04990899935364723,-0.016496999189257622,0.048505999147892,0.025968000292778015,-0.025860000401735306,0.0892610028386116,-0.11118800193071365,-0.028446000069379807,0.06263899803161621,-0.030642999336123466,-0.0027550000231713057,0.09088700264692307,-0.021794000640511513,-0.017145000398159027,0.06421399861574173,0.026805000379681587,-0.04160299897193909,0.04252000153064728,-0.053240999579429626,-0.04210500046610832,-0.0739239975810051,0.039645999670028687,-0.04784199967980385,-0.04403499886393547,0.10911999642848969,0.03240299969911575,0.060881998389959335,-0.050471000373363495,-0.04274599999189377,-0.05193600058555603,-0.12676000595092773,-0.10443200170993805,-0.04369800165295601,-0.005313999950885773,-0.029642999172210693,0.28172698616981506,-0.028744999319314957,0.027292000129818916,0.16696399450302124,-0.0920799970626831,0.16135099530220032,-0.038527000695466995,0.04502899944782257,-0.07961399853229523,0.08050700277090073,0.12296000123023987,-0.11722499877214432,0.06239800155162811,-0.02331100031733513,0.023634999990463257,-0.04532000049948692,0.1098100021481514,0.042892999947071075,0.02328599989414215,0.15703000128269196,-0.0887639969587326,-0.05888700112700462,0.06855399906635284,0.014721999876201153,0.0470380000770092,-0.024887999519705772,-0.06955400109291077,-0.03178900107741356,0.03384000062942505,-0.09171000123023987,0.018139999359846115,0.005169000010937452,0.044429998844861984,-0.0,-0.028644999489188194,-0.07559199631214142,-0.0630130022764206,0.07687400281429291,0.12442000210285187,-0.006651000119745731,-0.06421799957752228,0.07602100074291229,-0.1377909928560257,0.03335899859666824,-0.043664999306201935,0.09256699681282043,0.0,-0.03349699825048447,-0.08858700096607208,-0.06459599733352661,0.011210000142455101,-0.07565099745988846,-0.049981001764535904,-0.058511000126600266,-0.07234100252389908,-0.009998000226914883,0.11923100054264069,0.05813699960708618,0.049810998141765594,0.15831400454044342,-0.05239100009202957,0.1163640022277832,-0.028581000864505768,-0.10921400040388107,0.008911999873816967,0.04422599822282791,-0.009073999710381031,0.10246700048446655,0.05535700172185898,-0.10748299956321716,-0.13402099907398224,0.19577699899673462,0.07345700263977051,0.05521799996495247,0.15359200537204742,0.01982099935412407,-0.006686999928206205,-0.11765699833631516,-0.1229029968380928,-0.1595340073108673,-0.01715799979865551,-0.10486699640750885,0.051545001566410065,-0.06019499897956848,0.018376000225543976,-0.11178600043058395,-0.04023599997162819,-0.06365399807691574,-0.0038449999410659075,0.1776989996433258,0.018281999975442886,0.036375999450683594,-0.07767300307750702,0.09353099763393402,-0.03781300038099289,-0.10989700257778168,-0.08451999723911285,-0.13722200691699982,0.08418600261211395,-0.13164600729942322,-0.024233000352978706,-0.049598000943660736,-0.016713999211788177,-0.0639130026102066,0.16459299623966217,0.004906999878585339,0.0974700003862381,0.2621139883995056,0.013566000387072563,-0.040088001638650894,-0.02528100088238716,-0.002383999992161989,-0.057718999683856964,0.026127999648451805,-0.07407999783754349,0.02374899946153164,-0.09358800202608109,-0.04798800125718117,-0.015235000289976597,0.04158499836921692,-0.023506000638008118,-0.05310999974608421,-0.05078800022602081,-0.05741100013256073,-0.08018600195646286,0.20800499618053436,-0.059999000281095505,0.041349999606609344,0.2701829969882965,-0.05960100144147873,0.06606700271368027,0.16301700472831726,-0.12387800216674805,0.18894000351428986,0.047453999519348145,-0.03135300055146217,-0.028404999524354935,0.07326799631118774,0.09221000224351883,-0.05781399831175804,0.06147800013422966,-0.13425099849700928,-0.09150999784469604,0.036642998456954956,0.07186099886894226,-0.04980599880218506,0.03291499987244606,0.14405900239944458,0.025854000821709633,-0.15844200551509857,0.0383480004966259,0.03920700028538704,0.17067499458789825,-0.18997399508953094,-0.14494800567626953,-0.0045460001565515995,0.11885400116443634,-0.0004980000085197389,0.09740599989891052,0.013276999816298485,0.1443759948015213,9.999999974752427e-07,-0.017210999503731728,0.008488000370562077,-0.13811199367046356,0.04899600148200989,0.1739400029182434,-0.0515890009701252,-0.02280599996447563,0.15480099618434906,-0.09165599942207336,-0.0838090032339096,-0.03141799941658974,0.12561500072479248,-0.0,-0.08181100338697433,-0.02704400010406971,-0.028138000518083572,0.09189300239086151,-0.1746470034122467,-0.06007999926805496,-0.017409000545740128,-0.10395699739456177,-0.08601000159978867,-0.013024000450968742,0.11281900107860565,0.10751300305128098,0.01116199977695942,-0.03189999982714653,0.1281770020723343,0.07117799669504166,-0.11428999900817871,0.09941700100898743,-0.0074280002154409885,-0.10408499836921692,-0.03453600034117699,0.0031399999279528856,-0.13617099821567535,-0.2079859972000122,0.1429470032453537,0.03393999859690666,-0.013061000034213066,0.14061500132083893,0.10322800278663635,-0.102401003241539,-0.04571399837732315,-0.07625800371170044,-0.04964800179004669,-0.007296000141650438,-0.18501000106334686,0.13015399873256683,-0.042504001408815384,-0.0044570001773536205,-0.10373900085687637,0.03200799971818924,0.09348700195550919,0.07695499807596207,0.11719699949026108,0.07949600368738174,0.12906800210475922,-0.055465999990701675,0.06159999966621399,-0.06748499721288681,-0.016838999465107918,-0.02147199958562851,-0.044985998421907425,0.09683900326490402,-0.10724800080060959,-0.06988800317049026,-0.04687099903821945,0.0745759978890419,0.005200000014156103,0.1566530019044876,0.0571260005235672,0.07360599935054779,0.2556129992008209,0.10979700088500977,-0.006938000209629536,0.06763099879026413,0.08069399744272232,0.03991499915719032,0.10605199635028839,-0.036017999053001404,-0.03991900011897087,-0.13165299594402313,-0.042426999658346176,-0.05033399909734726,0.09976900368928909,-0.1368730068206787,0.03013099916279316,-0.2382660061120987,-0.11805599927902222,-0.06522099673748016,0.09546899795532227,-0.1145939975976944,-0.008024999871850014,0.30869001150131226,-0.05548200011253357,0.0896420031785965,0.1773419976234436,-0.04540799930691719,0.148717001080513,-0.007034999784082174,0.03801799938082695,-0.19927699863910675,-0.07369499653577805,0.15837399661540985,-0.025387000292539597,-0.05560100078582764,-0.11440499871969223,-0.06710399687290192,0.15102800726890564,0.2020840048789978,-0.025053000077605247,0.074413001537323,0.24645400047302246,-0.09644900262355804,-0.16010600328445435,0.021071000024676323,0.15318399667739868,0.13089899718761444,-0.07829800248146057,-0.013996999710798264,-0.08148100227117538,0.11839500069618225,0.0007859999896027148,-0.029400000348687172,-0.011873000301420689,0.13945600390434265,0.013814999721944332,0.08279100060462952,-0.07227800041437149,-0.15006600320339203,0.18137800693511963,0.043832000344991684,-0.012047999538481236,-0.09334500133991241,-0.03787299990653992,-0.07195399701595306,0.018761999905109406,-0.07394800335168839,0.14004400372505188,-0.0,-0.0719899982213974,-0.18397900462150574,-0.06611199676990509,0.10833299905061722,-0.13650299608707428,0.032384999096393585,-0.11578299850225449,-0.07138700038194656,-0.01569500006735325,-0.00041099998634308577,0.08913999795913696,0.02538199909031391,-0.007664999924600124,-0.07784199714660645,0.09399200230836868,0.0038960000965744257,-0.1560250073671341,0.020382000133395195,-0.002598999999463558,-0.02913700044155121,-0.01945500075817108,0.010359000414609909,-0.1917179971933365,-0.09913299977779388,